{"learner":{"attributes":{"scikit_learn":"{\"_estimator_type\": \"classifier\"}"},"feature_names":["is_weekend","SP_surplus","UK_surplus","DE_surplus","DK_surplus","HU_surplus","SE_surplus","IT_surplus","PO_surplus","NE_surplus"],"feature_types":["i","float","float","float","float","float","float","float","float","float"],"gradient_booster":{"model":{"gbtree_model_param":{"num_parallel_tree":"1","num_trees":"600"},"iteration_indptr":[0,6,12,18,24,30,36,42,48,54,60,66,72,78,84,90,96,102,108,114,120,126,132,138,144,150,156,162,168,174,180,186,192,198,204,210,216,222,228,234,240,246,252,258,264,270,276,282,288,294,300,306,312,318,324,330,336,342,348,354,360,366,372,378,384,390,396,402,408,414,420,426,432,438,444,450,456,462,468,474,480,486,492,498,504,510,516,522,528,534,540,546,552,558,564,570,576,582,588,594,600],"tree_info":[0,1,2,3,4,5,0,1,2,3,4,5,0,1,2,3,4,5,0,1,2,3,4,5,0,1,2,3,4,5,0,1,2,3,4,5,0,1,2,3,4,5,0,1,2,3,4,5,0,1,2,3,4,5,0,1,2,3,4,5,0,1,2,3,4,5,0,1,2,3,4,5,0,1,2,3,4,5,0,1,2,3,4,5,0,1,2,3,4,5,0,1,2,3,4,5,0,1,2,3,4,5,0,1,2,3,4,5,0,1,2,3,4,5,0,1,2,3,4,5,0,1,2,3,4,5,0,1,2,3,4,5,0,1,2,3,4,5,0,1,2,3,4,5,0,1,2,3,4,5,0,1,2,3,4,5,0,1,2,3,4,5,0,1,2,3,4,5,0,1,2,3,4,5,0,1,2,3,4,5,0,1,2,3,4,5,0,1,2,3,4,5,0,1,2,3,4,5,0,1,2,3,4,5,0,1,2,3,4,5,0,1,2,3,4,5,0,1,2,3,4,5,0,1,2,3,4,5,0,1,2,3,4,5,0,1,2,3,4,5,0,1,2,3,4,5,0,1,2,3,4,5,0,1,2,3,4,5,0,1,2,3,4,5,0,1,2,3,4,5,0,1,2,3,4,5,0,1,2,3,4,5,0,1,2,3,4,5,0,1,2,3,4,5,0,1,2,3,4,5,0,1,2,3,4,5,0,1,2,3,4,5,0,1,2,3,4,5,0,1,2,3,4,5,0,1,2,3,4,5,0,1,2,3,4,5,0,1,2,3,4,5,0,1,2,3,4,5,0,1,2,3,4,5,0,1,2,3,4,5,0,1,2,3,4,5,0,1,2,3,4,5,0,1,2,3,4,5,0,1,2,3,4,5,0,1,2,3,4,5,0,1,2,3,4,5,0,1,2,3,4,5,0,1,2,3,4,5,0,1,2,3,4,5,0,1,2,3,4,5,0,1,2,3,4,5,0,1,2,3,4,5,0,1,2,3,4,5,0,1,2,3,4,5,0,1,2,3,4,5,0,1,2,3,4,5,0,1,2,3,4,5,0,1,2,3,4,5,0,1,2,3,4,5,0,1,2,3,4,5,0,1,2,3,4,5,0,1,2,3,4,5,0,1,2,3,4,5,0,1,2,3,4,5,0,1,2,3,4,5,0,1,2,3,4,5,0,1,2,3,4,5,0,1,2,3,4,5,0,1,2,3,4,5,0,1,2,3,4,5,0,1,2,3,4,5,0,1,2,3,4,5,0,1,2,3,4,5,0,1,2,3,4,5,0,1,2,3,4,5,0,1,2,3,4,5,0,1,2,3,4,5,0,1,2,3,4,5,0,1,2,3,4,5,0,1,2,3,4,5],"trees":[{"base_weights":[1.9556224E-1,-5.307152E-1,2.5126095E0,-5.885794E-1,2.596911E-1,1.5681031E0,2.8650372E0,-2.9825106E-1,-1.8364143E-1,4.005343E-1,5.41794E-2,5.7683754E-1,9.468555E-1,5.6741375E-1,1.4365939E0],"categories":[],"categories_nodes":[],"categories_segments":[],"categories_sizes":[],"default_left":[0,0,0,0,0,0,0,0,0,0,0,0,0,0,0],"id":0,"left_children":[1,3,5,7,9,11,13,-1,-1,-1,-1,-1,-1,-1,-1],"loss_changes":[3.2410608E3,6.723093E1,1.484541E2,2.167694E0,8.156065E0,1.4937317E1,1.4023438E0,0E0,0E0,0E0,0E0,0E0,0E0,0E0,0E0],"parents":[2147483647,0,0,1,1,2,2,3,3,4,4,5,5,6,6],"right_children":[2,4,6,8,10,12,14,-1,-1,-1,-1,-1,-1,-1,-1],"split_conditions":[-3.8753948E3,-1.5515892E4,1.0816983E4,-2.043371E4,-1.452E3,2.79561E3,-2.451E3,-2.9825106E-1,-1.8364143E-1,4.005343E-1,5.41794E-2,5.7683754E-1,9.468555E-1,5.6741375E-1,1.4365939E0],"split_indices":[3,3,3,3,2,3,4,0,0,0,0,0,0,0,0],"split_type":[0,0,0,0,0,0,0,0,0,0,0,0,0,0,0],"sum_hessian":[1.9241667E3,1.4655557E3,4.5861115E2,1.3658334E3,9.972223E1,1.26111115E2,3.3250003E2,1.3169445E3,4.8888893E1,2.0833334E1,7.888889E1,5.7500004E1,6.8611115E1,2.2222223E0,3.302778E2],"tree_param":{"num_deleted":"0","num_feature":"10","num_nodes":"15","size_leaf_vector":"1"}},{"base_weights":[9.9520683E-1,1.7299358E0,1.2254449E-1,2.1401002E0,1.1729268E0,-4.3829396E-1,5.395768E-1,1.1106588E0,7.3459804E-2,6.9731677E-1,1.05904065E-1,-2.7194256E-1,-3.4825593E-2,4.5525783E-1,-1.8978971E-1],"categories":[],"categories_nodes":[],"categories_segments":[],"categories_sizes":[],"default_left":[1,0,0,0,0,0,0,0,0,0,0,0,0,0,0],"id":1,"left_children":[1,3,5,7,9,11,13,-1,-1,-1,-1,-1,-1,-1,-1],"loss_changes":[1.2496241E3,2.3922388E2,2.0889142E2,9.810962E1,9.579053E1,1.4786575E1,1.7495558E2,0E0,0E0,0E0,0E0,0E0,0E0,0E0,0E0],"parents":[2147483647,0,0,1,1,2,2,3,3,4,4,5,5,6,6],"right_children":[2,4,6,8,10,12,14,-1,-1,-1,-1,-1,-1,-1,-1],"split_conditions":[-2.111E3,-1.5462875E4,-1.513E3,-1.2019786E3,-9.754888E3,-1.912E3,-6.34E2,1.1106588E0,7.3459804E-2,6.9731677E-1,1.05904065E-1,-2.7194256E-1,-3.4825593E-2,4.5525783E-1,-1.8978971E-1],"split_indices":[2,8,4,1,1,4,2,0,0,0,0,0,0,0,0],"split_type":[0,0,0,0,0,0,0,0,0,0,0,0,0,0,0],"sum_hessian":[1.9483334E3,1.0572223E3,8.9111115E2,6.072222E2,4.5000003E2,3.8000003E2,5.1111115E2,5.833334E2,2.388889E1,3.652778E2,8.472223E1,2.95E2,8.500001E1,3.641667E2,1.4694446E2],"tree_param":{"num_deleted":"0","num_feature":"10","num_nodes":"15","size_leaf_vector":"1"}},{"base_weights":[-1.3797437E-1,-4.19745E-1,8.014189E-1,-5.666669E-2,-5.7180446E-1,1.6308962E0,-1.3678357E-1,-2.4254464E-1,6.508962E-1,-2.9910213E-1,-2.0747754E-1,9.701243E-1,-3.7756328E-2,-1.6024499E-1,6.6999996E-1],"categories":[],"categories_nodes":[],"categories_segments":[],"categories_sizes":[],"default_left":[1,0,0,0,1,0,0,0,0,0,0,0,0,0,0],"id":2,"left_children":[1,3,5,7,9,11,13,-1,-1,-1,-1,-1,-1,-1,-1],"loss_changes":[5.128526E2,8.2232666E1,3.4818784E2,2.572829E2,4.0901794E0,1.2547833E2,5.758706E1,0E0,0E0,0E0,0E0,0E0,0E0,0E0,0E0],"parents":[2147483647,0,0,1,1,2,2,3,3,4,4,5,5,6,6],"right_children":[2,4,6,8,10,12,14,-1,-1,-1,-1,-1,-1,-1,-1],"split_conditions":[-1.699E3,-2.146E3,-6.74E2,-2.7502E3,-2.226E3,-1.4695382E4,2.35E2,-2.4254464E-1,6.508962E-1,-2.9910213E-1,-2.0747754E-1,9.701243E-1,-3.7756328E-2,-1.6024499E-1,6.6999996E-1],"split_indices":[6,4,4,6,6,3,6,0,0,0,0,0,0,0,0],"split_type":[0,0,0,0,0,0,0,0,0,0,0,0,0,0,0],"sum_hessian":[1.9352778E3,1.4891667E3,4.4611115E2,4.4000003E2,1.0491667E3,2.363889E2,2.0972223E2,3.3500003E2,1.0500001E2,8.955556E2,1.5361111E2,2.0000002E2,3.638889E1,1.8722223E2,2.2500002E1],"tree_param":{"num_deleted":"0","num_feature":"10","num_nodes":"15","size_leaf_vector":"1"}},{"base_weights":[-4.8406306E-1,-5.758959E-1,1.017533E0,-5.889254E-1,-2.8382716E-1,1.9012674E0,-4.4804597E-1,-2.973524E-1,-2.6016393E-1,3.130238E-2,-2.8206682E-1,5.789768E-1,1.1759768E0,-2.6728413E-1,1.9771083E-1],"categories":[],"categories_nodes":[],"categories_segments":[],"categories_sizes":[],"default_left":[0,0,0,0,0,0,0,0,0,0,0,0,0,0,0],"id":3,"left_children":[1,3,5,7,9,11,13,-1,-1,-1,-1,-1,-1,-1,-1],"loss_changes":[2.7130182E2,6.8670654E0,1.4786964E2,3.8134766E-1,7.90601E0,2.102652E1,3.3873463E0,0E0,0E0,0E0,0E0,0E0,0E0,0E0,0E0],"parents":[2147483647,0,0,1,1,2,2,3,3,4,4,5,5,6,6],"right_children":[2,4,6,8,10,12,14,-1,-1,-1,-1,-1,-1,-1,-1],"split_conditions":[-1.2019786E3,-3.8983345E3,1.0816983E4,-6.8873945E3,-3.8753948E3,2.064291E3,6.68281E3,-2.973524E-1,-2.6016393E-1,3.130238E-2,-2.8206682E-1,5.789768E-1,1.1759768E0,-2.6728413E-1,1.9771083E-1],"split_indices":[1,1,3,1,3,1,1,0,0,0,0,0,0,0,0],"split_type":[0,0,0,0,0,0,0,0,0,0,0,0,0,0,0],"sum_hessian":[1.9622223E3,1.8497223E3,1.1250001E2,1.7697223E3,8E1,7E1,4.2500004E1,1.6250001E3,1.4472223E2,3.6111115E1,4.388889E1,2.7777779E1,4.2222225E1,3.888889E1,3.6111112E0],"tree_param":{"num_deleted":"0","num_feature":"10","num_nodes":"15","size_leaf_vector":"1"}},{"base_weights":[3.536165E-2,8.599565E-1,-3.2328546E-1,2.2301787E-1,1.6589653E0,-2.9408159E-2,-4.970169E-1,-2.528696E-1,3.5966834E-1,9.066182E-1,-9.5000006E-2,-1.471651E-1,1.2637064E-1,-2.940584E-1,-2.0985985E-1],"categories":[],"categories_nodes":[],"categories_segments":[],"categories_sizes":[],"default_left":[0,0,0,0,0,0,0,0,0,0,0,0,0,0,0],"id":4,"left_children":[1,3,5,7,9,11,13,-1,-1,-1,-1,-1,-1,-1,-1],"loss_changes":[5.7447626E2,2.9925183E2,6.909822E1,1.19283485E2,7.480884E1,3.7751755E1,5.7336884E0,0E0,0E0,0E0,0E0,0E0,0E0,0E0,0E0],"parents":[2147483647,0,0,1,1,2,2,3,3,4,4,5,5,6,6],"right_children":[2,4,6,8,10,12,14,-1,-1,-1,-1,-1,-1,-1,-1],"split_conditions":[-1.961E3,-1.848282E4,-8.38E2,-9.3389086E4,2.79561E3,-2.1232014E4,-2.0142582E4,-2.528696E-1,3.5966834E-1,9.066182E-1,-9.5000006E-2,-1.471651E-1,1.2637064E-1,-2.940584E-1,-2.0985985E-1],"split_indices":[4,1,4,3,3,1,1,0,0,0,0,0,0,0,0],"split_type":[0,0,0,0,0,0,0,0,0,0,0,0,0,0,0],"sum_hessian":[1.9405557E3,5.8777783E2,1.3527778E3,3.277778E2,2.6E2,5.0305557E2,8.497223E2,1.3277779E2,1.9500002E2,2.4000002E2,2E1,2.5944446E2,2.4361113E2,3.8694446E2,4.627778E2],"tree_param":{"num_deleted":"0","num_feature":"10","num_nodes":"15","size_leaf_vector":"1"}},{"base_weights":[-5.99688E-1],"categories":[],"categories_nodes":[],"categories_segments":[],"categories_sizes":[],"default_left":[0],"id":5,"left_children":[-1],"loss_changes":[0E0],"parents":[2147483647],"right_children":[-1],"split_conditions":[-2.99844E-1],"split_indices":[0],"split_type":[0],"sum_hessian":[1.9541667E3],"tree_param":{"num_deleted":"0","num_feature":"10","num_nodes":"1","size_leaf_vector":"1"}},{"base_weights":[9.971032E-2,-1.8041416E-1,6.3164014E-1,-3.3323509E-1,2.1599117E-1,3.6643276E-1,8.267048E-1,-2.3379916E-1,-8.784537E-2,-1.06700175E-1,2.7576303E-1,-1.683974E-2,2.874718E-1,-2.7393745E-2,4.3049183E-1],"categories":[],"categories_nodes":[],"categories_segments":[],"categories_sizes":[],"default_left":[0,0,1,0,0,1,0,0,0,0,0,0,0,0,0],"id":6,"left_children":[1,3,5,7,9,11,13,-1,-1,-1,-1,-1,-1,-1,-1],"loss_changes":[2.8433978E2,7.581029E1,3.3736603E1,1.902121E1,5.032566E1,2.344912E1,1.1490631E1,0E0,0E0,0E0,0E0,0E0,0E0,0E0,0E0],"parents":[2147483647,0,0,1,1,2,2,3,3,4,4,5,5,6,6],"right_children":[2,4,6,8,10,12,14,-1,-1,-1,-1,-1,-1,-1,-1],"split_conditions":[-3.2853984E4,-8.8E1,-2.027E3,-1.749018E4,-1.7246238E4,-1.9276223E4,-2.421E3,-2.3379916E-1,-8.784537E-2,-1.06700175E-1,2.7576303E-1,-1.683974E-2,2.874718E-1,-2.7393745E-2,4.3049183E-1],"split_indices":[9,4,2,1,1,7,4,0,0,0,0,0,0,0,0],"split_type":[0,0,0,0,0,0,0,0,0,0,0,0,0,0,0],"sum_hessian":[1.9064415E3,1.2492202E3,6.572214E2,9.017608E2,3.474594E2,2.7977402E2,3.7744736E2,4.855895E2,4.1617126E2,1.5255963E2,1.9489978E2,9.611982E1,1.8365419E2,1.4095188E1,3.6335217E2],"tree_param":{"num_deleted":"0","num_feature":"10","num_nodes":"15","size_leaf_vector":"1"}},{"base_weights":[4.9033228E-1,6.668991E-1,-4.3607324E-1,3.228308E-1,1.0298032E0,-1.088999E-1,-5.6562656E-1,2.6733053E-1,-1.8002805E-1,5.5741966E-1,1.7647175E-1,-1.9216704E-1,7.228794E-2,-4.1033E-2,-2.8604555E-1],"categories":[],"categories_nodes":[],"categories_segments":[],"categories_sizes":[],"default_left":[0,0,0,0,0,1,0,0,0,0,0,0,0,0,0],"id":7,"left_children":[1,3,5,7,9,11,13,-1,-1,-1,-1,-1,-1,-1,-1],"loss_changes":[4.1365686E2,2.6473474E2,1.7104095E1,1.5804752E2,5.903308E1,8.169236E0,8.5292816E-1,0E0,0E0,0E0,0E0,0E0,0E0,0E0,0E0],"parents":[2147483647,0,0,1,1,2,2,3,3,4,4,5,5,6,6],"right_children":[2,4,6,8,10,12,14,-1,-1,-1,-1,-1,-1,-1,-1],"split_conditions":[3.019883E2,-1.24E3,1.4844828E4,-2.0134445E3,-5.323333E2,-4.37E2,-3.2462E4,2.6733053E-1,-1.8002805E-1,5.5741966E-1,1.7647175E-1,-1.9216704E-1,7.228794E-2,-4.1033E-2,-2.8604555E-1],"split_indices":[3,4,3,6,6,4,7,0,0,0,0,0,0,0,0],"split_type":[0,0,0,0,0,0,0,0,0,0,0,0,0,0,0],"sum_hessian":[2.526099E3,2.1219587E3,4.0414038E2,1.0902311E3,1.0317275E3,1.1518089E2,2.889595E2,8.322884E2,2.5794266E2,9.159871E2,1.1574043E2,5.4970997E1,6.0209896E1,4.0131145E0,2.8494638E2],"tree_param":{"num_deleted":"0","num_feature":"10","num_nodes":"15","size_leaf_vector":"1"}},{"base_weights":[-7.802676E-2,-4.8374704E-1,3.7934068E-1,-1.2660867E-1,-5.53312E-1,8.4090096E-1,-6.033545E-2,-2.5241834E-1,5.639904E-1,-2.0565006E-1,-2.7940077E-1,5.405645E-1,1.4753364E-1,-2.1108331E-1,3.1225953E-1],"categories":[],"categories_nodes":[],"categories_segments":[],"categories_sizes":[],"default_left":[1,0,0,0,0,0,0,0,0,0,0,0,0,0,0],"id":8,"left_children":[1,3,5,7,9,11,13,-1,-1,-1,-1,-1,-1,-1,-1],"loss_changes":[3.1857928E2,2.2524078E1,1.6385422E2,7.1564804E1,3.5379028E-1,5.130945E1,1.0292196E2,0E0,0E0,0E0,0E0,0E0,0E0,0E0,0E0],"parents":[2147483647,0,0,1,1,2,2,3,3,4,4,5,5,6,6],"right_children":[2,4,6,8,10,12,14,-1,-1,-1,-1,-1,-1,-1,-1],"split_conditions":[-2.44E3,-2.716E3,-1.253E3,-3.089E3,-2.5825293E3,-4.9939504E4,-7.27E2,-2.5241834E-1,5.639904E-1,-2.0565006E-1,-2.7940077E-1,5.405645E-1,1.4753364E-1,-2.1108331E-1,3.1225953E-1],"split_indices":[6,4,4,6,4,3,6,0,0,0,0,0,0,0,0],"split_type":[0,0,0,0,0,0,0,0,0,0,0,0,0,0,0],"sum_hessian":[1.7148286E3,9.08703E2,8.061256E2,1.4862793E2,7.600751E2,3.928414E2,4.132842E2,1.1466486E2,3.396307E1,3.1181047E1,7.28894E2,2.720916E2,1.207498E2,2.7067557E2,1.4260864E2],"tree_param":{"num_deleted":"0","num_feature":"10","num_nodes":"15","size_leaf_vector":"1"}},{"base_weights":[-4.1995993E-1,-4.8703074E-1,-1.3312379E-1,-5.058896E-1,-3.5058793E-1,2.9668355E-2,-4.111824E-1,-1.23154186E-1,-2.5879848E-1,1.22282535E-1,-1.9015819E-1,7.0000716E-2,-2.2051018E-1,-1.5063472E-1,-2.4744456E-1],"categories":[],"categories_nodes":[],"categories_segments":[],"categories_sizes":[],"default_left":[1,1,1,0,0,0,0,0,0,0,0,0,0,0,0],"id":9,"left_children":[1,3,5,7,9,11,13,-1,-1,-1,-1,-1,-1,-1,-1],"loss_changes":[2.7547287E1,2.8069763E0,1.2394869E1,2.9633484E0,2.6521301E0,9.06366E0,7.728672E-1,0E0,0E0,0E0,0E0,0E0,0E0,0E0,0E0],"parents":[2147483647,0,0,1,1,2,2,3,3,4,4,5,5,6,6],"right_children":[2,4,6,8,10,12,14,-1,-1,-1,-1,-1,-1,-1,-1],"split_conditions":[-1.7375E4,-1.9079E4,-1.687E3,-2.036E3,-1.20400414E5,1.0816983E4,-1.5426273E3,-1.23154186E-1,-2.5879848E-1,1.22282535E-1,-1.9015819E-1,7.0000716E-2,-2.2051018E-1,-1.5063472E-1,-2.4744456E-1],"split_indices":[7,7,2,2,3,3,3,0,0,0,0,0,0,0,0],"split_type":[0,0,0,0,0,0,0,0,0,0,0,0,0,0,0],"sum_hessian":[1.4345894E3,1.1621188E3,2.7247058E2,1.0185552E3,1.435636E2,1.7239664E2,1.0007396E2,4.4943382E1,9.7361176E2,6.470165E0,1.3709343E2,1.4024576E2,3.215088E1,4.530448E1,5.4769478E1],"tree_param":{"num_deleted":"0","num_feature":"10","num_nodes":"15","size_leaf_vector":"1"}},{"base_weights":[5.0693046E-2,-5.850421E-1,6.1421984E-1,-1.009105E-1,-5.8802295E-1,1.0885519E0,-1.267205E-1,7.747299E-2,-2.107902E-1,-3.101327E-1,-2.849673E-1,6.3255614E-1,-2.5502269E-3,-2.1483591E-1,2.6788163E-1],"categories":[],"categories_nodes":[],"categories_segments":[],"categories_sizes":[],"default_left":[1,0,0,0,0,0,0,0,0,0,0,0,0,0,0],"id":10,"left_children":[1,3,5,7,9,11,13,-1,-1,-1,-1,-1,-1,-1,-1],"loss_changes":[6.4981506E2,1.1637878E0,3.38065E2,5.9664524E-1,1.2854004E-1,1.1323578E2,7.5725784E1,0E0,0E0,0E0,0E0,0E0,0E0,0E0,0E0],"parents":[2147483647,0,0,1,1,2,2,3,3,4,4,5,5,6,6],"right_children":[2,4,6,8,10,12,14,-1,-1,-1,-1,-1,-1,-1,-1],"split_conditions":[-2.373E3,-2.373E3,-1.253E3,-2.289E3,-1.961E3,-9.096172E3,-7.16E2,7.747299E-2,-2.107902E-1,-3.101327E-1,-2.849673E-1,6.3255614E-1,-2.5502269E-3,-2.1483591E-1,2.6788163E-1],"split_indices":[2,2,4,4,4,3,2,0,0,0,0,0,0,0,0],"split_type":[0,0,0,0,0,0,0,0,0,0,0,0,0,0,0],"sum_hessian":[1.8118359E3,8.5134576E2,9.6049023E2,5.443459E0,8.4590234E2,5.853242E2,3.7516602E2,3.297815E0,2.145644E0,2.9184448E2,5.540578E2,5.0383664E2,8.148755E1,2.5769128E2,1.1747474E2],"tree_param":{"num_deleted":"0","num_feature":"10","num_nodes":"15","size_leaf_vector":"1"}},{"base_weights":[-5.62079E-1,-2.8142154E-1,-2.6168346E-1,1.0335581E-1,-2.1146813E-1],"categories":[],"categories_nodes":[],"categories_segments":[],"categories_sizes":[],"default_left":[0,0,1,0,0],"id":11,"left_children":[1,-1,3,-1,-1],"loss_changes":[1.5829468E-1,0E0,4.9526703E-1,0E0,0E0],"parents":[2147483647,0,0,2,2],"right_children":[2,-1,4,-1,-1],"split_conditions":[-7.848866E3,-2.8142154E-1,-2.671E3,1.0335581E-1,-2.1146813E-1],"split_indices":[8,0,6,0,0],"split_type":[0,0,0,0,0],"sum_hessian":[1.366193E3,1.3618219E3,4.371095E0,1.0313581E0,3.3397372E0],"tree_param":{"num_deleted":"0","num_feature":"10","num_nodes":"5","size_leaf_vector":"1"}},{"base_weights":[6.742071E-2,-5.1014954E-1,6.9185674E-1,-5.418831E-1,-8.266589E-2,5.351545E-1,7.8815436E-1,-2.7485147E-1,-1.8144688E-1,-1.2411521E-1,2.7455992E-1,2.846074E-1,-1.6323249E-1,3.9960855E-1,6.343551E-2],"categories":[],"categories_nodes":[],"categories_segments":[],"categories_sizes":[],"default_left":[0,0,0,0,0,0,0,0,0,0,0,0,0,0,0],"id":12,"left_children":[1,3,5,7,9,11,13,-1,-1,-1,-1,-1,-1,-1,-1],"loss_changes":[6.222568E2,1.2108704E1,1.2074646E1,9.590149E-1,6.7382355E0,9.540878E0,3.6298523E0,0E0,0E0,0E0,0E0,0E0,0E0,0E0,0E0],"parents":[2147483647,0,0,1,1,2,2,3,3,4,4,5,5,6,6],"right_children":[2,4,6,8,10,12,14,-1,-1,-1,-1,-1,-1,-1,-1],"split_conditions":[-9.096172E3,-1.5515892E4,1.7013623E4,-1.2442166E4,-1.292478E4,2.064291E3,6.68281E3,-2.7485147E-1,-1.8144688E-1,-1.2411521E-1,2.7455992E-1,2.846074E-1,-1.6323249E-1,3.9960855E-1,6.343551E-2],"split_indices":[3,3,3,5,5,1,1,0,0,0,0,0,0,0,0],"split_type":[0,0,0,0,0,0,0,0,0,0,0,0,0,0,0],"sum_hessian":[1.723365E3,8.953659E2,8.279991E2,8.33222E2,6.214392E1,3.1769104E2,5.10308E2,7.963055E2,3.6916527E1,4.9733727E1,1.2410196E1,3.0594775E2,1.1743308E1,5.016914E2,8.616605E0],"tree_param":{"num_deleted":"0","num_feature":"10","num_nodes":"15","size_leaf_vector":"1"}},{"base_weights":[3.135354E-1,4.3082976E-1,-3.0468285E-1,7.7905044E-2,6.047192E-1,-3.0663338E-2,-5.09593E-1,1.5927108E-1,-2.2957654E-1,3.387104E-1,-4.6641424E-2,-1.2614512E-1,8.400422E-2,-1.5246777E-1,-2.6654565E-1],"categories":[],"categories_nodes":[],"categories_segments":[],"categories_sizes":[],"default_left":[0,0,0,1,1,1,0,0,0,0,0,0,0,0,0],"id":13,"left_children":[1,3,5,7,9,11,13,-1,-1,-1,-1,-1,-1,-1,-1],"loss_changes":[1.8774907E2,1.3343481E2,2.3178867E1,9.308306E1,7.400653E1,7.874795E0,9.65538E-1,0E0,0E0,0E0,0E0,0E0,0E0,0E0,0E0],"parents":[2147483647,0,0,1,1,2,2,3,3,4,4,5,5,6,6],"right_children":[2,4,6,8,10,12,14,-1,-1,-1,-1,-1,-1,-1,-1],"split_conditions":[-4.962982E3,-1.912E3,1.2214178E4,-2.32E3,-1.11E3,-3.87E2,1.7013623E4,1.5927108E-1,-2.2957654E-1,3.387104E-1,-4.6641424E-2,-1.2614512E-1,8.400422E-2,-1.5246777E-1,-2.6654565E-1],"split_indices":[3,4,3,2,2,4,3,0,0,0,0,0,0,0,0],"split_type":[0,0,0,0,0,0,0,0,0,0,0,0,0,0,0],"sum_hessian":[2.5863323E3,2.1741506E3,4.121816E2,7.18135E2,1.4560156E3,1.7686475E2,2.3531688E2,4.9622107E2,2.2191394E2,1.3187073E3,1.3730832E2,8.349875E1,9.336599E1,2.5719198E1,2.0959769E2],"tree_param":{"num_deleted":"0","num_feature":"10","num_nodes":"15","size_leaf_vector":"1"}},{"base_weights":[-6.213156E-2,-2.7883315E-1,4.5997944E-1,6.851046E-2,-4.8290828E-1,7.1984965E-1,-3.5268405E-1,-2.6416114E-1,2.619061E-1,-1.2501308E-1,-2.6733935E-1,4.247662E-1,8.224274E-2,-2.526121E-1,1.20124675E-1],"categories":[],"categories_nodes":[],"categories_segments":[],"categories_sizes":[],"default_left":[1,0,0,0,0,1,0,0,0,0,0,0,0,0,0],"id":14,"left_children":[1,3,5,7,9,11,13,-1,-1,-1,-1,-1,-1,-1,-1],"loss_changes":[1.6851962E2,7.4637436E1,9.252667E1,1.0635006E2,7.8527374E0,2.3716843E1,9.758584E0,0E0,0E0,0E0,0E0,0E0,0E0,0E0,0E0],"parents":[2147483647,0,0,1,1,2,2,3,3,4,4,5,5,6,6],"right_children":[2,4,6,8,10,12,14,-1,-1,-1,-1,-1,-1,-1,-1],"split_conditions":[-1.391091E3,-2.105E3,-6.6E1,6.088E3,-1.703E3,-1.358E3,4.13E2,-2.6416114E-1,2.619061E-1,-1.2501308E-1,-2.6733935E-1,4.247662E-1,8.224274E-2,-2.526121E-1,1.20124675E-1],"split_indices":[6,4,4,2,4,2,6,0,0,0,0,0,0,0,0],"split_type":[0,0,0,0,0,0,0,0,0,0,0,0,0,0,0],"sum_hessian":[1.4873309E3,1.0514237E3,4.3590717E2,3.893502E2,6.6207355E2,3.3038464E2,1.0552253E2,1.6840889E2,2.209413E2,1.21508194E2,5.4056537E2,2.673972E2,6.298746E1,8.4061386E1,2.1461143E1],"tree_param":{"num_deleted":"0","num_feature":"10","num_nodes":"15","size_leaf_vector":"1"}},{"base_weights":[-3.6117738E-1,-4.4142157E-1,-7.0522055E-2,-4.775805E-1,-3.3472002E-1,7.7782854E-2,-3.5377535E-1,-9.330769E-2,-2.4909575E-1,6.0057707E-2,-1.8518493E-1,-5.2937146E-2,1.4998755E-1,8.1734E-2,-2.0420554E-1],"categories":[],"categories_nodes":[],"categories_segments":[],"categories_sizes":[],"default_left":[0,0,0,0,0,0,0,0,0,0,0,0,0,0,0],"id":15,"left_children":[1,3,5,7,9,11,13,-1,-1,-1,-1,-1,-1,-1,-1],"loss_changes":[2.5573624E1,3.151062E0,1.0060777E1,3.7389526E0,3.632883E0,6.4615574E0,2.3938475E0,0E0,0E0,0E0,0E0,0E0,0E0,0E0,0E0],"parents":[2147483647,0,0,1,1,2,2,3,3,4,4,5,5,6,6],"right_children":[2,4,6,8,10,12,14,-1,-1,-1,-1,-1,-1,-1,-1],"split_conditions":[-1.7375E4,-2.078977E4,-2.3331453E3,-2.002E3,-1.1499838E5,-1.4888E4,-1.687E3,-9.330769E-2,-2.4909575E-1,6.0057707E-2,-1.8518493E-1,-5.2937146E-2,1.4998755E-1,8.1734E-2,-2.0420554E-1],"split_indices":[7,7,3,2,3,7,2,0,0,0,0,0,0,0,0],"split_type":[0,0,0,0,0,0,0,0,0,0,0,0,0,0,0],"sum_hessian":[1.0970327E3,8.59256E2,2.3777673E2,6.391067E2,2.201493E2,1.5651775E2,8.1258995E1,4.2974625E1,5.961321E2,1.5808469E1,2.0434085E2,8.595146E1,7.0566284E1,7.5554624E0,7.370354E1],"tree_param":{"num_deleted":"0","num_feature":"10","num_nodes":"15","size_leaf_vector":"1"}},{"base_weights":[5.497146E-2,-5.249606E-1,4.585976E-1,-6.757132E-2,-2.8036672E-1,6.68323E-1,-4.2570427E-1,3.455331E-1,-3.1430617E-1,3.7357497E-1,-2.3957881E-1,3.096913E-1,-2.2243801E-1],"categories":[],"categories_nodes":[],"categories_segments":[],"categories_sizes":[],"default_left":[1,0,0,0,0,0,0,0,0,0,0,0,0],"id":16,"left_children":[1,3,5,7,-1,9,11,-1,-1,-1,-1,-1,-1],"loss_changes":[3.8371536E2,1.096347E1,1.7953484E2,2.169689E1,0E0,7.106015E1,3.9981308E0,0E0,0E0,0E0,0E0,0E0,0E0],"parents":[2147483647,0,0,1,1,2,2,3,3,5,5,6,6],"right_children":[2,4,6,8,-1,10,12,-1,-1,-1,-1,-1,-1],"split_conditions":[-2.099E3,-2.099E3,2.79561E3,-2.19E3,-2.8036672E-1,-1.006E3,-2.505E3,3.455331E-1,-3.1430617E-1,3.7357497E-1,-2.3957881E-1,3.096913E-1,-2.2243801E-1],"split_indices":[2,2,3,4,0,6,4,0,0,0,0,0,0],"split_type":[0,0,0,0,0,0,0,0,0,0,0,0,0],"sum_hessian":[1.637253E3,6.717516E2,9.655014E2,4.8957153E1,6.2279443E2,7.8062103E2,1.8488039E2,2.0707275E1,2.824988E1,7.307774E2,4.9843647E1,2.757104E0,1.8212329E2],"tree_param":{"num_deleted":"0","num_feature":"10","num_nodes":"13","size_leaf_vector":"1"}},{"base_weights":[-5.4127496E-1],"categories":[],"categories_nodes":[],"categories_segments":[],"categories_sizes":[],"default_left":[0],"id":17,"left_children":[-1],"loss_changes":[0E0],"parents":[2147483647],"right_children":[-1],"split_conditions":[-2.7063748E-1],"split_indices":[0],"split_type":[0],"sum_hessian":[9.639514E2],"tree_param":{"num_deleted":"0","num_feature":"10","num_nodes":"1","size_leaf_vector":"1"}},{"base_weights":[4.074354E-2,-5.0288904E-1,4.865291E-1,-5.193926E-1,1.1814733E-2,2.8124946E-1,5.873377E-1,-2.6130536E-1,2.668539E-1,-2.5292936E-1,4.9656573E-1,8.8597156E-2,3.301569E-1,2.9839626E-1,-3.4370776E-2],"categories":[],"categories_nodes":[],"categories_segments":[],"categories_sizes":[],"default_left":[0,0,0,1,0,1,0,0,0,0,0,0,0,0,0],"id":18,"left_children":[1,3,5,7,9,11,13,-1,-1,-1,-1,-1,-1,-1,-1],"loss_changes":[3.362511E2,5.32164E0,1.5601547E1,2.3318481E0,1.08611765E1,9.854551E0,3.2117767E0,0E0,0E0,0E0,0E0,0E0,0E0,0E0,0E0],"parents":[2147483647,0,0,1,1,2,2,3,3,4,4,5,5,6,6],"right_children":[2,4,6,8,10,12,14,-1,-1,-1,-1,-1,-1,-1,-1],"split_conditions":[-1.2821998E4,-1.1660288E4,7.289613E3,1.906E3,-2.7297918E4,-1.1974625E4,6.68281E3,-2.6130536E-1,2.668539E-1,-2.5292936E-1,4.9656573E-1,8.8597156E-2,3.301569E-1,2.9839626E-1,-3.4370776E-2],"split_indices":[3,5,3,2,3,8,1,0,0,0,0,0,0,0,0],"split_type":[0,0,0,0,0,0,0,0,0,0,0,0,0,0,0],"sum_hessian":[1.3854888E3,6.2416864E2,7.6132007E2,6.04787E2,1.9381664E1,2.520177E2,5.0930237E2,6.034561E2,1.3308456E0,1.2998757E1,6.3829074E0,1.9890976E2,5.310794E1,5.021711E2,7.1312594E0],"tree_param":{"num_deleted":"0","num_feature":"10","num_nodes":"15","size_leaf_vector":"1"}},{"base_weights":[2.2023408E-1,3.21178E-1,-1.3580482E-1,3.5924724E-1,-3.7838912E-1,-4.3355215E-1,6.995028E-2,2.6423052E-1,8.7220386E-2,-4.5728594E-2,-2.450061E-1,-2.6984653E-1,-1.4367998E-1,1.5442032E-1,-1.6099334E-1],"categories":[],"categories_nodes":[],"categories_segments":[],"categories_sizes":[],"default_left":[1,0,0,0,0,0,0,0,0,0,0,0,0,0,0],"id":19,"left_children":[1,3,5,7,9,11,13,-1,-1,-1,-1,-1,-1,-1,-1],"loss_changes":[8.44279E1,4.8860672E1,3.1848305E1,5.4178253E1,2.9887495E0,3.1320229E0,2.8931238E1,0E0,0E0,0E0,0E0,0E0,0E0,0E0,0E0],"parents":[2147483647,0,0,1,1,2,2,3,3,4,4,5,5,6,6],"right_children":[2,4,6,8,10,12,14,-1,-1,-1,-1,-1,-1,-1,-1],"split_conditions":[-1.629E3,8.803509E3,-1.116E3,-2.712E3,1.7013623E4,-1.736E3,-9.870297E3,2.6423052E-1,8.7220386E-2,-4.5728594E-2,-2.450061E-1,-2.6984653E-1,-1.4367998E-1,1.5442032E-1,-1.6099334E-1],"split_indices":[2,3,4,6,3,4,3,0,0,0,0,0,0,0,0],"split_type":[0,0,0,0,0,0,0,0,0,0,0,0,0,0,0],"sum_hessian":[2.346872E3,1.8285647E3,5.1830743E2,1.7346678E3,9.3896866E1,2.1137256E2,3.0693484E2,9.045362E2,8.301317E2,2.6832275E1,6.706459E1,1.2086212E2,9.0510445E1,1.9084813E2,1.1608673E2],"tree_param":{"num_deleted":"0","num_feature":"10","num_nodes":"15","size_leaf_vector":"1"}},{"base_weights":[-2.1598652E-2,1.4703791E-1,-3.421087E-1,2.6359063E-1,-2.7915096E-1,-2.4034496E-1,-4.7560254E-1,-6.5642856E-2,2.053631E-1,-1.07623875E-1,-2.8153527E-1,-2.373356E-1,-8.227596E-2,-2.6836556E-1,-1.9077833E-1],"categories":[],"categories_nodes":[],"categories_segments":[],"categories_sizes":[],"default_left":[0,0,0,0,0,0,0,0,0,0,0,0,0,0,0],"id":20,"left_children":[1,3,5,7,9,11,13,-1,-1,-1,-1,-1,-1,-1,-1],"loss_changes":[7.0075264E1,4.2274334E1,5.9504547E0,3.884777E1,3.189621E0,4.4565907E0,8.9139557E-1,0E0,0E0,0E0,0E0,0E0,0E0,0E0,0E0],"parents":[2147483647,0,0,1,1,2,2,3,3,4,4,5,5,6,6],"right_children":[2,4,6,8,10,12,14,-1,-1,-1,-1,-1,-1,-1,-1],"split_conditions":[-2.0142582E4,-4.99E2,-3.062394E4,1.323E3,-1.3698781E4,-2.0496982E4,-3.1538E4,-6.5642856E-2,2.053631E-1,-1.07623875E-1,-2.8153527E-1,-2.373356E-1,-8.227596E-2,-2.6836556E-1,-1.9077833E-1],"split_indices":[1,4,3,2,5,5,9,0,0,0,0,0,0,0,0],"split_type":[0,0,0,0,0,0,0,0,0,0,0,0,0,0,0],"sum_hessian":[1.2945298E3,8.4856616E2,4.4596356E2,6.666562E2,1.8190996E2,2.5468777E2,1.912758E2,1.809825E2,4.856737E2,1.499527E2,3.1957266E1,6.0927143E1,1.9376064E2,1.1300838E2,7.826743E1],"tree_param":{"num_deleted":"0","num_feature":"10","num_nodes":"15","size_leaf_vector":"1"}},{"base_weights":[-3.1436536E-1,-5.1126426E-1,7.638146E-1,-2.6272976E-1,-3.3167404E-1,1.017265E0,4.1680142E-2,7.0308976E-2,-2.2021225E-1,5.2812123E-1,-2.0705952E-1,-1.8859468E-1,3.4205255E-1],"categories":[],"categories_nodes":[],"categories_segments":[],"categories_sizes":[],"default_left":[0,0,0,0,0,1,0,0,0,0,0,0,0],"id":21,"left_children":[1,3,5,-1,7,9,11,-1,-1,-1,-1,-1,-1],"loss_changes":[1.795219E2,1.6376495E0,2.3867424E1,0E0,2.89362E0,5.8382416E0,9.681094E0,0E0,0E0,0E0,0E0,0E0,0E0],"parents":[2147483647,0,0,1,1,2,2,4,4,5,5,6,6],"right_children":[2,4,6,-1,8,10,12,-1,-1,-1,-1,-1,-1],"split_conditions":[-3.1773977E3,-6.2021353E3,-1.5426273E3,-2.6272976E-1,-6.1983832E4,8.7E1,2.064291E3,7.0308976E-2,-2.2021225E-1,5.2812123E-1,-2.0705952E-1,-1.8859468E-1,3.4205255E-1],"split_indices":[1,1,3,0,3,2,1,0,0,0,0,0,0],"split_type":[0,0,0,0,0,0,0,0,0,0,0,0,0],"sum_hessian":[8.4280707E2,7.131124E2,1.2969464E2,6.590388E2,5.407364E1,9.568809E1,3.4006546E1,1.0048603E1,4.4025036E1,9.3413445E1,2.2746413E0,2.0825407E1,1.3181139E1],"tree_param":{"num_deleted":"0","num_feature":"10","num_nodes":"13","size_leaf_vector":"1"}},{"base_weights":[2.6156332E-2,6.6481985E-2,-2.540817E-1,1.1511699E-1,-4.304295E-1,-1.9305144E-1,8.3462216E-2,-9.440402E-2,-2.3729822E-1],"categories":[],"categories_nodes":[],"categories_segments":[],"categories_sizes":[],"default_left":[0,0,0,0,0,0,0,0,0],"id":22,"left_children":[1,3,-1,5,7,-1,-1,-1,-1],"loss_changes":[3.0062809E1,3.1390354E1,0E0,3.0758854E1,1.1397038E0,0E0,0E0,0E0,0E0],"parents":[2147483647,0,0,1,1,3,3,4,4],"right_children":[2,4,-1,6,8,-1,-1,-1,-1],"split_conditions":[2.3414305E4,-1.1251428E3,-2.540817E-1,-1.08210086E5,-1.006E3,-1.9305144E-1,8.3462216E-2,-9.440402E-2,-2.3729822E-1],"split_indices":[3,6,0,3,6,0,0,0,0],"split_type":[0,0,0,0,0,0,0,0,0],"sum_hessian":[1.3928707E3,1.2959578E3,9.6912964E1,1.1811425E3,1.1481538E2,1.10026505E2,1.0711158E3,1.8594242E1,9.622113E1],"tree_param":{"num_deleted":"0","num_feature":"10","num_nodes":"9","size_leaf_vector":"1"}},{"base_weights":[-5.263641E-1,-2.639273E-1,-2.0329012E-2,1.15506895E-1,-1.3025437E-1],"categories":[],"categories_nodes":[],"categories_segments":[],"categories_sizes":[],"default_left":[0,0,1,0,0],"id":23,"left_children":[1,-1,3,-1,-1],"loss_changes":[4.960022E-1,0E0,2.4484783E-1,0E0,0E0],"parents":[2147483647,0,0,2,2],"right_children":[2,-1,4,-1,-1],"split_conditions":[-6.7335E3,-2.639273E-1,-1.849E3,1.15506895E-1,-1.3025437E-1],"split_indices":[7,0,2,0,0],"split_type":[0,0,0,0,0],"sum_hessian":[6.7809216E2,6.76038E2,2.0541584E0,1.0020562E0,1.0521023E0],"tree_param":{"num_deleted":"0","num_feature":"10","num_nodes":"5","size_leaf_vector":"1"}},{"base_weights":[1.9720137E-2,-4.5482123E-1,3.8409564E-1,-5.1678944E-1,-6.1633825E-2,2.789146E-1,5.7064784E-1,-2.6055226E-1,-1.321602E-1,-1.5413822E-1,1.874301E-1,2.0655577E-1,9.0812415E-2,2.448115E-1,3.0027613E-1],"categories":[],"categories_nodes":[],"categories_segments":[],"categories_sizes":[],"default_left":[0,0,0,0,0,0,0,0,0,0,0,0,0,0,0],"id":24,"left_children":[1,3,5,7,9,11,13,-1,-1,-1,-1,-1,-1,-1,-1],"loss_changes":[1.950003E2,1.1897278E1,1.234919E1,3.1520844E-1,7.419187E0,5.2707634E0,2.499237E-1,0E0,0E0,0E0,0E0,0E0,0E0,0E0,0E0],"parents":[2147483647,0,0,1,1,2,2,3,3,4,4,5,5,6,6],"right_children":[2,4,6,8,10,12,14,-1,-1,-1,-1,-1,-1,-1,-1],"split_conditions":[-9.870297E3,-2.043371E4,2.972474E4,-1.1045933E4,-1.4082385E4,-3.426804E4,4.3613914E4,-2.6055226E-1,-1.321602E-1,-1.5413822E-1,1.874301E-1,2.0655577E-1,9.0812415E-2,2.448115E-1,3.0027613E-1],"split_indices":[3,3,3,5,5,9,3,0,0,0,0,0,0,0,0],"split_type":[0,0,0,0,0,0,0,0,0,0,0,0,0,0,0],"sum_hessian":[1.1257418E3,4.8883542E2,6.369064E2,4.2198825E2,6.684717E1,4.0890692E2,2.2799944E2,4.13812E2,8.176244E0,4.29147E1,2.3932465E1,1.7044884E2,2.384581E2,6.6237854E1,1.6176157E2],"tree_param":{"num_deleted":"0","num_feature":"10","num_nodes":"15","size_leaf_vector":"1"}},{"base_weights":[1.7304303E-1,2.4120298E-1,-1.9062081E-1,3.2385477E-1,-8.135807E-2,-3.2753706E-1,9.365728E-2,1.81611E-1,-1.5963665E-1,-9.088648E-3,-1.2588184E-1,3.2930887E-1,-1.7911607E-1,9.865633E-2,-1.8211251E-1],"categories":[],"categories_nodes":[],"categories_segments":[],"categories_sizes":[],"default_left":[1,0,0,0,0,0,0,0,0,0,0,0,0,0,0],"id":25,"left_children":[1,3,5,7,9,11,13,-1,-1,-1,-1,-1,-1,-1,-1],"loss_changes":[5.3348213E1,4.8321426E1,1.3264773E1,3.6629272E1,3.9789717E0,7.185732E0,5.35088E0,0E0,0E0,0E0,0E0,0E0,0E0,0E0,0E0],"parents":[2147483647,0,0,1,1,2,2,3,3,4,4,5,5,6,6],"right_children":[2,4,6,8,10,12,14,-1,-1,-1,-1,-1,-1,-1,-1],"split_conditions":[-1.297E3,-1.364E3,-2.1159285E3,-1.2019786E3,-1.9601072E4,-3.4911E4,-2.213077E2,1.81611E-1,-1.5963665E-1,-9.088648E-3,-1.2588184E-1,3.2930887E-1,-1.7911607E-1,9.865633E-2,-1.8211251E-1],"split_indices":[2,6,6,1,7,7,6,0,0,0,0,0,0,0,0],"split_type":[0,0,0,0,0,0,0,0,0,0,0,0,0,0,0],"sum_hessian":[2.1493635E3,1.8104104E3,3.3895325E2,1.4411602E3,3.6925027E2,2.2869188E2,1.10261375E2,1.3584568E3,8.270327E1,2.702251E2,9.9025185E1,6.2760425E0,2.2241583E2,9.038984E1,1.9871532E1],"tree_param":{"num_deleted":"0","num_feature":"10","num_nodes":"15","size_leaf_vector":"1"}},{"base_weights":[1.6254883E-2,1.3391624E-1,-2.517559E-1,2.0008892E-1,-3.0874547E-1,-1.0732881E-1,-3.696963E-1,-1.5925202E-1,1.3492657E-1,5.0591916E-2,-2.1970206E-1,-1.6125926E-1,4.386352E-2,-2.5042254E-1,-1.2896448E-1],"categories":[],"categories_nodes":[],"categories_segments":[],"categories_sizes":[],"default_left":[0,0,0,0,0,0,0,0,0,0,0,0,0,0,0],"id":26,"left_children":[1,3,5,7,9,11,13,-1,-1,-1,-1,-1,-1,-1,-1],"loss_changes":[3.7119274E1,2.4020191E1,6.0726833E0,2.5852482E1,5.7652483E0,6.8673306E0,2.754383E0,0E0,0E0,0E0,0E0,0E0,0E0,0E0,0E0],"parents":[2147483647,0,0,1,1,2,2,3,3,4,4,5,5,6,6],"right_children":[2,4,6,8,10,12,14,-1,-1,-1,-1,-1,-1,-1,-1],"split_conditions":[-2.0142582E4,-8.8E1,-4.9939504E4,-1.1779466E5,-6.108703E4,-2.2349E4,-1.7123785E4,-1.5925202E-1,1.3492657E-1,5.0591916E-2,-2.1970206E-1,-1.6125926E-1,4.386352E-2,-2.5042254E-1,-1.2896448E-1],"split_indices":[1,4,3,3,1,7,5,0,0,0,0,0,0,0,0],"split_type":[0,0,0,0,0,0,0,0,0,0,0,0,0,0,0],"sum_hessian":[1.1750682E3,8.1695056E2,3.581177E2,7.1120447E2,1.05746056E2,1.6187909E2,1.9623863E2,8.389105E1,6.273134E2,2.5594563E1,8.01515E1,7.668091E1,8.519819E1,8.8647835E1,1.0759079E2],"tree_param":{"num_deleted":"0","num_feature":"10","num_nodes":"15","size_leaf_vector":"1"}},{"base_weights":[-2.531809E-1,-4.8758996E-1,5.709385E-1,-5.094333E-1,-3.038246E-1,6.634838E-1,-3.5317796E-1,-2.6203433E-1,-2.2014953E-1,7.120166E-2,-2.3621489E-1,-2.4705341E-1,3.433316E-1,2.7405068E-1,-2.4290197E-1],"categories":[],"categories_nodes":[],"categories_segments":[],"categories_sizes":[],"default_left":[0,0,0,0,0,0,0,0,0,0,0,0,0,0,0],"id":27,"left_children":[1,3,5,7,9,11,13,-1,-1,-1,-1,-1,-1,-1,-1],"loss_changes":[1.3207074E2,1.9713516E0,1.3196568E1,2.3887634E-1,4.5104594E0,4.046543E0,1.9912523E0,0E0,0E0,0E0,0E0,0E0,0E0,0E0,0E0],"parents":[2147483647,0,0,1,1,2,2,3,3,4,4,5,5,6,6],"right_children":[2,4,6,8,10,12,14,-1,-1,-1,-1,-1,-1,-1,-1],"split_conditions":[-3.1773977E3,-6.8873945E3,2.972474E4,-1.2095065E4,-5.58369E4,-6.696E3,-1.912E3,-2.6203433E-1,-2.2014953E-1,7.120166E-2,-2.3621489E-1,-2.4705341E-1,3.433316E-1,2.7405068E-1,-2.4290197E-1],"split_indices":[1,1,3,1,3,6,4,0,0,0,0,0,0,0,0],"split_type":[0,0,0,0,0,0,0,0,0,0,0,0,0,0,0],"sum_hessian":[6.8122626E2,5.306974E2,1.5052884E2,4.7268488E2,5.80125E1,1.3709262E2,1.3436222E1,3.845522E2,8.813271E1,1.5935073E1,4.2077427E1,2.2839334E0,1.3480869E2,1.3120317E0,1.212419E1],"tree_param":{"num_deleted":"0","num_feature":"10","num_nodes":"15","size_leaf_vector":"1"}},{"base_weights":[1.7710533E-2,2.6186085E-1,-2.6964897E-1,3.6927307E-1,-1.4418553E-1,8.188678E-2,3.204704E-1,-2.324156E-3,-2.3904099E-1],"categories":[],"categories_nodes":[],"categories_segments":[],"categories_sizes":[],"default_left":[0,0,0,0,0,0,0,0,0],"id":28,"left_children":[1,3,-1,5,7,-1,-1,-1,-1],"loss_changes":[1.7724565E2,3.9575638E1,0E0,3.9908173E1,8.857146E0,0E0,0E0,0E0,0E0],"parents":[2147483647,0,0,1,1,3,3,4,4],"right_children":[2,4,-1,6,8,-1,-1,-1,-1],"split_conditions":[6.088E3,-1.13557295E4,-2.6964897E-1,-1.266E3,2.3414305E4,8.188678E-2,3.204704E-1,-2.324156E-3,-2.3904099E-1],"split_indices":[2,3,0,2,3,0,0,0,0],"split_type":[0,0,0,0,0,0,0,0,0],"sum_hessian":[1.3013184E3,9.051271E2,3.961913E2,7.158714E2,1.8925565E2,4.0850372E2,3.0736768E2,1.3421169E2,5.5043953E1],"tree_param":{"num_deleted":"0","num_feature":"10","num_nodes":"9","size_leaf_vector":"1"}},{"base_weights":[-5.174851E-1,-2.597616E-1,1.7589586E-3],"categories":[],"categories_nodes":[],"categories_segments":[],"categories_sizes":[],"default_left":[0,0,0],"id":29,"left_children":[1,-1,-1],"loss_changes":[5.271759E-1,0E0,0E0],"parents":[2147483647,0,0],"right_children":[2,-1,-1],"split_conditions":[-6.7335E3,-2.597616E-1,1.7589586E-3],"split_indices":[7,0,0],"split_type":[0,0,0],"sum_hessian":[4.8888702E2,4.8700394E2,1.8830848E0],"tree_param":{"num_deleted":"0","num_feature":"10","num_nodes":"3","size_leaf_vector":"1"}},{"base_weights":[2.3965657E-2,-5.0204605E-1,2.8362346E-1,-2.583763E-1,-4.090497E-1,1.9281441E-1,5.542826E-1,1.5920544E-1,-2.3449807E-1,1.1160455E-1,-8.325183E-2,-3.910754E-2,2.7982306E-1],"categories":[],"categories_nodes":[],"categories_segments":[],"categories_sizes":[],"default_left":[0,0,0,0,0,0,0,0,0,0,0,0,0],"id":30,"left_children":[1,3,5,-1,7,9,11,-1,-1,-1,-1,-1,-1],"loss_changes":[1.2715381E2,2.0017242E-1,1.5204117E1,0E0,2.1962795E0,5.1515255E0,5.7785034E-1,0E0,0E0,0E0,0E0,0E0,0E0],"parents":[2147483647,0,0,1,1,2,2,4,4,5,5,6,6],"right_children":[2,4,6,-1,8,10,12,-1,-1,-1,-1,-1,-1],"split_conditions":[-2.043371E4,-3.3791754E4,3.2692324E4,-2.583763E-1,-5.8381473E4,-1.2019786E3,-2.382E3,1.5920544E-1,-2.3449807E-1,1.1160455E-1,-8.325183E-2,-3.910754E-2,2.7982306E-1],"split_indices":[3,3,3,0,1,1,4,0,0,0,0,0,0],"split_type":[0,0,0,0,0,0,0,0,0,0,0,0,0],"sum_hessian":[9.289368E2,3.0668533E2,6.2225146E2,2.607809E2,4.590441E1,4.6723758E2,1.550139E2,3.1538236E0,4.2750587E1,4.3117142E2,3.6066143E1,1.1735573E0,1.5384035E2],"tree_param":{"num_deleted":"0","num_feature":"10","num_nodes":"13","size_leaf_vector":"1"}},{"base_weights":[1.19606376E-1,-1.8798268E-1,2.1157143E-1,9.3710765E-2,-5.383488E-1,2.5088656E-1,-3.70362E-1,2.7009007E-1,-8.844179E-2,-4.067521E-1,-1.6466683E-1,1.7222111E-1,-3.9138354E-2,-1.1562488E-1,-2.4648607E-1],"categories":[],"categories_nodes":[],"categories_segments":[],"categories_sizes":[],"default_left":[1,0,0,0,1,0,0,0,0,0,0,0,0,0,0],"id":31,"left_children":[1,3,5,7,9,11,13,-1,-1,-1,-1,-1,-1,-1,-1],"loss_changes":[5.5707397E1,4.4809395E1,3.476362E1,3.0567902E1,1.1352936E1,4.3763817E1,1.5211754E0,0E0,0E0,0E0,0E0,0E0,0E0,0E0,0E0],"parents":[2147483647,0,0,1,1,2,2,3,3,4,4,5,5,6,6],"right_children":[2,4,6,8,10,12,14,-1,-1,-1,-1,-1,-1,-1,-1],"split_conditions":[-2.207E3,-3.104E3,1.2214178E4,-1.08210086E5,-2.674E3,-1.1251428E3,3.6236695E4,2.7009007E-1,-8.844179E-2,-4.067521E-1,-1.6466683E-1,1.7222111E-1,-3.9138354E-2,-1.1562488E-1,-2.4648607E-1],"split_indices":[4,6,3,3,4,6,3,0,0,0,0,0,0,0,0],"split_type":[0,0,0,0,0,0,0,0,0,0,0,0,0,0,0],"sum_hessian":[1.966919E3,4.5245883E2,1.5144601E3,2.5119928E2,2.0125957E2,1.4191678E3,9.529222E1,9.443166E1,1.5676762E2,8.561405E1,1.1564551E2,1.1050668E3,3.1410107E2,4.603218E1,4.9260036E1],"tree_param":{"num_deleted":"0","num_feature":"10","num_nodes":"15","size_leaf_vector":"1"}},{"base_weights":[1.01604005E-2,-4.4712287E-1,1.8644668E-1,-4.937198E-1,-1.440924E-1,-7.9667725E-2,3.139612E-1,-2.6307458E-1,-1.8434025E-1,1.6653964E-1,-2.224938E-1,-1.7161766E-1,1.5854608E-1,1.8366882E-1,-6.031364E-2],"categories":[],"categories_nodes":[],"categories_segments":[],"categories_sizes":[],"default_left":[1,1,0,1,0,0,0,0,0,0,0,0,0,0,0],"id":32,"left_children":[1,3,5,7,9,11,13,-1,-1,-1,-1,-1,-1,-1,-1],"loss_changes":[8.89872E1,4.259491E0,2.7063322E1,8.747635E-1,6.233647E0,2.7180063E1,1.2546684E1,0E0,0E0,0E0,0E0,0E0,0E0,0E0,0E0],"parents":[2147483647,0,0,1,1,2,2,3,3,4,4,5,5,6,6],"right_children":[2,4,6,8,10,12,14,-1,-1,-1,-1,-1,-1,-1,-1],"split_conditions":[-2.836E3,-3.156E3,1.906E3,-3.707E3,-8.0184984E4,-1.091E3,-2.2172275E4,-2.6307458E-1,-1.8434025E-1,1.6653964E-1,-2.224938E-1,-1.7161766E-1,1.5854608E-1,1.8366882E-1,-6.031364E-2],"split_indices":[6,6,2,6,3,6,3,0,0,0,0,0,0,0,0],"split_type":[0,0,0,0,0,0,0,0,0,0,0,0,0,0,0],"sum_hessian":[1.1018828E3,3.0614792E2,7.95735E2,2.6477176E2,4.1376156E1,2.578713E2,5.3786365E2,2.0763348E2,5.7138268E1,1.5946833E1,2.5429323E1,1.55039E2,1.02832306E2,4.7918732E2,5.8676334E1],"tree_param":{"num_deleted":"0","num_feature":"10","num_nodes":"15","size_leaf_vector":"1"}},{"base_weights":[-2.2435673E-1,-4.814109E-1,3.6997896E-1,-2.5123173E-1,-2.7659416E-1,2.52899E-1,7.670058E-1,-2.519847E-1,1.14215314E-1,2.0925723E-1,-1.7576786E-2,4.034904E-1,-1.5243058E-1],"categories":[],"categories_nodes":[],"categories_segments":[],"categories_sizes":[],"default_left":[0,0,0,0,0,0,0,0,0,0,0,0,0],"id":33,"left_children":[1,3,5,-1,7,9,11,-1,-1,-1,-1,-1,-1],"loss_changes":[8.398581E1,1.5063477E0,7.520319E0,0E0,4.481724E0,6.2128344E0,1.8506603E0,0E0,0E0,0E0,0E0,0E0,0E0],"parents":[2147483647,0,0,1,1,2,2,4,4,5,5,6,6],"right_children":[2,4,6,-1,8,10,12,-1,-1,-1,-1,-1,-1],"split_conditions":[-4.103872E3,-6.8873945E3,6.68281E3,-2.5123173E-1,6.088E3,-5.66E2,-2.4099348E4,-2.519847E-1,1.14215314E-1,2.0925723E-1,-1.7576786E-2,4.034904E-1,-1.5243058E-1],"split_indices":[1,1,1,0,2,4,9,0,0,0,0,0,0],"split_type":[0,0,0,0,0,0,0,0,0,0,0,0,0],"sum_hessian":[5.4755695E2,3.8238132E2,1.6517566E2,3.4537866E2,3.7002632E1,1.2884306E2,3.6332596E1,2.5530176E1,1.1472455E1,8.1542244E1,4.730081E1,3.5273537E1,1.0590612E0],"tree_param":{"num_deleted":"0","num_feature":"10","num_nodes":"13","size_leaf_vector":"1"}},{"base_weights":[1.8067164E-2,1.3767311E-1,-3.3190793E-1,3.1912625E-1,1.4854973E-2,-4.9583262E-1,-1.9645725E-1,1.8901594E-1,-1.7381276E-1,3.1347048E-2,-1.9348934E-1,2.5433196E-2,-2.566772E-1,-2.2518083E-2,-2.1077842E-1],"categories":[],"categories_nodes":[],"categories_segments":[],"categories_sizes":[],"default_left":[0,0,0,0,0,0,0,0,0,0,0,0,0,0,0],"id":34,"left_children":[1,3,5,7,9,11,13,-1,-1,-1,-1,-1,-1,-1,-1],"loss_changes":[4.846915E1,1.9223E1,6.4443207E0,1.380891E1,9.934393E0,1.3023834E0,5.5384088E0,0E0,0E0,0E0,0E0,0E0,0E0,0E0,0E0],"parents":[2147483647,0,0,1,1,2,2,3,3,4,4,5,5,6,6],"right_children":[2,4,6,8,10,12,14,-1,-1,-1,-1,-1,-1,-1,-1],"split_conditions":[-7.2658826E2,-2.289E3,-1.7035822E4,-1.734E3,-1.3127819E4,-2.1116824E4,-1.473055E4,1.8901594E-1,-1.7381276E-1,3.1347048E-2,-1.9348934E-1,2.5433196E-2,-2.566772E-1,-2.2518083E-2,-2.1077842E-1],"split_indices":[4,4,1,6,5,8,8,0,0,0,0,0,0,0,0],"split_type":[0,0,0,0,0,0,0,0,0,0,0,0,0,0,0],"sum_hessian":[1.1558667E3,8.619319E2,2.9393484E2,3.47238E2,5.1469385E2,1.3175195E2,1.6218289E2,3.1946243E2,2.7775574E1,4.607138E2,5.398006E1,4.014712E0,1.2773724E2,9.7703636E1,6.4479256E1],"tree_param":{"num_deleted":"0","num_feature":"10","num_nodes":"15","size_leaf_vector":"1"}},{"base_weights":[-5.105141E-1,5.098179E-2,-2.566635E-1],"categories":[],"categories_nodes":[],"categories_segments":[],"categories_sizes":[],"default_left":[1,0,0],"id":35,"left_children":[1,-1,-1],"loss_changes":[6.645508E-1,0E0,0E0],"parents":[2147483647,0,0],"right_children":[2,-1,-1],"split_conditions":[-3.753E3,5.098179E-2,-2.566635E-1],"split_indices":[4,0,0],"split_type":[0,0,0],"sum_hessian":[3.5195996E2,1.4316351E0,3.5052832E2],"tree_param":{"num_deleted":"0","num_feature":"10","num_nodes":"3","size_leaf_vector":"1"}},{"base_weights":[1.7505283E-2,-4.90379E-1,2.1783122E-1,-2.514454E-1,-1.01407595E-1,1.4572622E-1,5.074023E-1,-2.1729194E-1,3.058412E-1,4.0368352E-2,1.8528607E-1,6.549424E-2,2.576821E-1],"categories":[],"categories_nodes":[],"categories_segments":[],"categories_sizes":[],"default_left":[0,0,0,0,0,1,0,0,0,0,0,0,0],"id":36,"left_children":[1,3,5,-1,7,9,11,-1,-1,-1,-1,-1,-1],"loss_changes":[8.081993E1,1.0365067E0,1.181328E1,0E0,2.2312524E0,6.6508875E0,2.6509094E-1,0E0,0E0,0E0,0E0,0E0,0E0],"parents":[2147483647,0,0,1,1,2,2,4,4,5,5,6,6],"right_children":[2,4,6,-1,8,10,12,-1,-1,-1,-1,-1,-1],"split_conditions":[-2.043371E4,-1.1660288E4,3.1106266E4,-2.514454E-1,-2.7297918E4,-1.1974625E4,-3.0591E4,-2.1729194E-1,3.058412E-1,4.0368352E-2,1.8528607E-1,6.549424E-2,2.576821E-1],"split_indices":[3,5,3,0,3,8,7,0,0,0,0,0,0],"split_type":[0,0,0,0,0,0,0,0,0,0,0,0,0],"sum_hessian":[7.9233527E2,2.2369806E2,5.686372E2,2.1641808E2,7.2799783E0,4.5650287E2,1.1213431E2,5.237468E0,2.0425105E0,3.5523053E2,1.01272354E2,2.7102575E0,1.0942405E2],"tree_param":{"num_deleted":"0","num_feature":"10","num_nodes":"13","size_leaf_vector":"1"}},{"base_weights":[1.0111805E-1,-7.13351E-2,1.9734496E-1,4.2113006E-2,-4.421583E-1,2.4700825E-1,-2.4167249E-1,2.6669565E-1,-1.6615849E-2,-1.5514712E-1,-2.5750893E-1,1.5749383E-1,-5.1981374E-3,-2.556798E-1,3.4827687E-2],"categories":[],"categories_nodes":[],"categories_segments":[],"categories_sizes":[],"default_left":[0,1,1,0,0,0,0,0,0,0,0,0,0,0,0],"id":37,"left_children":[1,3,5,7,9,11,13,-1,-1,-1,-1,-1,-1,-1,-1],"loss_changes":[2.9813568E1,2.710699E1,2.5195393E1,1.8303663E1,1.2819977E0,1.8138023E1,9.917723E0,0E0,0E0,0E0,0E0,0E0,0E0,0E0,0E0],"parents":[2147483647,0,0,1,1,2,2,3,3,4,4,5,5,6,6],"right_children":[2,4,6,8,10,12,14,-1,-1,-1,-1,-1,-1,-1,-1],"split_conditions":[-1.68E3,-1.964E3,-9.84E2,-5.2272914E4,-4.2290867E4,-9.870297E3,-4.050625E2,2.6669565E-1,-1.6615849E-2,-1.5514712E-1,-2.5750893E-1,1.5749383E-1,-5.1981374E-3,-2.556798E-1,3.4827687E-2],"split_indices":[4,2,2,9,9,3,4,0,0,0,0,0,0,0,0],"split_type":[0,0,0,0,0,0,0,0,0,0,0,0,0,0,0],"sum_hessian":[1.7946548E3,6.428053E2,1.1518495E3,4.9287625E2,1.4992903E2,1.0352035E3,1.1664596E2,6.474776E1,4.281285E2,5.5278988E1,9.465005E1,8.187819E2,2.1642159E2,6.217586E1,5.4470093E1],"tree_param":{"num_deleted":"0","num_feature":"10","num_nodes":"15","size_leaf_vector":"1"}},{"base_weights":[1.2317506E-2,-4.7794443E-1,1.2846604E-1,-1.2387992E-1,-2.5351244E-1,7.120579E-1,8.053914E-2,-2.0834744E-1,5.938683E-1,-1.4549622E-1,4.421757E-1,-1.1590126E-1,1.0714154E-1],"categories":[],"categories_nodes":[],"categories_segments":[],"categories_sizes":[],"default_left":[1,0,0,0,0,0,0,0,0,0,0,0,0],"id":38,"left_children":[1,3,5,7,-1,9,11,-1,-1,-1,-1,-1,-1],"loss_changes":[5.773244E1,1.9303284E0,2.2860226E1,6.666106E0,0E0,1.0988655E1,3.1738773E1,0E0,0E0,0E0,0E0,0E0,0E0],"parents":[2147483647,0,0,1,1,2,2,3,3,5,5,6,6],"right_children":[2,4,6,8,-1,10,12,-1,-1,-1,-1,-1,-1],"split_conditions":[-3.156E3,-3.166625E3,-2.8868125E3,-3.52E3,-2.5351244E-1,-1.12E3,-1.927E3,-2.0834744E-1,5.938683E-1,-1.4549622E-1,4.421757E-1,-1.1590126E-1,1.0714154E-1],"split_indices":[6,4,4,6,0,2,6,0,0,0,0,0,0],"split_type":[0,0,0,0,0,0,0,0,0,0,0,0,0],"sum_hessian":[1.0118432E3,1.9318979E2,8.1865344E2,1.5088312E1,1.7810147E2,6.106136E1,7.575921E2,1.289865E1,2.1896615E0,8.841477E0,5.2219883E1,2.2689656E2,5.306955E2],"tree_param":{"num_deleted":"0","num_feature":"10","num_nodes":"13","size_leaf_vector":"1"}},{"base_weights":[-1.7882054E-1,-4.6394557E-1,3.3737665E-1,-4.8872128E-1,-2.2798312E-1,3.834425E-1,-3.7291807E-1,-2.5131002E-1,-1.404423E-1,1.5822902E-1,-2.0365717E-1,9.115311E-2,2.574529E-1,4.6502624E-2,-2.2812274E-1],"categories":[],"categories_nodes":[],"categories_segments":[],"categories_sizes":[],"default_left":[0,1,0,0,0,0,0,0,0,0,0,0,0,0,0],"id":39,"left_children":[1,3,5,7,9,11,13,-1,-1,-1,-1,-1,-1,-1,-1],"loss_changes":[6.5350655E1,1.552063E0,5.3186054E0,5.954094E-1,2.967774E0,3.8402576E0,4.3924832E-1,0E0,0E0,0E0,0E0,0E0,0E0,0E0,0E0],"parents":[2147483647,0,0,1,1,2,2,3,3,4,4,5,5,6,6],"right_children":[2,4,6,8,10,12,14,-1,-1,-1,-1,-1,-1,-1,-1],"split_conditions":[-3.8983345E3,-1.5237318E4,2.972474E4,-6.046761E3,-1.4592923E4,-1.9401E4,-1.912E3,-2.5131002E-1,-1.404423E-1,1.5822902E-1,-2.0365717E-1,9.115311E-2,2.574529E-1,4.6502624E-2,-2.2812274E-1],"split_indices":[1,7,3,1,7,7,4,0,0,0,0,0,0,0,0],"split_type":[0,0,0,0,0,0,0,0,0,0,0,0,0,0,0],"sum_hessian":[4.4194427E2,2.8477014E2,1.5717413E2,2.5670312E2,2.8067026E1,1.4804686E2,9.127266E0,2.3923796E2,1.746516E1,6.750972E0,2.1316055E1,5.9490456E1,8.855641E1,1.3488804E0,7.7783856E0],"tree_param":{"num_deleted":"0","num_feature":"10","num_nodes":"15","size_leaf_vector":"1"}},{"base_weights":[2.1208424E-2,-5.248031E-1,2.048619E-1,-1.9539481E-1,-2.643395E-1,4.804945E-1,4.897284E-2,8.3113745E-2,-2.5302184E-1,2.687156E-1,-3.8527648E-3,-1.7114931E-1,1.6741046E-1],"categories":[],"categories_nodes":[],"categories_segments":[],"categories_sizes":[],"default_left":[1,0,0,0,0,0,0,0,0,0,0,0,0],"id":40,"left_children":[1,3,5,7,-1,9,11,-1,-1,-1,-1,-1,-1],"loss_changes":[1.06675644E2,2.3132324E-1,3.4174156E1,6.188989E-1,0E0,7.998848E0,5.7108524E1,0E0,0E0,0E0,0E0,0E0,0E0],"parents":[2147483647,0,0,1,1,2,2,3,3,5,5,6,6],"right_children":[2,4,6,8,-1,10,12,-1,-1,-1,-1,-1,-1],"split_conditions":[-2.373E3,-2.373E3,-2.146E3,-5.627E3,-2.643395E-1,-1.927E3,-1.358E3,8.3113745E-2,-2.5302184E-1,2.687156E-1,-3.8527648E-3,-1.7114931E-1,1.6741046E-1],"split_indices":[2,2,4,6,0,6,2,0,0,0,0,0,0],"split_type":[0,0,0,0,0,0,0,0,0,0,0,0,0],"sum_hessian":[1.0617704E3,2.6676172E2,7.9500867E2,3.7302294E0,2.630315E2,2.864249E2,5.0858377E2,1.9236478E0,1.8065816E0,2.5643735E2,2.998756E1,2.1460207E2,2.9398172E2],"tree_param":{"num_deleted":"0","num_feature":"10","num_nodes":"13","size_leaf_vector":"1"}},{"base_weights":[-5.050934E-1,-2.544692E-1,1.0777677E-1],"categories":[],"categories_nodes":[],"categories_segments":[],"categories_sizes":[],"default_left":[0,0,0],"id":41,"left_children":[1,-1,-1],"loss_changes":[8.258362E-1,0E0,0E0],"parents":[2147483647,0,0],"right_children":[2,-1,-1],"split_conditions":[-6.7335E3,-2.544692E-1,1.0777677E-1],"split_indices":[7,0,0],"split_type":[0,0,0],"sum_hessian":[2.563983E2,2.553436E2,1.0547001E0],"tree_param":{"num_deleted":"0","num_feature":"10","num_nodes":"3","size_leaf_vector":"1"}},{"base_weights":[7.921902E-3,-5.1642437E-2,3.4424254E-1,-1.129881E-1,2.440745E-1,5.307226E-2,4.581317E-1,-1.447353E-1,-1.9962525E-2,1.4736143E-1,-1.6590904E-2,-1.4563239E-1,1.8981175E-1,-1.9863924E-2,2.4561827E-1],"categories":[],"categories_nodes":[],"categories_segments":[],"categories_sizes":[],"default_left":[0,0,1,0,0,0,0,0,0,0,0,0,0,0,0],"id":42,"left_children":[1,3,5,7,9,11,13,-1,-1,-1,-1,-1,-1,-1,-1],"loss_changes":[1.3828729E1,1.0664316E1,3.4147863E0,6.256615E0,1.4312229E0,3.525075E0,1.2519808E0,0E0,0E0,0E0,0E0,0E0,0E0,0E0,0E0],"parents":[2147483647,0,0,1,1,2,2,3,3,4,4,5,5,6,6],"right_children":[2,4,6,8,10,12,14,-1,-1,-1,-1,-1,-1,-1,-1],"split_conditions":[-1.2442166E4,7.42E2,-1.881E3,-1.701249E4,-8.93E2,-1.1543019E4,-5.051E3,-1.447353E-1,-1.9962525E-2,1.4736143E-1,-1.6590904E-2,-1.4563239E-1,1.8981175E-1,-1.9863924E-2,2.4561827E-1],"split_indices":[5,4,4,8,6,5,6,0,0,0,0,0,0,0,0],"split_type":[0,0,0,0,0,0,0,0,0,0,0,0,0,0,0],"sum_hessian":[6.8827374E2,5.8541077E2,1.0286293E2,4.853732E2,1.000376E2,2.935849E1,7.350444E1,1.4120242E2,3.4417078E2,8.456296E1,1.5474638E1,1.4327778E1,1.5030713E1,4.5515842E0,6.895286E1],"tree_param":{"num_deleted":"0","num_feature":"10","num_nodes":"15","size_leaf_vector":"1"}},{"base_weights":[6.876222E-2,9.21128E-2,-3.7627426E-1,1.3763456E-1,-1.03640266E-1,-1.6691138E-1,-4.9980187E-1,8.00769E-2,-1.2111983E-1,6.432847E-3,-1.4350241E-1,-2.0586339E-1,8.237667E-2,-2.59944E-1,3.7851483E-2],"categories":[],"categories_nodes":[],"categories_segments":[],"categories_sizes":[],"default_left":[1,0,0,0,0,0,0,0,0,0,0,0,0,0,0],"id":43,"left_children":[1,3,5,7,9,11,13,-1,-1,-1,-1,-1,-1,-1,-1],"loss_changes":[1.6857645E1,1.3730815E1,2.0020065E0,1.0725088E1,6.2218113E0,2.6320052E0,6.257696E-1,0E0,0E0,0E0,0E0,0E0,0E0,0E0,0E0],"parents":[2147483647,0,0,1,1,2,2,3,3,4,4,5,5,6,6],"right_children":[2,4,6,8,10,12,14,-1,-1,-1,-1,-1,-1,-1,-1],"split_conditions":[-4.13E2,-1.064E3,4.91E2,7.289613E3,1E0,-3.962E3,-2.764654E4,8.00769E-2,-1.2111983E-1,6.432847E-3,-1.4350241E-1,-2.0586339E-1,8.237667E-2,-2.59944E-1,3.7851483E-2],"split_indices":[2,6,2,3,0,6,9,0,0,0,0,0,0,0,0],"split_type":[0,0,0,0,0,0,0,0,0,0,0,0,0,0,0],"sum_hessian":[1.6181351E3,1.5382407E3,7.9894325E1,1.2483004E3,2.8994037E2,3.0549366E1,4.934496E1,1.1790123E3,6.928804E1,1.7782771E2,1.1211266E2,1.7454348E1,1.3095017E1,4.779099E1,1.5539708E0],"tree_param":{"num_deleted":"0","num_feature":"10","num_nodes":"15","size_leaf_vector":"1"}},{"base_weights":[3.3044647E-2,-4.1760182E-1,1.260812E-1,5.0197635E-3,-4.8605347E-1,2.0780374E-1,-2.7269304E-1,-2.3815936E-1,2.5955862E-1,-2.5525364E-1,-1.9112505E-1,3.7082434E-2,2.7430215E-1,-2.338105E-1,8.216019E-2],"categories":[],"categories_nodes":[],"categories_segments":[],"categories_sizes":[],"default_left":[1,0,0,0,1,0,0,0,0,0,0,0,0,0,0],"id":44,"left_children":[1,3,5,7,9,11,13,-1,-1,-1,-1,-1,-1,-1,-1],"loss_changes":[3.8674866E1,4.574047E0,2.4966759E1,5.9327264E0,1.4086914E-1,2.8872538E1,1.11897955E1,0E0,0E0,0E0,0E0,0E0,0E0,0E0,0E0],"parents":[2147483647,0,0,1,1,2,2,3,3,4,4,5,5,6,6],"right_children":[2,4,6,8,10,12,14,-1,-1,-1,-1,-1,-1,-1,-1],"split_conditions":[-3.003E3,-3.0375293E3,-3.17E2,-3.7309375E3,-3.457E3,-1.006E3,-1.66375E2,-2.3815936E-1,2.5955862E-1,-2.5525364E-1,-1.9112505E-1,3.7082434E-2,2.7430215E-1,-2.338105E-1,8.216019E-2],"split_indices":[6,4,4,6,6,6,6,0,0,0,0,0,0,0,0],"split_type":[0,0,0,0,0,0,0,0,0,0,0,0,0,0,0],"sum_hessian":[9.2025616E2,1.5686142E2,7.633948E2,2.197402E1,1.348874E2,6.339754E2,1.2941937E2,1.137649E1,1.059753E1,1.0592048E2,2.896692E1,4.5629456E2,1.7768083E2,8.94662E1,3.995317E1],"tree_param":{"num_deleted":"0","num_feature":"10","num_nodes":"15","size_leaf_vector":"1"}},{"base_weights":[-1.5075496E-1,-4.427841E-1,2.226576E-1,-4.8068658E-1,-1.5335171E-1,8.214667E-2,4.4886714E-1,-1.3526037E-1,-2.4797021E-1,-2.1183594E-1,1.481256E-1,9.1555685E-2,-2.0907694E-1,7.85547E-2,3.2322145E-1],"categories":[],"categories_nodes":[],"categories_segments":[],"categories_sizes":[],"default_left":[0,0,0,0,0,0,0,0,0,0,0,0,0,0,0],"id":45,"left_children":[1,3,5,7,9,11,13,-1,-1,-1,-1,-1,-1,-1,-1],"loss_changes":[4.0941246E1,2.229309E0,5.2026033E0,4.5329285E-1,3.271481E0,5.278844E0,3.5204172E0,0E0,0E0,0E0,0E0,0E0,0E0,0E0,0E0],"parents":[2147483647,0,0,1,1,2,2,3,3,4,4,5,5,6,6],"right_children":[2,4,6,8,10,12,14,-1,-1,-1,-1,-1,-1,-1,-1],"split_conditions":[-4.103872E3,-6.8873945E3,2.8929016E3,-1.2380533E5,6.088E3,1.0762832E3,-1.7123785E4,-1.3526037E-1,-2.4797021E-1,-2.1183594E-1,1.481256E-1,9.1555685E-2,-2.0907694E-1,7.85547E-2,3.2322145E-1],"split_indices":[1,1,1,3,2,3,5,0,0,0,0,0,0,0,0],"split_type":[0,0,0,0,0,0,0,0,0,0,0,0,0,0,0],"sum_hessian":[3.7352042E2,2.0951173E2,1.6400868E2,1.846373E2,2.4874428E1,1.0203598E2,6.19727E1,1.3806268E1,1.7083104E2,1.5584368E1,9.290059E0,8.544623E1,1.6589756E1,2.576768E1,3.620502E1],"tree_param":{"num_deleted":"0","num_feature":"10","num_nodes":"15","size_leaf_vector":"1"}},{"base_weights":[1.5714698E-2,8.391077E-2,-2.987735E-1,-4.516935E-1,1.0199066E-1,4.9660718E-1,-3.356927E-1,-2.014464E-2,-2.4610649E-1,5.980814E-2,-2.2679342E-1,-1.5900134E-1,3.9847034E-1,-2.0575193E-1,2.2985427E-2],"categories":[],"categories_nodes":[],"categories_segments":[],"categories_sizes":[],"default_left":[0,0,0,0,0,0,0,0,0,0,0,0,0,0,0],"id":46,"left_children":[1,3,5,7,9,11,13,-1,-1,-1,-1,-1,-1,-1,-1],"loss_changes":[1.9337173E1,7.217059E0,4.8833666E0,3.8090324E-1,7.077223E0,2.0976944E0,4.483061E0,0E0,0E0,0E0,0E0,0E0,0E0,0E0,0E0],"parents":[2147483647,0,0,1,1,2,2,3,3,4,4,5,5,6,6],"right_children":[2,4,6,8,10,12,14,-1,-1,-1,-1,-1,-1,-1,-1],"split_conditions":[-4.1616666E2,-1.20400414E5,-2.1116824E4,-3.48E3,-1.0976053E4,-6.554883E4,-5.587256E3,-2.014464E-2,-2.4610649E-1,5.980814E-2,-2.2679342E-1,-1.5900134E-1,3.9847034E-1,-2.0575193E-1,2.2985427E-2],"split_indices":[4,3,8,4,8,3,1,0,0,0,0,0,0,0,0],"split_type":[0,0,0,0,0,0,0,0,0,0,0,0,0,0,0],"sum_hessian":[8.995631E2,7.3988556E2,1.5967758E2,2.3358868E1,7.165267E2,6.5186625E0,1.5315892E2,2.2952943E0,2.1063574E1,6.95272E2,2.1254705E1,1.7311225E0,4.78754E0,1.2773457E2,2.5424341E1],"tree_param":{"num_deleted":"0","num_feature":"10","num_nodes":"15","size_leaf_vector":"1"}},{"base_weights":[-4.9992695E-1,1.1042001E-1,-2.5261417E-1],"categories":[],"categories_nodes":[],"categories_segments":[],"categories_sizes":[],"default_left":[1,0,0],"id":47,"left_children":[1,-1,-1],"loss_changes":[8.2444E-1,0E0,0E0],"parents":[2147483647,0,0],"right_children":[2,-1,-1],"split_conditions":[-3.753E3,1.1042001E-1,-2.5261417E-1],"split_indices":[4,0,0],"split_type":[0,0,0],"sum_hessian":[1.8481895E2,1.0388275E0,1.8378014E2],"tree_param":{"num_deleted":"0","num_feature":"10","num_nodes":"3","size_leaf_vector":"1"}},{"base_weights":[8.9788055E-3,-4.7596568E-1,1.5725364E-1,-2.4965525E-1,-1.9405559E-1,6.39721E-2,3.4535414E-1,-2.309534E-1,1.834044E-1,2.5538808E-1,1.3648856E-2,1.3242112E-1,2.592553E-1],"categories":[],"categories_nodes":[],"categories_segments":[],"categories_sizes":[],"default_left":[0,0,0,0,0,0,0,0,0,0,0,0,0],"id":48,"left_children":[1,3,5,-1,7,9,11,-1,-1,-1,-1,-1,-1],"loss_changes":[4.692716E1,9.018936E-1,8.743658E0,0E0,2.1767545E0,5.476317E0,2.1611385E0,0E0,0E0,0E0,0E0,0E0,0E0],"parents":[2147483647,0,0,1,1,2,2,4,4,5,5,6,6],"right_children":[2,4,6,-1,8,10,12,-1,-1,-1,-1,-1,-1],"split_conditions":[-2.043371E4,-1.2442166E4,1.0816983E4,-2.4965525E-1,-2.7297918E4,-1.919E3,4.3613914E4,-2.309534E-1,1.834044E-1,2.5538808E-1,1.3648856E-2,1.3242112E-1,2.592553E-1],"split_indices":[3,5,3,0,3,2,3,0,0,0,0,0,0],"split_type":[0,0,0,0,0,0,0,0,0,0,0,0,0],"sum_hessian":[6.5062994E2,1.5181842E2,4.9881152E2,1.3946292E2,1.2355494E1,3.343809E2,1.6443065E2,8.493522E0,3.8619719E0,2.4363264E1,3.100176E2,1.1400802E2,5.0422634E1],"tree_param":{"num_deleted":"0","num_feature":"10","num_nodes":"13","size_leaf_vector":"1"}},{"base_weights":[6.213402E-2,-2.0905516E-1,1.1725373E-1,-8.388324E-2,-5.3361213E-1,1.3613297E-1,-4.2370695E-1,2.5271922E-1,-9.107006E-2,3.486476E-2,-2.7314103E-1,2.990869E-2,1.2353053E-1,-2.874717E-1,1.5390211E-1],"categories":[],"categories_nodes":[],"categories_segments":[],"categories_sizes":[],"default_left":[1,1,1,0,0,0,0,0,0,0,0,0,0,0,0],"id":49,"left_children":[1,3,5,7,9,11,13,-1,-1,-1,-1,-1,-1,-1,-1],"loss_changes":[2.2956848E1,1.0490816E1,1.3083733E1,1.1002344E1,5.9334946E-1,1.0424255E1,4.964015E0,0E0,0E0,0E0,0E0,0E0,0E0,0E0,0E0],"parents":[2147483647,0,0,1,1,2,2,3,3,4,4,5,5,6,6],"right_children":[2,4,6,8,10,12,14,-1,-1,-1,-1,-1,-1,-1,-1],"split_conditions":[-2.395E3,-2.373E3,4.91E2,-2.0162E4,-5.5514832E4,-6.24E2,6.89E2,2.5271922E-1,-9.107006E-2,3.486476E-2,-2.7314103E-1,2.990869E-2,1.2353053E-1,-2.874717E-1,1.5390211E-1],"split_indices":[4,2,2,8,9,4,4,0,0,0,0,0,0,0,0],"split_type":[0,0,0,0,0,0,0,0,0,0,0,0,0,0,0],"sum_hessian":[1.5332157E3,2.584866E2,1.2747291E3,1.874731E2,7.10135E1,1.2324829E3,4.224616E1,2.6183683E1,1.6128941E2,1.3517191E0,6.966178E1,7.311207E2,5.0136224E2,3.519704E1,7.049118E0],"tree_param":{"num_deleted":"0","num_feature":"10","num_nodes":"15","size_leaf_vector":"1"}},{"base_weights":[2.1576025E-2,-4.481404E-1,9.088338E-2,-2.480333E-1,-2.1413903E-1,4.245443E-1,-3.1255875E-4,4.2779908E-2,-2.3649132E-1,2.4738333E-1,-8.9669235E-2,-1.9108117E-1,5.0083987E-2],"categories":[],"categories_nodes":[],"categories_segments":[],"categories_sizes":[],"default_left":[1,1,0,0,0,0,0,0,0,0,0,0,0],"id":50,"left_children":[1,3,5,-1,7,9,11,-1,-1,-1,-1,-1,-1],"loss_changes":[2.8064495E1,1.1298046E0,2.2858631E1,0E0,1.6453798E0,6.9296265E0,2.2710567E1,0E0,0E0,0E0,0E0,0E0,0E0],"parents":[2147483647,0,0,1,1,2,2,4,4,5,5,6,6],"right_children":[2,4,6,-1,8,10,12,-1,-1,-1,-1,-1,-1],"split_conditions":[-3.156E3,-3.504E3,-2.395E3,-2.480333E-1,-1.71966E4,-3.6042016E4,-1.9468572E3,4.2779908E-2,-2.3649132E-1,2.4738333E-1,-8.9669235E-2,-1.9108117E-1,5.0083987E-2],"split_indices":[6,6,4,0,8,3,6,0,0,0,0,0,0],"split_type":[0,0,0,0,0,0,0,0,0,0,0,0,0],"sum_hessian":[8.5992786E2,1.0984765E2,7.500802E2,9.020911E1,1.9638536E1,1.6024438E2,5.898359E2,9.393366E0,1.0245171E1,1.4372823E2,1.651615E1,1.2231315E2,4.675227E2],"tree_param":{"num_deleted":"0","num_feature":"10","num_nodes":"13","size_leaf_vector":"1"}},{"base_weights":[-1.0885539E-1,-2.3966235E-1,1.4790042E-1,2.0642403E-1,-2.8508684E-1,2.156312E-1,-2.665357E-1,-2.3564297E-1,2.5169417E-1,-5.3121313E-2,-1.7919222E-1,1.3728458E-1,-1.06761724E-1,2.0864528E-1,-2.0290312E-1],"categories":[],"categories_nodes":[],"categories_segments":[],"categories_sizes":[],"default_left":[1,0,1,0,0,0,0,0,0,0,0,0,0,0,0],"id":51,"left_children":[1,3,5,7,9,11,13,-1,-1,-1,-1,-1,-1,-1,-1],"loss_changes":[1.0635176E1,4.3042583E0,3.0633736E0,4.246342E0,2.4552326E0,2.4022288E0,1.6426815E0,0E0,0E0,0E0,0E0,0E0,0E0,0E0,0E0],"parents":[2147483647,0,0,1,1,2,2,3,3,4,4,5,5,6,6],"right_children":[2,4,6,8,10,12,14,-1,-1,-1,-1,-1,-1,-1,-1],"split_conditions":[-1.7673715E4,-1.987E3,-1.225E3,-1.727844E4,-4.807579E3,-1.0727818E4,-1.783866E4,-2.3564297E-1,2.5169417E-1,-5.3121313E-2,-1.7919222E-1,1.3728458E-1,-1.06761724E-1,2.0864528E-1,-2.0290312E-1],"split_indices":[7,2,2,5,6,8,5,0,0,0,0,0,0,0,0],"split_type":[0,0,0,0,0,0,0,0,0,0,0,0,0,0,0],"sum_hessian":[3.145775E2,2.0847383E2,1.06103676E2,1.8918848E1,1.8955498E2,9.163217E1,1.4471504E1,5.5750947E0,1.3343754E1,5.585532E1,1.3369966E2,8.090465E1,1.07275305E1,2.098701E0,1.2372804E1],"tree_param":{"num_deleted":"0","num_feature":"10","num_nodes":"15","size_leaf_vector":"1"}},{"base_weights":[1.0061288E-2,1.5118867E-1,-2.606691E-1,2.3218448E-1,-1.7295784E-1,3.4996215E-2,2.205634E-1,-2.2867048E-1,1.8314081E-1],"categories":[],"categories_nodes":[],"categories_segments":[],"categories_sizes":[],"default_left":[0,0,0,0,0,0,0,0,0],"id":52,"left_children":[1,3,-1,5,7,-1,-1,-1,-1],"loss_changes":[6.433186E1,1.783617E1,0E0,1.8357136E1,2.1032482E1,0E0,0E0,0E0,0E0],"parents":[2147483647,0,0,1,1,3,3,4,4],"right_children":[2,4,-1,6,8,-1,-1,-1,-1],"split_conditions":[6.088E3,-6.24E2,-2.606691E-1,-1.266E3,3.9E1,3.4996215E-2,2.205634E-1,-2.2867048E-1,1.8314081E-1],"split_indices":[2,4,0,2,2,0,0,0,0],"split_type":[0,0,0,0,0,0,0,0,0],"sum_hessian":[8.558134E2,6.768042E2,1.7900919E2,5.417496E2,1.3505461E2,3.057743E2,2.359753E2,8.8534096E1,4.6520523E1],"tree_param":{"num_deleted":"0","num_feature":"10","num_nodes":"9","size_leaf_vector":"1"}},{"base_weights":[-4.9547094E-1,-2.512439E-1,8.64772E-2],"categories":[],"categories_nodes":[],"categories_segments":[],"categories_sizes":[],"default_left":[0,0,0],"id":53,"left_children":[1,-1,-1],"loss_changes":[7.4884415E-1,0E0,0E0],"parents":[2147483647,0,0],"right_children":[2,-1,-1],"split_conditions":[-2.1412104E4,-2.512439E-1,8.64772E-2],"split_indices":[9,0,0],"split_type":[0,0,0],"sum_hessian":[1.3942786E2,1.3823988E2,1.1879687E0],"tree_param":{"num_deleted":"0","num_feature":"10","num_nodes":"3","size_leaf_vector":"1"}},{"base_weights":[8.952184E-3,-4.8597553E-1,1.2098047E-1,-2.4690689E-1,-1.7970401E-1,7.7931836E-2,4.9156383E-1,1.075042E-1,-1.8299761E-1,1.5380749E-1,7.329223E-3,6.57558E-2,2.5528523E-1],"categories":[],"categories_nodes":[],"categories_segments":[],"categories_sizes":[],"default_left":[0,0,0,0,0,0,0,0,0,0,0,0,0],"id":54,"left_children":[1,3,5,-1,7,9,11,-1,-1,-1,-1,-1,-1],"loss_changes":[3.2867252E1,1.6718292E-1,7.6673284E0,0E0,3.9890045E-1,6.303591E0,2.6924896E-1,0E0,0E0,0E0,0E0,0E0,0E0],"parents":[2147483647,0,0,1,1,2,2,4,4,5,5,6,6],"right_children":[2,4,6,-1,8,10,12,-1,-1,-1,-1,-1,-1],"split_conditions":[-2.3568357E4,-1.1045933E4,3.6236695E4,-2.4690689E-1,-2.4649E4,-3.901352E4,-3.228075E4,1.075042E-1,-1.8299761E-1,1.5380749E-1,7.329223E-3,6.57558E-2,2.5528523E-1],"split_indices":[3,5,3,0,7,1,1,0,0,0,0,0,0],"split_type":[0,0,0,0,0,0,0,0,0,0,0,0,0],"sum_hessian":[5.90786E2,1.0841115E2,4.8237485E2,1.05076965E2,3.3341792E0,4.3328033E2,4.909452E1,1.0024227E0,2.3317566E0,9.271263E1,3.405677E2,2.8851502E0,4.620937E1],"tree_param":{"num_deleted":"0","num_feature":"10","num_nodes":"13","size_leaf_vector":"1"}},{"base_weights":[4.3238863E-2,-2.47098E-1,8.112263E-2,-4.9660895E-2,-5.012096E-1,3.744453E-2,2.4811888E-1,2.5644958E-1,-6.8802625E-2,-2.626043E-1,1.7444019E-1,5.3102754E-2,-1.3037832E-1,1.4660925E-1,-1.4773801E-1],"categories":[],"categories_nodes":[],"categories_segments":[],"categories_sizes":[],"default_left":[1,0,0,0,1,0,0,0,0,0,0,0,0,0,0],"id":55,"left_children":[1,3,5,7,9,11,13,-1,-1,-1,-1,-1,-1,-1,-1],"loss_changes":[1.5652283E1,8.211469E0,9.164608E0,4.696552E0,1.6476994E0,2.0499943E1,6.4757824E0,0E0,0E0,0E0,0E0,0E0,0E0,0E0,0E0],"parents":[2147483647,0,0,1,1,2,2,3,3,4,4,5,5,6,6],"right_children":[2,4,6,8,10,12,14,-1,-1,-1,-1,-1,-1,-1,-1],"split_conditions":[-2.5825293E3,-2.94E3,1.41E2,-1.4656895E5,-1.3858909E4,-1.1251428E3,1.7013623E4,2.5644958E-1,-6.8802625E-2,-2.626043E-1,1.7444019E-1,5.3102754E-2,-1.3037832E-1,1.4660925E-1,-1.4773801E-1],"split_indices":[4,6,4,3,8,6,3,0,0,0,0,0,0,0,0],"split_type":[0,0,0,0,0,0,0,0,0,0,0,0,0,0,0],"sum_hessian":[1.4203856E3,1.6327536E2,1.2571102E3,9.257902E1,7.069634E1,9.974975E2,2.5961276E2,1.1847494E1,8.073153E1,6.913842E1,1.5579178E0,8.1113794E2,1.8635957E2,2.4016623E2,1.9446524E1],"tree_param":{"num_deleted":"0","num_feature":"10","num_nodes":"15","size_leaf_vector":"1"}},{"base_weights":[2.6125664E-2,-3.9795524E-1,8.034607E-2,-9.470733E-2,-2.3838677E-1,2.426996E-1,-5.667062E-2,-2.2792634E-1,1.0095487E-1,2.2869894E-1,7.123392E-2,-1.8910627E-1,8.187537E-2],"categories":[],"categories_nodes":[],"categories_segments":[],"categories_sizes":[],"default_left":[1,0,0,0,0,0,0,0,0,0,0,0,0],"id":56,"left_children":[1,3,5,7,-1,9,11,-1,-1,-1,-1,-1,-1],"loss_changes":[1.8685974E1,2.1511164E0,1.603815E1,2.2669578E0,0E0,7.027691E0,2.7803913E1,0E0,0E0,0E0,0E0,0E0,0E0],"parents":[2147483647,0,0,1,1,2,2,3,3,5,5,6,6],"right_children":[2,4,6,8,-1,10,12,-1,-1,-1,-1,-1,-1],"split_conditions":[-3.089E3,-2.906E3,-1.719E3,-3.683E3,-2.3838677E-1,-1.80167E4,-1.1251428E3,-2.2792634E-1,1.0095487E-1,2.2869894E-1,7.123392E-2,-1.8910627E-1,8.187537E-2],"split_indices":[6,4,4,6,0,5,6,0,0,0,0,0,0],"split_type":[0,0,0,0,0,0,0,0,0,0,0,0,0],"sum_hessian":[8.103988E2,9.112753E1,7.192713E2,1.9279491E1,7.1848045E1,3.2887872E2,3.9039258E2,8.4671755E0,1.0812315E1,1.0350529E2,2.2537343E2,1.585035E2,2.3188908E2],"tree_param":{"num_deleted":"0","num_feature":"10","num_nodes":"13","size_leaf_vector":"1"}},{"base_weights":[-5.2063923E-2,-2.0462096E-1,1.1010225E-1,3.3813307E-1,-2.560099E-1,1.6038677E-1,-3.1766376E-1,-2.019938E-1,2.525564E-1,1.03446215E-1,-1.4392285E-1,-1.7622411E-2,1.3732736E-1,2.532217E-3,-2.4680956E-1],"categories":[],"categories_nodes":[],"categories_segments":[],"categories_sizes":[],"default_left":[1,0,1,0,0,0,0,0,0,0,0,0,0,0,0],"id":57,"left_children":[1,3,5,7,9,11,13,-1,-1,-1,-1,-1,-1,-1,-1],"loss_changes":[7.221808E0,4.2780004E0,3.096454E0,1.8673675E0,2.0924454E0,2.8609986E0,8.7139046E-1,0E0,0E0,0E0,0E0,0E0,0E0,0E0,0E0],"parents":[2147483647,0,0,1,1,2,2,3,3,4,4,5,5,6,6],"right_children":[2,4,6,8,10,12,14,-1,-1,-1,-1,-1,-1,-1,-1],"split_conditions":[-1.9401E4,-2.043E3,-1.141E3,-7.767023E4,-1.503858E5,1E0,-3.6606E4,-2.019938E-1,2.525564E-1,1.03446215E-1,-1.4392285E-1,-1.7622411E-2,1.3732736E-1,2.532217E-3,-2.4680956E-1],"split_indices":[7,2,2,3,3,0,9,0,0,0,0,0,0,0,0],"split_type":[0,0,0,0,0,0,0,0,0,0,0,0,0,0,0],"sum_hessian":[2.8996414E2,1.4930556E2,1.406586E2,1.2414368E1,1.3689117E2,1.2644343E2,1.4215173E1,2.0085135E0,1.0405854E1,8.434731E0,1.2845645E2,4.6845676E1,7.959775E1,5.3383093E0,8.876864E0],"tree_param":{"num_deleted":"0","num_feature":"10","num_nodes":"15","size_leaf_vector":"1"}},{"base_weights":[-2.075962E-3,1.0776422E-1,-2.576939E-1,-1.9372646E-2,2.0255218E-1,6.394723E-2,-6.570915E-2,1.22422226E-1,-1.5441506E-1],"categories":[],"categories_nodes":[],"categories_segments":[],"categories_sizes":[],"default_left":[0,0,0,0,0,0,0,0,0],"id":58,"left_children":[1,3,-1,5,7,-1,-1,-1,-1],"loss_changes":[4.347446E1,7.6593003E0,0E0,4.507118E0,7.9466686E0,0E0,0E0,0E0,0E0],"parents":[2147483647,0,0,1,1,3,3,4,4],"right_children":[2,4,-1,6,8,-1,-1,-1,-1],"split_conditions":[6.088E3,-1.49E3,-2.576939E-1,-1.9068176E4,1.0816983E4,6.394723E-2,-6.570915E-2,1.22422226E-1,-1.5441506E-1],"split_indices":[2,2,0,1,3,0,0,0,0],"split_type":[0,0,0,0,0,0,0,0,0],"sum_hessian":[7.6900885E2,6.340939E2,1.3491496E2,2.7112732E2,3.6296658E2,1.1705089E2,1.5407642E2,3.3574094E2,2.7225628E1],"tree_param":{"num_deleted":"0","num_feature":"10","num_nodes":"9","size_leaf_vector":"1"}},{"base_weights":[-4.9025738E-1,-2.4982233E-1,1.081334E-1],"categories":[],"categories_nodes":[],"categories_segments":[],"categories_sizes":[],"default_left":[0,0,0],"id":59,"left_children":[1,-1,-1],"loss_changes":[8.035946E-1,0E0,0E0],"parents":[2147483647,0,0],"right_children":[2,-1,-1],"split_conditions":[-8.8765E3,-2.4982233E-1,1.081334E-1],"split_indices":[8,0,0],"split_type":[0,0,0],"sum_hessian":[1.0344338E2,1.0238994E2,1.0534447E0],"tree_param":{"num_deleted":"0","num_feature":"10","num_nodes":"3","size_leaf_vector":"1"}},{"base_weights":[1.6045447E-2,-4.1576105E-1,1.1125355E-1,-4.3474007E-1,2.9761583E-1,3.5127234E-1,3.7599526E-2,-2.3956755E-1,-3.1158598E-2,2.525562E-1,4.958626E-2,-1.1177357E-1,4.5344587E-2],"categories":[],"categories_nodes":[],"categories_segments":[],"categories_sizes":[],"default_left":[0,0,0,0,0,1,1,0,0,0,0,0,0],"id":60,"left_children":[1,3,5,7,-1,9,11,-1,-1,-1,-1,-1,-1],"loss_changes":[2.2155287E1,2.1252537E0,7.787854E0,1.5544872E0,0E0,3.9585724E0,4.7186356E0,0E0,0E0,0E0,0E0,0E0,0E0],"parents":[2147483647,0,0,1,1,2,2,3,3,5,5,6,6],"right_children":[2,4,6,8,-1,10,12,-1,-1,-1,-1,-1,-1],"split_conditions":[-1.7956877E4,-1.0890357E4,-4.549E3,-1.2442166E4,2.9761583E-1,-8.96E2,-2.71505E4,-2.3956755E-1,-3.1158598E-2,2.525562E-1,4.958626E-2,-1.1177357E-1,4.5344587E-2],"split_indices":[3,7,6,5,0,2,7,0,0,0,0,0,0],"split_type":[0,0,0,0,0,0,0,0,0,0,0,0,0],"sum_hessian":[5.3685657E2,9.635889E1,4.4049768E2,9.5152504E1,1.2063867E0,1.0251704E2,3.3798065E2,8.473786E1,1.0414641E1,6.3017986E1,3.949905E1,5.652694E1,2.814537E2],"tree_param":{"num_deleted":"0","num_feature":"10","num_nodes":"13","size_leaf_vector":"1"}},{"base_weights":[1.9002073E-2,-1.5146302E-1,6.7263104E-2,-2.9014416E-2,-4.327222E-1,2.7857426E-1,2.6218895E-2,8.107326E-2,-2.1505427E-1,-2.547877E-1,-4.0076673E-2,1.5845202E-1,-1.01562396E-1,4.947917E-2,-1.0540129E-1],"categories":[],"categories_nodes":[],"categories_segments":[],"categories_sizes":[],"default_left":[1,0,0,1,1,0,0,0,0,0,0,0,0,0,0],"id":61,"left_children":[1,3,5,7,9,11,13,-1,-1,-1,-1,-1,-1,-1,-1],"loss_changes":[1.0876838E1,1.0029997E1,8.925125E0,1.5740117E1,2.3482342E0,3.1566782E0,1.4912881E1,0E0,0E0,0E0,0E0,0E0,0E0,0E0,0E0],"parents":[2147483647,0,0,1,1,2,2,3,3,4,4,5,5,6,6],"right_children":[2,4,6,8,10,12,14,-1,-1,-1,-1,-1,-1,-1,-1],"split_conditions":[-2.146E3,-2.44E3,-1.701E3,-2.24E3,-2.237E3,-1.5902532E3,-1.0412004E4,8.107326E-2,-2.1505427E-1,-2.547877E-1,-4.0076673E-2,1.5845202E-1,-1.01562396E-1,4.947917E-2,-1.0540129E-1],"split_indices":[4,6,2,2,4,1,1,0,0,0,0,0,0,0,0],"split_type":[0,0,0,0,0,0,0,0,0,0,0,0,0,0,0],"sum_hessian":[1.3199832E3,2.9073138E2,1.0292517E3,2.0334297E2,8.73884E1,1.6642126E2,8.628305E2,1.3809695E2,6.5246025E1,7.135968E1,1.602872E1,1.5449097E2,1.1930292E1,6.6069476E2,2.0213573E2],"tree_param":{"num_deleted":"0","num_feature":"10","num_nodes":"15","size_leaf_vector":"1"}},{"base_weights":[4.9286522E-2,9.87106E-2,-2.1975088E-1,1.1344295E-1,-3.8053507E-1,1.0607035E-1,-3.261665E-1,8.6445965E-2,1.5189313E-2,7.6892465E-2,-2.1953927E-1,1.8339574E-1,-1.4734569E-1,-1.3186984E-1,-2.8001603E-1],"categories":[],"categories_nodes":[],"categories_segments":[],"categories_sizes":[],"default_left":[0,0,0,0,0,0,0,0,0,0,0,0,0,0,0],"id":62,"left_children":[1,3,5,7,9,11,13,-1,-1,-1,-1,-1,-1,-1,-1],"loss_changes":[1.0021906E1,4.5319777E0,4.093866E0,3.0442939E0,6.704037E-1,3.195289E0,1.1357031E0,0E0,0E0,0E0,0E0,0E0,0E0,0E0,0E0],"parents":[2147483647,0,0,1,1,2,2,3,3,4,4,5,5,6,6],"right_children":[2,4,6,8,10,12,14,-1,-1,-1,-1,-1,-1,-1,-1],"split_conditions":[-3E2,-1.1543019E4,-4.1681973E4,-1.68E3,-5.648545E4,-5.0175168E4,1.069E3,8.6445965E-2,1.5189313E-2,7.6892465E-2,-2.1953927E-1,1.8339574E-1,-1.4734569E-1,-1.3186984E-1,-2.8001603E-1],"split_indices":[4,5,9,4,1,1,4,0,0,0,0,0,0,0,0],"split_type":[0,0,0,0,0,0,0,0,0,0,0,0,0,0,0],"sum_hessian":[7.511607E2,6.3514954E2,1.1601121E2,6.1696765E2,1.8181866E1,2.853933E1,8.747188E1,3.5890106E2,2.5806662E2,1.6178906E0,1.6563974E1,1.7357126E1,1.1182203E1,7.0755325E1,1.6716553E1],"tree_param":{"num_deleted":"0","num_feature":"10","num_nodes":"15","size_leaf_vector":"1"}},{"base_weights":[-4.0711693E-2,-1.9918469E-1,1.0990391E-1,-1.4329116E-1,-2.4537465E-1,2.345743E-1,-4.644404E-2,-1.8691418E-1,-1.9992134E-2,5.236113E-3,3.308271E-1,7.4777845E-3,-2.2437365E-1],"categories":[],"categories_nodes":[],"categories_segments":[],"categories_sizes":[],"default_left":[1,0,0,0,0,0,1,0,0,0,0,0,0],"id":63,"left_children":[1,3,5,7,-1,9,11,-1,-1,-1,-1,-1,-1],"loss_changes":[6.6228294E0,2.125524E0,2.7881432E0,2.7158353E0,0E0,7.587463E0,1.5911055E0,0E0,0E0,0E0,0E0,0E0,0E0],"parents":[2147483647,0,0,1,1,2,2,3,3,5,5,6,6],"right_children":[2,4,6,8,-1,10,12,-1,-1,-1,-1,-1,-1],"split_conditions":[-1.9401E4,-1.799E3,-3.4022457E4,-4.401156E4,-2.4537465E-1,-3.7216258E4,-1.225E3,-1.8691418E-1,-1.9992134E-2,5.236113E-3,3.308271E-1,7.4777845E-3,-2.2437365E-1],"split_indices":[7,6,9,9,0,9,2,0,0,0,0,0,0],"split_type":[0,0,0,0,0,0,0,0,0,0,0,0,0],"sum_hessian":[2.7551694E2,1.3413171E2,1.4138522E2,1.1383505E2,2.0296652E1,7.8418594E1,6.2966625E1,3.438559E1,7.944946E1,5.2118393E1,2.6300203E1,5.544289E1,7.5237374E0],"tree_param":{"num_deleted":"0","num_feature":"10","num_nodes":"13","size_leaf_vector":"1"}},{"base_weights":[-7.858705E-3,8.094019E-2,-2.5482595E-1,2.7255267E-1,-8.1083E-2,1.7106712E-1,1.9502748E-2,-1.9397134E-1,3.550876E-2],"categories":[],"categories_nodes":[],"categories_segments":[],"categories_sizes":[],"default_left":[0,0,0,0,0,0,0,0,0],"id":64,"left_children":[1,3,-1,5,7,-1,-1,-1,-1],"loss_changes":[3.1249E1,1.8522055E1,0E0,4.4232655E0,1.5133628E1,0E0,0E0,0E0,0E0],"parents":[2147483647,0,0,1,1,3,3,4,4],"right_children":[2,4,-1,6,8,-1,-1,-1,-1],"split_conditions":[2.249E3,-1.78E3,-2.5482595E-1,-2.1434334E4,-1.349E3,1.7106712E-1,1.9502748E-2,-1.9397134E-1,3.550876E-2],"split_indices":[2,4,0,3,2,0,0,0,0],"split_type":[0,0,0,0,0,0,0,0,0],"sum_hessian":[6.99278E2,5.9483325E2,1.0444478E2,2.7224698E2,3.2258624E2,2.0936295E2,6.2884033E1,1.0641379E2,2.1617245E2],"tree_param":{"num_deleted":"0","num_feature":"10","num_nodes":"9","size_leaf_vector":"1"}},{"base_weights":[-4.8425844E-1,-2.4838896E-1,1.1499867E-1],"categories":[],"categories_nodes":[],"categories_segments":[],"categories_sizes":[],"default_left":[0,0,0],"id":65,"left_children":[1,-1,-1],"loss_changes":[8.118553E-1,0E0,0E0],"parents":[2147483647,0,0],"right_children":[2,-1,-1],"split_conditions":[6.67875E2,-2.4838896E-1,1.1499867E-1],"split_indices":[6,0,0],"split_type":[0,0,0],"sum_hessian":[7.6714645E1,7.5706154E1,1.0084947E0],"tree_param":{"num_deleted":"0","num_feature":"10","num_nodes":"3","size_leaf_vector":"1"}},{"base_weights":[4.0035427E-2,-4.795151E-1,1.0974132E-1,-2.392874E-1,-2.4772458E-1,3.442E-1,6.829484E-2,1.2083291E-1,-1.9770758E-1,4.275748E-2,3.662693E-1,1.4042324E-2,1.9347706E-1],"categories":[],"categories_nodes":[],"categories_segments":[],"categories_sizes":[],"default_left":[0,0,0,0,0,0,0,0,0,0,0,0,0],"id":66,"left_children":[1,3,5,7,-1,9,11,-1,-1,-1,-1,-1,-1],"loss_changes":[1.8404358E1,1.04245186E-1,4.32299E0,5.260964E-1,0E0,6.656941E0,4.876342E0,0E0,0E0,0E0,0E0,0E0,0E0],"parents":[2147483647,0,0,1,1,2,2,3,3,5,5,6,6],"right_children":[2,4,6,8,-1,10,12,-1,-1,-1,-1,-1,-1],"split_conditions":[-2.7297918E4,-6.4578832E4,-2.1003756E4,-2.4359167E3,-2.4772458E-1,-2.6434E4,-1.1399795E4,1.2083291E-1,-1.9770758E-1,4.275748E-2,3.662693E-1,1.4042324E-2,1.9347706E-1],"split_indices":[3,1,5,4,0,7,5,0,0,0,0,0,0],"split_type":[0,0,0,0,0,0,0,0,0,0,0,0,0],"sum_hessian":[5.0583585E2,5.9125248E1,4.467106E2,4.71314E0,5.4412106E1,6.597133E1,3.8073926E2,1.0050747E0,3.7080655E0,4.03433E1,2.562803E1,3.3907272E2,4.1666553E1],"tree_param":{"num_deleted":"0","num_feature":"10","num_nodes":"13","size_leaf_vector":"1"}},{"base_weights":[1.0025363E-2,-5.6452606E-2,9.7714014E-2,1.7591836E-2,-3.4856483E-1,-1.0567292E-1,1.572331E-1,4.1052327E-2,-1.18995E-1,-2.5296938E-1,-6.75542E-2,2.4916947E-1,-6.613018E-2,1.09587714E-1,-9.639776E-2],"categories":[],"categories_nodes":[],"categories_segments":[],"categories_sizes":[],"default_left":[1,0,0,1,1,0,0,0,0,0,0,0,0,0,0],"id":67,"left_children":[1,3,5,7,9,11,13,-1,-1,-1,-1,-1,-1,-1,-1],"loss_changes":[7.350251E0,1.5521538E1,6.5988865E0,9.467037E0,4.799635E0,2.0479407E0,9.171662E0,0E0,0E0,0E0,0E0,0E0,0E0,0E0,0E0],"parents":[2147483647,0,0,1,1,2,2,3,3,4,4,5,5,6,6],"right_children":[2,4,6,8,10,12,14,-1,-1,-1,-1,-1,-1,-1,-1],"split_conditions":[-9.152E2,-1.558E3,-3.962E3,-1.687E3,-1.307E3,-3.4911E4,-1.66375E2,4.1052327E-2,-1.18995E-1,-2.5296938E-1,-6.75542E-2,2.4916947E-1,-6.613018E-2,1.09587714E-1,-9.639776E-2],"split_indices":[4,6,6,2,4,7,6,0,0,0,0,0,0,0,0],"split_type":[0,0,0,0,0,0,0,0,0,0,0,0,0,0,0],"sum_hessian":[1.258884E3,7.1618024E2,5.4270386E2,5.7207623E2,1.44104E2,1.2264873E2,4.2005515E2,4.5735147E2,1.1472473E2,8.2133095E1,6.1970913E1,4.4071794E0,1.1824155E2,3.5723923E2,6.2815926E1],"tree_param":{"num_deleted":"0","num_feature":"10","num_nodes":"15","size_leaf_vector":"1"}},{"base_weights":[3.9170086E-3,-2.540669E-1,8.8484645E-2,5.931201E-2,-4.2295343E-1,2.407428E-1,-2.4136383E-2,-2.721933E-1,1.1594077E-1,-2.3227489E-1,-1.0875217E-1,1.9241606E-1,-1.1496826E-1,-1.2232462E-1,7.383842E-2],"categories":[],"categories_nodes":[],"categories_segments":[],"categories_sizes":[],"default_left":[0,0,0,0,0,1,0,0,0,0,0,0,0,0,0],"id":68,"left_children":[1,3,5,7,9,11,13,-1,-1,-1,-1,-1,-1,-1,-1],"loss_changes":[1.5896456E1,9.548583E0,9.418447E0,6.774659E0,8.922348E-1,1.5923637E1,1.2021935E1,0E0,0E0,0E0,0E0,0E0,0E0,0E0,0E0],"parents":[2147483647,0,0,1,1,2,2,3,3,4,4,5,5,6,6],"right_children":[2,4,6,8,10,12,14,-1,-1,-1,-1,-1,-1,-1,-1],"split_conditions":[-2.378E3,-2.756E3,-1.606E3,-9.68E2,-1.8205334E4,-1.524E3,-8.93E2,-2.721933E-1,1.1594077E-1,-2.3227489E-1,-1.0875217E-1,1.9241606E-1,-1.1496826E-1,-1.2232462E-1,7.383842E-2],"split_indices":[6,4,4,2,7,2,6,0,0,0,0,0,0,0,0],"split_type":[0,0,0,0,0,0,0,0,0,0,0,0,0,0,0],"sum_hessian":[7.266694E2,1.7887296E2,5.477964E2,6.2846725E1,1.1602623E2,2.3246552E2,3.153309E2,1.347938E1,4.9367344E1,9.540101E1,2.0625225E1,1.781362E2,5.4329304E1,1.3793419E2,1.773967E2],"tree_param":{"num_deleted":"0","num_feature":"10","num_nodes":"15","size_leaf_vector":"1"}},{"base_weights":[-7.871066E-3,-4.4897917E-1,2.3954827E-1,-2.4399829E-1,-1.5354149E-1,1.304375E-1,4.505166E-1,-2.3112702E-1,3.4700152E-1,1.2177495E-1,-3.9029E-2,1.566229E-1,3.6482838E-1],"categories":[],"categories_nodes":[],"categories_segments":[],"categories_sizes":[],"default_left":[0,1,0,0,0,1,0,0,0,0,0,0,0],"id":69,"left_children":[1,3,5,-1,7,9,11,-1,-1,-1,-1,-1,-1],"loss_changes":[2.8530394E1,1.0015163E0,3.7904072E0,0E0,3.5754573E0,2.6577752E0,1.931695E0,0E0,0E0,0E0,0E0,0E0,0E0],"parents":[2147483647,0,0,1,1,2,2,4,4,5,5,6,6],"right_children":[2,4,6,-1,8,10,12,-1,-1,-1,-1,-1,-1],"split_conditions":[-8.665911E3,-1.4888E4,2.8929016E3,-2.4399829E-1,-1.4384307E4,-1.858E3,-2.815E3,-2.3112702E-1,3.4700152E-1,1.2177495E-1,-3.9029E-2,1.566229E-1,3.6482838E-1],"split_indices":[1,7,1,0,1,2,6,0,0,0,0,0,0],"split_type":[0,0,0,0,0,0,0,0,0,0,0,0,0],"sum_hessian":[2.5940952E2,9.293946E1,1.6647005E2,8.149154E1,1.1447921E1,1.1082046E2,5.5649582E1,8.733276E0,2.714644E0,7.1766E1,3.9054462E1,3.8751186E1,1.6898397E1],"tree_param":{"num_deleted":"0","num_feature":"10","num_nodes":"13","size_leaf_vector":"1"}},{"base_weights":[6.2250122E-3,-4.053409E-1,9.510029E-2,-5.9499912E-2,-4.9589774E-1,2.4452208E-1,-6.0641356E-2,2.6056662E-1,-1.6831146E-1,-1.7687485E-1,-2.7576596E-1,1.642256E-1,8.2535045E-3,-1.5974967E-1,5.9807807E-2],"categories":[],"categories_nodes":[],"categories_segments":[],"categories_sizes":[],"default_left":[1,0,0,0,0,0,0,0,0,0,0,0,0,0,0],"id":70,"left_children":[1,3,5,7,9,11,13,-1,-1,-1,-1,-1,-1,-1,-1],"loss_changes":[2.378411E1,3.5814056E0,1.2461767E1,4.215782E0,5.182934E-1,5.2186546E0,1.2294487E1,0E0,0E0,0E0,0E0,0E0,0E0,0E0,0E0],"parents":[2147483647,0,0,1,1,2,2,3,3,4,4,5,5,6,6],"right_children":[2,4,6,8,10,12,14,-1,-1,-1,-1,-1,-1,-1,-1],"split_conditions":[-2.051E3,-2.111E3,-1.563E3,-2.5181765E3,-2.421E3,-2.2172275E4,-1.127E3,2.6056662E-1,-1.6831146E-1,-1.7687485E-1,-2.7576596E-1,1.642256E-1,8.2535045E-3,-1.5974967E-1,5.9807807E-2],"split_indices":[2,2,4,4,4,3,2,0,0,0,0,0,0,0,0],"split_type":[0,0,0,0,0,0,0,0,0,0,0,0,0,0,0],"sum_hessian":[6.4826025E2,1.1447467E2,5.337856E2,2.4121386E1,9.035329E1,2.721619E2,2.6162366E2,7.49698E0,1.6624407E1,2.7535904E1,6.281738E1,1.9858224E2,7.357964E1,1.07102356E2,1.545213E2],"tree_param":{"num_deleted":"0","num_feature":"10","num_nodes":"15","size_leaf_vector":"1"}},{"base_weights":[-4.771714E-1,-2.4684063E-1,1.11509524E-1],"categories":[],"categories_nodes":[],"categories_segments":[],"categories_sizes":[],"default_left":[0,0,0],"id":71,"left_children":[1,-1,-1],"loss_changes":[7.8542805E-1,0E0,0E0],"parents":[2147483647,0,0],"right_children":[2,-1,-1],"split_conditions":[-2.2391E4,-2.4684063E-1,1.11509524E-1],"split_indices":[9,0,0],"split_type":[0,0,0],"sum_hessian":[5.7185005E1,5.616979E1,1.0152175E0],"tree_param":{"num_deleted":"0","num_feature":"10","num_nodes":"3","size_leaf_vector":"1"}},{"base_weights":[3.553764E-2,-4.704205E-1,8.595168E-2,-2.456805E-1,-1.5164411E-1,2.907471E-1,3.2079995E-2,1.192227E-1,-1.7405948E-1,2.4975663E-1,6.8987265E-2,-6.723255E-4,2.4687618E-1],"categories":[],"categories_nodes":[],"categories_segments":[],"categories_sizes":[],"default_left":[0,0,0,0,0,0,0,0,0,0,0,0,0],"id":72,"left_children":[1,3,5,-1,7,9,11,-1,-1,-1,-1,-1,-1],"loss_changes":[1.2823111E1,2.2318077E-1,5.026374E0,0E0,4.1245157E-1,2.9532833E0,5.6035676E0,0E0,0E0,0E0,0E0,0E0,0E0],"parents":[2147483647,0,0,1,1,2,2,4,4,5,5,6,6],"right_children":[2,4,6,-1,8,10,12,-1,-1,-1,-1,-1,-1],"split_conditions":[-2.7297918E4,-3.2536158E4,-3.901352E4,-2.456805E-1,-1.15E3,-2.0134445E3,4.3613914E4,1.192227E-1,-1.7405948E-1,2.4975663E-1,6.8987265E-2,-6.723255E-4,2.4687618E-1],"split_indices":[3,3,1,0,2,6,3,0,0,0,0,0,0],"split_type":[0,0,0,0,0,0,0,0,0,0,0,0,0],"sum_hessian":[5.0028693E2,4.455916E1,4.5572778E2,4.127503E1,3.284128E0,9.395839E1,3.6176938E2,1.0114456E0,2.2726822E0,3.871653E1,5.524186E1,3.3825543E2,2.351395E1],"tree_param":{"num_deleted":"0","num_feature":"10","num_nodes":"13","size_leaf_vector":"1"}},{"base_weights":[9.4335815E-3,3.0100342E-2,-2.6107165E-1,-1.7423089E-1,6.434938E-2,-5.4682606E-1,6.874345E-2,2.0445529E-1,-1.1997112E-1,3.8447145E-2,-2.6070115E-1,-2.8413126E-1,8.124084E-2,-1.8784209E-1,1.8478128E-1],"categories":[],"categories_nodes":[],"categories_segments":[],"categories_sizes":[],"default_left":[0,0,0,0,1,1,0,0,0,0,0,0,0,0,0],"id":73,"left_children":[1,3,5,7,9,11,13,-1,-1,-1,-1,-1,-1,-1,-1],"loss_changes":[6.4263034E0,7.483648E0,7.7317643E0,5.979656E0,6.7621703E0,7.6301E-1,5.3188677E0,0E0,0E0,0E0,0E0,0E0,0E0,0E0,0E0],"parents":[2147483647,0,0,1,1,2,2,3,3,4,4,5,5,6,6],"right_children":[2,4,6,8,10,12,14,-1,-1,-1,-1,-1,-1,-1,-1],"split_conditions":[-2.79E2,-2.395E3,1.21E2,-6.021778E3,1.044E3,-1.033E3,-1.083E3,2.0445529E-1,-1.1997112E-1,3.8447145E-2,-2.6070115E-1,-2.8413126E-1,8.124084E-2,-1.8784209E-1,1.8478128E-1],"split_indices":[6,4,4,6,2,2,2,0,0,0,0,0,0,0,0],"split_type":[0,0,0,0,0,0,0,0,0,0,0,0,0,0,0],"sum_hessian":[1.1475187E3,1.0669302E3,8.058841E1,1.5253296E2,9.143973E2,4.2842052E1,3.7746353E1,1.4903144E1,1.376298E2,8.960917E2,1.8305588E1,4.1791977E1,1.0500746E0,1.5122454E1,2.26239E1],"tree_param":{"num_deleted":"0","num_feature":"10","num_nodes":"15","size_leaf_vector":"1"}},{"base_weights":[1.8606149E-2,-1.9741255E-1,1.0088496E-1,-4.8421022E-1,-8.81015E-2,8.4038687E-1,6.9727965E-2,-2.019243E-2,-2.5981316E-1,-2.4247156E-1,-5.3060916E-3,5.640783E-1,2.6815075E-1,5.8875524E-2,-1.058762E-1],"categories":[],"categories_nodes":[],"categories_segments":[],"categories_sizes":[],"default_left":[1,0,0,0,1,0,1,0,0,0,0,0,0,0,0],"id":74,"left_children":[1,3,5,7,9,11,13,-1,-1,-1,-1,-1,-1,-1,-1],"loss_changes":[1.1801554E1,5.6936145E0,1.1009427E1,7.6400757E-1,4.1062307E0,1.0701199E0,6.274929E0,0E0,0E0,0E0,0E0,0E0,0E0,0E0,0E0],"parents":[2147483647,0,0,1,1,2,2,3,3,4,4,5,5,6,6],"right_children":[2,4,6,8,10,12,14,-1,-1,-1,-1,-1,-1,-1,-1],"split_conditions":[-2.246E3,6.088E3,-1.8886E4,-9.409053E4,-3.707E3,-2.1218236E4,-1.212E3,-2.019243E-2,-2.5981316E-1,-2.4247156E-1,-5.3060916E-3,5.640783E-1,2.6815075E-1,5.8875524E-2,-1.058762E-1],"split_indices":[6,2,8,3,6,5,2,0,0,0,0,0,0,0,0],"split_type":[0,0,0,0,0,0,0,0,0,0,0,0,0,0,0],"sum_hessian":[6.619212E2,1.8215692E2,4.7976425E2,4.929673E1,1.328602E2,1.8333384E1,4.6143088E2,3.8220792E0,4.547465E1,2.0824682E1,1.1203551E2,8.010141E0,1.0323242E1,3.9470743E2,6.672345E1],"tree_param":{"num_deleted":"0","num_feature":"10","num_nodes":"15","size_leaf_vector":"1"}},{"base_weights":[-1.24561945E-2,-4.441649E-1,1.7251906E-1,-2.4839514E-1,-2.4510162E-1,-3.911594E-1,1.9981934E-1,-1.982642E-1,1.5718192E-1,-8.871603E-3,-2.8336954E-1,3.03899E-1,8.023504E-2],"categories":[],"categories_nodes":[],"categories_segments":[],"categories_sizes":[],"default_left":[0,0,0,0,0,0,0,0,0,0,0,0,0],"id":75,"left_children":[1,3,5,-1,7,9,11,-1,-1,-1,-1,-1,-1],"loss_changes":[1.9249176E1,6.282301E-1,2.6731544E0,0E0,1.5767801E0,5.1627564E-1,2.4896727E0,0E0,0E0,0E0,0E0,0E0,0E0],"parents":[2147483647,0,0,1,1,2,2,4,4,5,5,6,6],"right_children":[2,4,6,-1,8,10,12,-1,-1,-1,-1,-1,-1],"split_conditions":[-8.665911E3,-1.4384307E4,-6.482706E3,-2.4839514E-1,-1.4888E4,-4.3240605E4,-1.1618936E5,-1.982642E-1,1.5718192E-1,-8.871603E-3,-2.8336954E-1,3.03899E-1,8.023504E-2],"split_indices":[1,1,6,0,7,9,3,0,0,0,0,0,0],"split_type":[0,0,0,0,0,0,0,0,0,0,0,0,0],"sum_hessian":[2.3905673E2,7.130133E1,1.677554E2,5.517034E1,1.6130991E1,7.116857E0,1.6063853E2,1.2938205E1,3.1927865E0,2.6464653E0,4.4703918E0,1.2837467E1,1.4780107E2],"tree_param":{"num_deleted":"0","num_feature":"10","num_nodes":"13","size_leaf_vector":"1"}},{"base_weights":[6.5843435E-3,6.3067384E-2,-2.502964E-1,3.5301515E-1,1.2373566E-2,2.5679174E-1,-1.8826436E-1,-1.405016E-1,4.995349E-2],"categories":[],"categories_nodes":[],"categories_segments":[],"categories_sizes":[],"default_left":[0,0,0,0,0,0,0,0,0],"id":76,"left_children":[1,3,-1,5,7,-1,-1,-1,-1],"loss_changes":[1.6931482E1,7.8096333E0,0E0,9.458989E0,1.1679445E1,0E0,0E0,0E0,0E0],"parents":[2147483647,0,0,1,1,3,3,4,4],"right_children":[2,4,-1,6,8,-1,-1,-1,-1],"split_conditions":[6.088E3,-2.5181765E3,-2.502964E-1,-2.094E3,-1.741E3,2.5679174E-1,-1.8826436E-1,-1.405016E-1,4.995349E-2],"split_indices":[2,4,0,6,2,0,0,0,0],"split_type":[0,0,0,0,0,0,0,0,0],"sum_hessian":[5.890912E2,5.308654E2,5.8225765E1,7.808579E1,4.527796E2,6.425367E1,1.3832128E1,1.03514885E2,3.492647E2],"tree_param":{"num_deleted":"0","num_feature":"10","num_nodes":"9","size_leaf_vector":"1"}},{"base_weights":[-4.682167E-1,-2.4504E-1,1.1062652E-1],"categories":[],"categories_nodes":[],"categories_segments":[],"categories_sizes":[],"default_left":[0,0,0],"id":77,"left_children":[1,-1,-1],"loss_changes":[7.725706E-1,0E0,0E0],"parents":[2147483647,0,0],"right_children":[2,-1,-1],"split_conditions":[1.6023529E3,-2.4504E-1,1.1062652E-1],"split_indices":[4,0,0],"split_type":[0,0,0],"sum_hessian":[4.288011E1,4.1856525E1,1.0235864E0],"tree_param":{"num_deleted":"0","num_feature":"10","num_nodes":"3","size_leaf_vector":"1"}},{"base_weights":[5.7478484E-2,-2.4316247E-1,9.637148E-2,4.2357445E-1,6.724615E-2,3.817243E-1,7.29412E-2,-9.727143E-2,5.4902542E-2],"categories":[],"categories_nodes":[],"categories_segments":[],"categories_sizes":[],"default_left":[0,0,0,1,1,0,0,0,0],"id":78,"left_children":[1,-1,3,5,7,-1,-1,-1,-1],"loss_changes":[9.952757E0,0E0,4.141872E0,3.2389264E0,4.516412E0,0E0,0E0,0E0,0E0],"parents":[2147483647,0,0,2,2,3,3,4,4],"right_children":[2,-1,4,6,8,-1,-1,-1,-1],"split_conditions":[-3.3791754E4,-2.4316247E-1,-2.233195E4,-1.419E3,-1.701249E4,3.817243E-1,7.29412E-2,-9.727143E-2,5.4902542E-2],"split_indices":[3,0,5,2,8,0,0,0,0],"split_type":[0,0,0,0,0,0,0,0,0],"sum_hessian":[4.6754474E2,3.042199E1,4.3712277E2,3.4594208E1,4.0252856E2,1.4752719E1,1.984149E1,5.5755936E1,3.467726E2],"tree_param":{"num_deleted":"0","num_feature":"10","num_nodes":"9","size_leaf_vector":"1"}},{"base_weights":[7.056662E-3,-1.9891735E-2,1.7789249E-1,7.383836E-3,-2.3331973E-1,3.9451766E-1,1.9526776E-2,1.2318936E-2,-1.8897535E-1,-2.6440188E-1,-6.827601E-2,2.2645031E-1,-3.0907536E-1,-1.9121101E-1,6.9038376E-2],"categories":[],"categories_nodes":[],"categories_segments":[],"categories_sizes":[],"default_left":[1,0,0,1,0,0,0,0,0,0,0,0,0,0,0],"id":79,"left_children":[1,3,5,7,9,11,13,-1,-1,-1,-1,-1,-1,-1,-1],"loss_changes":[5.0723305E0,5.543314E0,5.1381407E0,5.621517E0,3.0063033E0,4.0219145E0,4.234106E0,0E0,0E0,0E0,0E0,0E0,0E0,0E0,0E0],"parents":[2147483647,0,0,1,1,2,2,3,3,4,4,5,5,6,6],"right_children":[2,4,6,8,10,12,14,-1,-1,-1,-1,-1,-1,-1,-1],"split_conditions":[4.53E2,-7.27E2,-2.3568357E4,-4.13E2,-4.1681973E4,1.032E3,-3.8320492E4,1.2318936E-2,-1.8897535E-1,-2.6440188E-1,-6.827601E-2,2.2645031E-1,-3.0907536E-1,-1.9121101E-1,6.9038376E-2],"split_indices":[4,6,3,2,9,6,9,0,0,0,0,0,0,0,0],"split_type":[0,0,0,0,0,0,0,0,0,0,0,0,0,0,0],"sum_hessian":[1.0996702E3,9.505511E2,1.491191E2,8.436529E2,1.068982E2,6.2319378E1,8.679971E1,8.084166E2,3.523627E1,2.524465E1,8.165356E1,5.9454323E1,2.8650563E0,1.9243526E1,6.755618E1],"tree_param":{"num_deleted":"0","num_feature":"10","num_nodes":"15","size_leaf_vector":"1"}},{"base_weights":[-3.1723361E-3,-4.4530585E-1,2.339445E-2,-2.2676735E-1,-2.4932647E-1,3.063539E-1,-2.4274704E-3,-2.1985523E-1,3.660332E-1,1.9661878E-1,-2.2452931E-1,-3.0607145E-2,6.843882E-2],"categories":[],"categories_nodes":[],"categories_segments":[],"categories_sizes":[],"default_left":[0,0,0,0,0,0,0,0,0,0,0,0,0],"id":80,"left_children":[1,3,5,7,-1,9,11,-1,-1,-1,-1,-1,-1],"loss_changes":[7.562087E0,3.0510855E-1,4.4392943E0,2.1629028E0,0E0,3.510561E0,4.5711403E0,0E0,0E0,0E0,0E0,0E0,0E0],"parents":[2147483647,0,0,1,1,2,2,3,3,5,5,6,6],"right_children":[2,4,6,8,-1,10,12,-1,-1,-1,-1,-1,-1],"split_conditions":[-3.44E3,-2.8957E4,-1.874635E4,-3.7724119E3,-2.4932647E-1,-1.7914445E4,-7.27E2,-2.1985523E-1,3.660332E-1,1.9661878E-1,-2.2452931E-1,-3.0607145E-2,6.843882E-2],"split_indices":[6,7,8,6,0,5,6,0,0,0,0,0,0],"split_type":[0,0,0,0,0,0,0,0,0,0,0,0,0],"sum_hessian":[6.4155133E2,3.549223E1,6.060591E2,8.031031E0,2.7461199E1,4.980572E1,5.562534E2,7.023134E0,1.0078962E0,4.511007E1,4.6956506E0,3.9162137E2,1.6463203E2],"tree_param":{"num_deleted":"0","num_feature":"10","num_nodes":"13","size_leaf_vector":"1"}},{"base_weights":[-1.5984036E-2,-1.2847336E-1,1.1395597E-1,-2.7881965E-1,-9.426691E-2,2.3326036E-1,-1.0809099E-1,3.1428713E-1,-6.1025057E-2,-1.2803024E-1,1.5425833E-1,2.1459696E-1,-9.8605044E-2],"categories":[],"categories_nodes":[],"categories_segments":[],"categories_sizes":[],"default_left":[1,0,0,0,0,0,0,0,0,0,0,0,0],"id":81,"left_children":[1,3,5,-1,7,9,11,-1,-1,-1,-1,-1,-1],"loss_changes":[3.1941364E0,1.6599143E0,2.7131057E0,0E0,2.27428E0,2.5216014E0,1.8108604E0,0E0,0E0,0E0,0E0,0E0,0E0],"parents":[2147483647,0,0,1,1,2,2,4,4,5,5,6,6],"right_children":[2,4,6,-1,8,10,12,-1,-1,-1,-1,-1,-1],"split_conditions":[-1.8137244E4,-2.2586477E4,-3.1281256E4,-2.7881965E-1,-1.4656895E5,-2.259E3,-4.450048E4,3.1428713E-1,-6.1025057E-2,-1.2803024E-1,1.5425833E-1,2.1459696E-1,-9.8605044E-2],"split_indices":[7,5,9,0,3,4,3,0,0,0,0,0,0],"split_type":[0,0,0,0,0,0,0,0,0,0,0,0,0],"sum_hessian":[2.1651256E2,1.16096146E2,1.0041642E2,7.419096E0,1.0867705E2,6.53167E1,3.5099712E1,3.2088037E0,1.0546825E2,8.368545E0,5.6948162E1,4.434805E0,3.0664906E1],"tree_param":{"num_deleted":"0","num_feature":"10","num_nodes":"13","size_leaf_vector":"1"}},{"base_weights":[-6.0336693E-4,-4.781861E-1,4.5732263E-2,-1.9182967E-1,-2.4821496E-1,3.6669135E-1,-1.1877705E-2,-2.4168278E-1,5.3823058E-2,1.9398709E-1,-1.3130224E-1,1.0244023E-2,-2.2957069E-1],"categories":[],"categories_nodes":[],"categories_segments":[],"categories_sizes":[],"default_left":[1,0,0,0,0,0,0,0,0,0,0,0,0],"id":82,"left_children":[1,3,5,7,-1,9,11,-1,-1,-1,-1,-1,-1],"loss_changes":[1.2304371E1,1.5479946E-1,9.376386E0,4.5810705E-1,0E0,1.1365728E0,6.2457914E0,0E0,0E0,0E0,0E0,0E0,0E0],"parents":[2147483647,0,0,1,1,2,2,3,3,5,5,6,6],"right_children":[2,4,6,8,-1,10,12,-1,-1,-1,-1,-1,-1],"split_conditions":[-2.373E3,-2.373E3,-2.421E3,-5.0684723E4,-2.4821496E-1,1.368E3,5.62875E2,-2.4168278E-1,5.3823058E-2,1.9398709E-1,-1.3130224E-1,1.0244023E-2,-2.2957069E-1],"split_indices":[2,2,4,9,0,2,4,0,0,0,0,0,0],"split_type":[0,0,0,0,0,0,0,0,0,0,0,0,0],"sum_hessian":[5.5384314E2,4.817701E1,5.056661E2,3.6080277E0,4.456898E1,7.616134E1,4.2950476E2,1.5340257E0,2.074002E0,7.405613E1,2.1052117E0,4.013904E2,2.8114351E1],"tree_param":{"num_deleted":"0","num_feature":"10","num_nodes":"13","size_leaf_vector":"1"}},{"base_weights":[-4.864559E-1],"categories":[],"categories_nodes":[],"categories_segments":[],"categories_sizes":[],"default_left":[0],"id":83,"left_children":[-1],"loss_changes":[0E0],"parents":[2147483647],"right_children":[-1],"split_conditions":[-2.4322794E-1],"split_indices":[0],"split_type":[0],"sum_hessian":[3.282692E1],"tree_param":{"num_deleted":"0","num_feature":"10","num_nodes":"1","size_leaf_vector":"1"}},{"base_weights":[-1.3192843E-3,-6.470465E-2,2.1015207E-1,6.7106985E-2,-1.7064883E-1,1.5432386E-1,5.244934E-1,-5.6411147E-2,1.2865058E-1,-1.1913047E-1,6.387505E-2,1.1604451E-1,-5.2131142E-2,-9.759211E-3,3.610945E-1],"categories":[],"categories_nodes":[],"categories_segments":[],"categories_sizes":[],"default_left":[1,0,0,0,0,0,0,0,0,0,0,0,0,0,0],"id":84,"left_children":[1,3,5,7,9,11,13,-1,-1,-1,-1,-1,-1,-1,-1],"loss_changes":[6.117256E0,4.9172807E0,1.7590413E0,5.4095263E0,3.9666524E0,1.8515158E0,1.6803122E0,0E0,0E0,0E0,0E0,0E0,0E0,0E0,0E0],"parents":[2147483647,0,0,1,1,2,2,3,3,4,4,5,5,6,6],"right_children":[2,4,6,8,10,12,14,-1,-1,-1,-1,-1,-1,-1,-1],"split_conditions":[-1.2043962E4,-1.7310527E4,-3.61E2,-2.42705E4,-1.212039E4,-1.2456666E3,1E0,-5.6411147E-2,1.2865058E-1,-1.1913047E-1,6.387505E-2,1.1604451E-1,-5.2131142E-2,-9.759211E-3,3.610945E-1],"split_indices":[8,5,6,7,5,6,0,0,0,0,0,0,0,0,0],"split_type":[0,0,0,0,0,0,0,0,0,0,0,0,0,0,0],"sum_hessian":[4.54463E2,3.5022858E2,1.0423444E2,1.5618341E2,1.9404515E2,8.980711E1,1.4427329E1,8.04395E1,7.574391E1,1.583914E2,3.5653744E1,6.915202E1,2.065509E1,4.072221E0,1.0355108E1],"tree_param":{"num_deleted":"0","num_feature":"10","num_nodes":"15","size_leaf_vector":"1"}},{"base_weights":[1.2267221E-2,1.8899567E-2,-4.770189E-1,2.9717157E-2,-2.50576E-1,9.766126E-2,-2.7170414E-1,1.9778881E-2,-1.3392198E-1,-3.465969E-2,-2.1575347E-1],"categories":[],"categories_nodes":[],"categories_segments":[],"categories_sizes":[],"default_left":[1,0,0,0,0,0,0,0,0,0,0],"id":85,"left_children":[1,3,5,7,9,-1,-1,-1,-1,-1,-1],"loss_changes":[3.4864178E0,3.0941226E0,7.5095534E-1,2.9940588E0,1.3085339E0,0E0,0E0,0E0,0E0,0E0,0E0],"parents":[2147483647,0,0,1,1,2,2,3,3,4,4],"right_children":[2,4,6,8,10,-1,-1,-1,-1,-1,-1],"split_conditions":[1.044E3,1.4045442E3,-3.3027E4,2.35E2,-1.8205334E4,9.766126E-2,-2.7170414E-1,1.9778881E-2,-1.3392198E-1,-3.465969E-2,-2.1575347E-1],"split_indices":[2,1,7,6,7,0,0,0,0,0,0],"split_type":[0,0,0,0,0,0,0,0,0,0,0],"sum_hessian":[1.0719922E3,1.0586243E3,1.3368E1,1.01865894E3,3.996531E1,1.0133057E0,1.2354694E1,9.8692126E2,3.1737677E1,2.0683239E1,1.9282072E1],"tree_param":{"num_deleted":"0","num_feature":"10","num_nodes":"11","size_leaf_vector":"1"}},{"base_weights":[-1.8291207E-2,-1.2841366E-1,7.751484E-2,-1.7449306E-2,-4.844178E-1,1.9417882E-1,-1.8293428E-1,1.86357E-2,-1.6208774E-1,-4.6642177E-2,-2.563668E-1,1.2870318E-1,-7.123876E-2,-1.5996556E-1,8.150838E-2],"categories":[],"categories_nodes":[],"categories_segments":[],"categories_sizes":[],"default_left":[0,0,0,1,0,0,0,0,0,0,0,0,0,0,0],"id":86,"left_children":[1,3,5,7,9,11,13,-1,-1,-1,-1,-1,-1,-1,-1],"loss_changes":[6.566536E0,1.1423945E1,1.01501465E1,3.737476E0,7.074299E-1,4.9423285E0,4.9574966E0,0E0,0E0,0E0,0E0,0E0,0E0,0E0,0E0],"parents":[2147483647,0,0,1,1,2,2,3,3,4,4,5,5,6,6],"right_children":[2,4,6,8,10,12,14,-1,-1,-1,-1,-1,-1,-1,-1],"split_conditions":[-1.558E3,-1.68E3,-4.52E2,-1.811E3,-2.2031E4,-1.2043962E4,2.35E2,1.86357E-2,-1.6208774E-1,-4.6642177E-2,-2.563668E-1,1.2870318E-1,-7.123876E-2,-1.5996556E-1,8.150838E-2],"split_indices":[6,4,4,2,5,8,6,0,0,0,0,0,0,0,0],"split_type":[0,0,0,0,0,0,0,0,0,0,0,0,0,0,0],"sum_hessian":[6.2040533E2,2.885272E2,3.3187814E2,2.2078648E2,6.774072E1,2.2941032E2,1.0246781E2,1.8807867E2,3.2707813E1,4.886722E0,6.2854E1,1.9336035E2,3.6049965E1,7.347556E1,2.899225E1],"tree_param":{"num_deleted":"0","num_feature":"10","num_nodes":"15","size_leaf_vector":"1"}},{"base_weights":[7.6971063E-3,-4.0162715E-1,1.7555726E-1,-2.46177E-1,-2.071085E-1,2.2014152E-1,-1.5061294E-1,2.5225586E-1,-1.8614376E-1,-1.7052828E-1,1.2562299E-1,-1.7979048E-1,1.4117923E-1],"categories":[],"categories_nodes":[],"categories_segments":[],"categories_sizes":[],"default_left":[0,0,0,0,0,0,0,0,0,0,0,0,0],"id":87,"left_children":[1,3,5,-1,7,9,11,-1,-1,-1,-1,-1,-1],"loss_changes":[1.4451282E1,9.704952E-1,2.2030306E0,0E0,2.680322E0,2.3830423E0,1.7765301E0,0E0,0E0,0E0,0E0,0E0,0E0],"parents":[2147483647,0,0,1,1,2,2,4,4,5,5,6,6],"right_children":[2,4,6,-1,8,10,12,-1,-1,-1,-1,-1,-1],"split_conditions":[-6.8873945E3,-1.4384307E4,-1.781E3,-2.46177E-1,-7.40289E4,-2.218555E4,8.792141E2,2.5225586E-1,-1.8614376E-1,-1.7052828E-1,1.2562299E-1,-1.7979048E-1,1.4117923E-1],"split_indices":[1,1,6,0,3,5,1,0,0,0,0,0,0],"split_type":[0,0,0,0,0,0,0,0,0,0,0,0,0],"sum_hessian":[2.083319E2,6.016596E1,1.4816592E2,3.995003E1,2.0215927E1,1.3066151E2,1.7504417E1,3.410033E0,1.6805893E1,6.321437E0,1.2434008E2,1.1936177E1,5.56824E0],"tree_param":{"num_deleted":"0","num_feature":"10","num_nodes":"13","size_leaf_vector":"1"}},{"base_weights":[-5.500722E-2,-2.3302784E-2,-2.4587476E-1,1.8163332E-1,-8.066885E-2,1.3217519E-1,-8.010709E-2,-2.0758663E-1,-2.0900492E-2],"categories":[],"categories_nodes":[],"categories_segments":[],"categories_sizes":[],"default_left":[0,0,0,0,0,0,0,0,0],"id":88,"left_children":[1,3,-1,5,7,-1,-1,-1,-1],"loss_changes":[7.3089447E0,5.824977E0,0E0,3.1079245E0,5.0088196E0,0E0,0E0,0E0,0E0],"parents":[2147483647,0,0,1,1,3,3,4,4],"right_children":[2,4,-1,6,8,-1,-1,-1,-1],"split_conditions":[6.088E3,-2.2701428E3,-2.4587476E-1,-1.699E3,-1.943E3,1.3217519E-1,-8.010709E-2,-2.0758663E-1,-2.0900492E-2],"split_indices":[2,4,0,6,2,0,0,0,0],"split_type":[0,0,0,0,0,0,0,0,0],"sum_hessian":[5.2804816E2,4.9331332E2,3.473484E1,1.0737683E2,3.859365E2,8.666291E1,2.0713924E1,3.914116E1,3.4679535E2],"tree_param":{"num_deleted":"0","num_feature":"10","num_nodes":"9","size_leaf_vector":"1"}},{"base_weights":[-4.4435892E-1,-2.4042323E-1,1.1116863E-1],"categories":[],"categories_nodes":[],"categories_segments":[],"categories_sizes":[],"default_left":[0,0,0],"id":89,"left_children":[1,-1,-1],"loss_changes":[7.44462E-1,0E0,0E0],"parents":[2147483647,0,0],"right_children":[2,-1,-1],"split_conditions":[-1.1230405E4,-2.4042323E-1,1.1116863E-1],"split_indices":[5,0,0],"split_type":[0,0,0],"sum_hessian":[2.5102291E1,2.4078274E1,1.0240159E0],"tree_param":{"num_deleted":"0","num_feature":"10","num_nodes":"3","size_leaf_vector":"1"}},{"base_weights":[1.782528E-2,-2.4017073E-1,4.505761E-2,9.410068E-2,-1.6032612E-1,-3.3429638E-2,8.9107886E-2,-1.1628944E-1,1.8917876E-1],"categories":[],"categories_nodes":[],"categories_segments":[],"categories_sizes":[],"default_left":[0,0,0,1,0,0,0,0,0],"id":90,"left_children":[1,-1,3,5,7,-1,-1,-1,-1],"loss_changes":[6.1483116E0,0E0,4.3400335E0,4.7156105E0,3.321265E0,0E0,0E0,0E0,0E0],"parents":[2147483647,0,0,2,2,3,3,4,4],"right_children":[2,-1,4,6,8,-1,-1,-1,-1],"split_conditions":[-3.3791754E4,-2.4017073E-1,-5.4130493E3,-1.553005E4,3.1106266E4,-3.3429638E-2,8.9107886E-2,-1.1628944E-1,1.8917876E-1],"split_indices":[3,0,1,8,3,0,0,0,0],"split_type":[0,0,0,0,0,0,0,0,0],"sum_hessian":[4.509322E2,2.249114E1,4.2844104E2,3.4633185E2,8.210921E1,1.1889824E2,2.2743361E2,7.2915924E1,9.193282E0],"tree_param":{"num_deleted":"0","num_feature":"10","num_nodes":"9","size_leaf_vector":"1"}},{"base_weights":[-2.8980486E-3,-5.7798576E-2,1.1124232E-1,7.105453E-2,-1.3456602E-1,1.2939513E-1,-3.4757125E-1,4.5598242E-2,-2.6197043E-1,-1.0509064E-1,-2.817987E-2,1.3467092E-2,1.1937348E-1,-2.578405E-1,2.5392923E-1],"categories":[],"categories_nodes":[],"categories_segments":[],"categories_sizes":[],"default_left":[1,0,0,0,0,0,0,0,0,0,0,0,0,0,0],"id":91,"left_children":[1,3,5,7,9,11,13,-1,-1,-1,-1,-1,-1,-1,-1],"loss_changes":[6.4579234E0,6.8943067E0,2.8302755E0,3.1645913E0,2.566844E0,3.6064696E0,2.1297164E0,0E0,0E0,0E0,0E0,0E0,0E0,0E0,0E0],"parents":[2147483647,0,0,1,1,2,2,3,3,4,4,5,5,6,6],"right_children":[2,4,6,8,10,12,14,-1,-1,-1,-1,-1,-1,-1,-1],"split_conditions":[-4.52E2,-4.1135215E4,6.67875E2,-5.323333E2,-1.5620207E4,-1.969E3,-1.4027803E4,4.5598242E-2,-2.6197043E-1,-1.0509064E-1,-2.817987E-2,1.3467092E-2,1.1937348E-1,-2.578405E-1,2.5392923E-1],"split_indices":[4,9,6,6,5,6,5,0,0,0,0,0,0,0,0],"split_type":[0,0,0,0,0,0,0,0,0,0,0,0,0,0,0],"sum_hessian":[1.0286283E3,6.949464E2,3.3368195E2,2.5943402E2,4.3551236E2,3.2169403E2,1.198794E1,2.5177443E2,7.6596045E0,2.2050113E2,2.1501122E2,1.6677048E2,1.5492354E2,1.0360703E1,1.6272371E0],"tree_param":{"num_deleted":"0","num_feature":"10","num_nodes":"15","size_leaf_vector":"1"}},{"base_weights":[5.113207E-3,2.4774428E-2,-4.7467628E-1,-1.627071E-2,3.188397E-1,-5.5052924E-1,2.1441606E-1,2.3858035E-2,-1.4978091E-1,1.888448E-1,-2.0451888E-1,-2.915671E-1,2.6760388E-2],"categories":[],"categories_nodes":[],"categories_segments":[],"categories_sizes":[],"default_left":[0,0,0,1,0,0,0,0,0,0,0,0,0],"id":92,"left_children":[1,3,5,7,9,11,-1,-1,-1,-1,-1,-1,-1],"loss_changes":[5.533246E0,6.812152E0,1.8197446E0,9.000243E0,3.1150875E0,4.6486616E-1,0E0,0E0,0E0,0E0,0E0,0E0,0E0],"parents":[2147483647,0,0,1,1,2,2,3,3,4,4,5,5],"right_children":[2,4,6,8,10,12,-1,-1,-1,-1,-1,-1,-1],"split_conditions":[8.21E2,-2.79E2,1.032E3,-1.524E3,-1.54767E4,-3.8983345E3,2.1441606E-1,2.3858035E-2,-1.4978091E-1,1.888448E-1,-2.0451888E-1,-2.915671E-1,2.6760388E-2],"split_indices":[4,6,6,2,7,1,0,0,0,0,0,0,0],"split_type":[0,0,0,0,0,0,0,0,0,0,0,0,0],"sum_hessian":[5.847988E2,5.6270886E2,2.2089958E1,4.9458606E2,6.8122826E1,