tree
version=v4
num_class=1
num_tree_per_iteration=1
label_index=0
max_feature_idx=14
objective=regression
feature_names=is_weekend surplus surplus_lag_1 surplus_lag_2 surplus_lag_3 is_holiday series_id_DE series_id_DK series_id_HU series_id_IT series_id_NE series_id_PO series_id_SE series_id_SP series_id_UK
feature_infos=[0:1] [-217808.27148197824:116767.27841671184] [-216954.35038954369:116767.27841671184] [-217808.27148197824:116767.27841671184] [-217808.27148197824:116200.19950914639] [0:1] [0:1] [0:1] [0:1] [0:1] [0:1] [0:1] [0:1] [0:1] [0:1]
tree_sizes=4593 4566 4541 4569 4558 4551 4560 4568 4565 4565 4588 4577 4572 4570 4576 4570 4554 4582 4580 4570 4581 4571 4583 4578 4580 4566 4560 4581 4595 4565 4560 4545 4565 4577 4554 4565 4570 4560 4555 4576 4571 4583 4564 4564 4559 4568 4576 4559 4590 4568 4565 4543 4574 4554 4566 4548 4555 4574 4589 4556 4570 4569 4547 4572 4584 4571 4576 4552 4526 4579 4558 4543 4578 4565 4508 4556 4555 4562 4573 4543 4551 4576 4554 4532 4578 4539 4549 4578 4567 4493 4562 4552 4556 4538 4509 4569 4533 4522 4513 4528 4560 4513 4471 4571 4481 4517 4520 4478 4466 4541 4472 4460 4502 4533 4422 4580 4445 4496 4525 4538 4500 4415 4594 4481 4491 4456 4479 4423 4582 4416 4594 4427 4483 4619 4458 4498 4486 4419 4579 4475 4437 4411 4576 4570 4382 4401 4574 4413 4463 4416 4481 4522 4376 4449 4420 4591 4432 4506 4439 4466 4344 4422 4376 4472 4420 4347 4433 4430 4468 4588 4394 4419 4478 4408 4644 4338 4539 4364 4532 4395 4398 4514 4406 4553 4389 4456 4546 4454 4395 4403 4374 4412 4462 4505 4430 4495 4417 4489 4440 4508 4489 4415 4373 4426 4417 4398 4389 4572 4518 4469 4537 4403 4426 4352 4577 4507 4416 4427 4565 4379 4393 4509 4455 4389 4393 4483 4515 4539 4369 4411 4432 4542 4511 4449 4399 4428 4417 4426 4494 4511 4428 4411 4604 4487 4438 4584 4471 4389 4543 4488 4389 4451 4429 4351 4541 4549 4370 4476 4440 4402 4379 4489 4494 4522 4418 4412 4421 4452 4449 4410 4353 4526 4512 4481 4400 4548 4521 4394 4472 4448 4493 4385 4374 4380 4409 4430 4509 4497 4428 4437 4422 4415 4397 4472 4429 4424 4508 4412 4498 4353 4569 4493 4446 4492 4495 4506 4420 4421 4454 4392 4448 4388 4468 4374 4490 4482 4460 4411 4461 4412 4427 4381 4352 4412 4432 4520 4502 4377 4389 4398 4474 4420 4497 4478 4437 4484 4433 4369 4473 4410 4481 4412 4439 4387 4405 4422 4448 4420 4380 4371 4395 4393 4395 4443 4497 4382 4435 4510 4516 4519 4477 4429 4522 4469 4473 4387 4411 4452 4446 4399 4431 4422 4405 4403 4435 4421 4431 4410 4424 4416 4390 4474 4415 4416 4444 4448 4425 4410 4437 4472 4480 4472 4409 4364 4456 4434 4442 4428 4416 4464 4370 4449 4422 4413 4444 4457 4427 4437 4466 4416 4396 4553 4419 4389 4497 4383 4415 4446 4463 4515 4471 4425 4471 4378 4398 4437 4435 4424 4526 4479 4417 4470 4417 4441 4407 4449 4444 4408 4388 4352 4526 4444 4443 4410 4373 4505 4456 4486 4407 4453 4404 4407 4408 4475 4450 4436 4479 4428 4412 4505 4475 4414 4404 4452 4444 4376 4447 4448 4379 4444 4467 4467 4443 4440 4419 4395 4478 4493 4391 4434 4465 4516 4531 4454 4408 4445 4384 4437 4423 4384 4451 4398 4417 4479 4383 4369 4414 4368 4469 4481

Tree=0
num_leaves=50
num_cat=0
split_feature=1 1 1 1 1 1 1 1 1 1 1 1 1 1 1 1 1 3 2 2 2 1 1 2 1 2 3 1 1 2 3 2 2 1 1 1 1 3 1 1 1 2 2 2 2 0 2 2 2
split_gain=2.6622e+13 6.84316e+12 5.70905e+12 3.2226e+12 1.32772e+12 1.25657e+12 9.50197e+11 3.03334e+11 2.47396e+11 2.25554e+11 1.61548e+11 1.60222e+11 1.59861e+11 1.46312e+11 9.76728e+10 8.78202e+10 4.157e+10 3.9929e+10 3.68416e+10 3.37572e+10 3.21114e+10 2.83684e+10 2.61707e+10 2.58315e+10 2.30601e+10 2.32379e+10 2.29764e+10 2.29747e+10 2.2833e+10 2.22388e+10 2.08179e+10 2.03552e+10 1.96604e+10 1.88715e+10 1.74511e+10 1.64974e+10 1.58817e+10 1.56482e+10 2.25136e+10 1.55525e+10 1.51293e+10 1.35659e+10 1.3175e+10 1.20515e+10 1.14136e+10 1.10799e+10 1.09649e+10 1.08587e+10 1.06457e+10
threshold=-36433.937519424937 -86627.299434947607 -9681.27703740791 36083.790274250154 -56862.264257184383 -128804.42266202447 -23177.409090909088 11629.033551681905 -154128.82239003477 75554.770565195082 -16493.911811800572 -67475.679199921506 -46750.383739834746 -106929.4106578552 -29022.912578616349 -3739.9999999999995 53515.39783396593 -69753.068981560078 -40670.985124265288 -50986.823550696005 -29870.499999999996 -19415.103395176247 -41187.23277707502 -21382.2207029819 -98358.653357852207 -79439.998255018596 53688.91140299815 -676.49999999999989 -13318.333544980951 -18638.550324675321 75706.320884582834 1540.0000000000002 -2707.5769230769224 -76542.708234768157 -115473.29103050711 -51918.997401350585 -73985.40713926639 36142.004851459722 22527.299092491641 -62268.078152757269 -32949.199263369315 -1891.6071428571429 22247.07859364746 -11070.681271904394 -51918.479903764499 1.0000000180025095e-35 -62319.252019619409 11422.524346479813 -98321.768085956428
decision_type=2 2 2 2 2 2 2 2 2 2 2 2 2 2 2 2 2 2 2 2 2 2 2 2 2 2 2 2 2 2 2 2 2 2 2 2 2 2 2 2 2 2 2 2 2 2 2 2 2
left_child=1 5 6 7 11 8 14 15 45 16 21 17 18 34 23 31 26 33 35 39 22 43 44 40 48 -26 -5 -17 -12 -16 -18 -4 -29 -3 -7 -6 46 38 47 -13 -2 -30 -34 -8 -14 -1 -19 -9 -15
right_child=2 4 3 9 12 13 10 37 -10 -11 28 19 20 24 29 27 30 36 -20 -21 -22 -23 -24 -25 25 -27 -28 32 41 -31 -32 -33 42 -35 -36 -37 -38 -39 -40 -41 -42 -43 -44 -45 -46 -47 -48 -49 -50
leaf_value=-29276.643005390633 -21791.705011718663 -23835.827423874667 -20370.730099936976 -17687.922344938954 -22732.216475915789 -26099.233840396661 -21119.985653297455 -18803.226974750691 -26972.508417095803 -15683.47754458191 -20826.301583968958 -23242.786367035806 -21753.380851435377 -24871.784551065011 -21348.552622447947 -20170.725765183433 -16811.015392103967 -24152.633757417185 -23322.528093471497 -23750.732450446001 -22918.720293664035 -20968.511859019472 -21996.197003234418 -22544.129573502341 -24370.675685593036 -25182.481276177466 -18831.297811473225 -19458.490188364121 -20664.648540256145 -22088.360432114074 -17913.935700548125 -21439.532693549427 -20053.520135595736 -23416.747352879283 -25523.238401649036 -22467.652052577847 -23841.120695122776 -19485.521552841106 -18389.737537756704 -22932.252246899738 -21598.560765386577 -21578.910814150637 -20903.569914018732 -22124.998374159237 -22260.214140275111 -28363.458033363964 -24768.03854976916 -19485.952928478757 -25529.715886847905
leaf_weight=224 1804 496 4427 204 983 263 5230 118 263 260 6576 719 117 165 4368 12105 206 304 176 204 128 6315 2294 89 414 112 56 139 3904 104 54 45 5025 586 263 1471 360 112 175 918 2315 41 46 30 2195 39 95 115 98
leaf_count=224 1804 496 4427 204 983 263 5230 118 263 260 6576 719 117 165 4368 12105 206 304 176 204 128 6315 2294 89 414 112 56 139 3904 104 54 45 5025 586 263 1471 360 112 175 918 2315 41 46 30 2195 39 95 115 98
internal_value=-21127.8 -23169.2 -20639.3 -20045 -22698.8 -25991.5 -21085.2 -20155.5 -28056.9 -16885.9 -20911.1 -23474.1 -22311.2 -25165.3 -21528.5 -20184 -17487.1 -23803.9 -22623.7 -23144.2 -22137.6 -21040 -22115.8 -21701.4 -24734.7 -24543.5 -17934.2 -20132.9 -20769.3 -21365.8 -17040.1 -20381.5 -20045.2 -23608.9 -25811.2 -22573.6 -24081.9 -18962 -18818.3 -23068.6 -21683.2 -20674.2 -20061.2 -21125.7 -22234.6 -29141.2 -24299.2 -19140.2 -25116.9
internal_weight=0 12887 53863 23087 11046 1841 30776 22307 526 780 22096 3682 7364 1315 8680 21787 520 1841 2630 1841 4734 11575 4606 4208 789 526 260 17315 10521 4472 260 4472 5210 1082 526 2454 759 520 408 1637 4119 3945 5071 5260 2312 263 399 233 263
internal_count=66750 12887 53863 23087 11046 1841 30776 22307 526 780 22096 3682 7364 1315 8680 21787 520 1841 2630 1841 4734 11575 4606 4208 789 526 260 17315 10521 4472 260 4472 5210 1082 526 2454 759 520 408 1637 4119 3945 5071 5260 2312 263 399 233 263
is_linear=0
shrinkage=1


Tree=1
num_leaves=50
num_cat=0
split_feature=1 1 1 1 1 1 1 1 1 1 1 1 1 1 1 2 1 1 3 2 2 1 1 1 2 1 1 1 3 2 1 3 2 2 1 2 1 1 3 1 2 2 2 2 2 2 2 1 0
split_gain=2.40269e+13 6.09321e+12 5.24103e+12 2.90839e+12 1.34174e+12 9.49293e+11 9.09681e+11 2.73759e+11 2.33248e+11 2.03562e+11 1.75235e+11 1.62178e+11 1.51899e+11 8.99065e+10 7.94038e+10 3.79916e+10 3.75169e+10 3.62022e+10 3.27286e+10 3.24853e+10 2.80126e+10 2.63439e+10 2.54511e+10 2.45267e+10 2.3706e+10 2.36547e+10 2.31152e+10 2.1585e+10 2.07362e+10 2.04636e+10 1.89799e+10 1.87881e+10 1.83223e+10 1.82281e+10 1.63753e+10 1.50491e+10 1.55164e+10 1.44734e+10 1.41225e+10 2.03186e+10 1.34725e+10 1.197e+10 1.17221e+10 1.13012e+10 1.04672e+10 1.0432e+10 1.03446e+10 1.02388e+10 9.99958e+09
threshold=-36934.279166823006 -91975.864191515589 -9681.27703740791 36083.790274250154 -58068.067629424491 -154128.82239003477 -23446.193004702436 11629.033551681905 -115473.29103050711 75554.770565195082 -71858.709302918855 -47488.015849668293 -16994.760111028569 -29432.999999999996 -3915.6111111111118 -40670.985124265288 53515.39783396593 -128804.42266202447 -69753.068981560078 -55379.991798825817 -31495.628502688927 -98358.653357852207 -13634.447619047618 -42260.273546622571 -23740.173913043476 -64119.52267974936 -20004.894736842103 -913.05555555555554 53688.91140299815 -18638.550324675321 -79439.998255018596 75706.320884582834 1540.0000000000002 -3569.4999999999995 -51918.997401350585 -42832.322829357909 -32949.199263369315 -82750.596335826704 36142.004851459722 22527.299092491641 -5209.2777777777774 -86563.779661728753 22247.07859364746 -11348.475946275945 -55379.991798825817 -64141.830508931336 -69687.759054503113 -25843.661753374614 1.0000000180025095e-35
decision_type=2 2 2 2 2 2 2 2 2 2 2 2 2 2 2 2 2 2 2 2 2 2 2 2 2 2 2 2 2 2 2 2 2 2 2 2 2 2 2 2 2 2 2 2 2 2 2 2 2
left_child=1 5 6 7 10 48 13 14 17 16 18 15 26 24 32 34 28 -7 30 25 23 -10 -14 44 35 -12 43 -16 -5 47 -3 -18 -4 -29 45 -2 -37 -20 39 -9 -24 -23 -35 -8 -13 -6 -27 -15 -1
right_child=2 4 3 9 11 8 12 38 21 -11 19 20 22 29 27 -17 31 -19 37 -21 -22 41 40 -25 -26 46 -28 33 -30 -31 -32 -33 -34 42 -36 36 -38 -39 -40 -41 -42 -43 -44 -45 -46 -47 -48 -49 -50
leaf_value=-7741.4355329241071 -27.945348803202315 -2751.6030750787081 712.12032839112214 3267.849315448836 -1081.6452063444619 -5552.507565945818 -13.110112041712666 1888.1905153986722 -3982.7117243197481 5172.071754056491 -2116.6602540625836 -540.49660483670527 269.43360433650668 -300.03807672753959 903.48549533323592 -2197.1132846966916 4100.9108332069181 -4722.8966804301335 -3421.901238976227 -2481.938596439933 -1636.9358171186921 -3152.7943054855514 431.92523265034163 -857.66247441783753 -1290.8821829501067 -1346.2283603295348 129.04676977238435 1635.673373775159 2181.6425650460383 -934.31625209445053 -2311.448996587445 3053.136615668403 -325.30450875038326 1014.2962374733352 -1295.3583336359889 -664.83524845954776 -466.95092185300268 -2868.2540746385807 1560.1300607136318 2601.1248197544646 -316.26437988281253 -3894.0937550730523 212.98412747590439 -1003.3616862329944 -1113.7347754266743 -1598.3483323585117 -1827.2598939732143 -146.63898715201699 -6873.9098657852564
leaf_weight=224 135 536 4165 204 107 263 4442 233 526 260 937 83 7102 2315 11589 170 206 263 163 334 159 186 4410 2528 110 133 6315 118 56 105 451 54 43 5826 1231 1959 2004 428 112 175 61 77 46 29 1964 1122 700 2052 39
leaf_count=224 135 536 4165 204 107 263 4442 233 526 260 937 83 7102 2315 11589 170 206 263 163 334 159 186 4410 2528 110 133 6315 118 56 105 451 54 43 5826 1231 1959 2004 428 112 175 61 77 46 29 1964 1122 700 2052 39
internal_value=0 -1964.25 458.13 1028.62 -1549.06 -4870.57 33.7984 923.677 -4322.13 4029.76 -2328.39 -1159.4 202.452 -400.639 896.616 -1474.21 3458.6 -5137.7 -2726.68 -2029.66 -984.512 -3778.42 328.265 -961.838 -566.528 -1944.32 67.4576 943.318 3033.9 -244.543 -2550.48 3883.3 701.519 1020.38 -1424.26 -547.085 -564.77 -3020.95 2057.46 2193.98 421.717 -3369.83 1008.02 -19.5331 -1090.49 -1553.36 -1750.46 -227.958 -7612.79
internal_weight=0 12624 54126 23087 11046 1578 31039 22307 1315 780 3682 7364 22359 8680 21787 2630 520 526 1578 2104 4734 789 11573 4575 4208 1770 10786 17579 260 4472 987 260 4208 5990 2460 4098 3963 591 520 408 4471 263 5872 4471 2047 1229 833 4367 263
internal_count=66750 12624 54126 23087 11046 1578 31039 22307 1315 780 3682 7364 22359 8680 21787 2630 520 526 1578 2104 4734 789 11573 4575 4208 1770 10786 17579 260 4472 987 260 4208 5990 2460 4098 3963 591 520 408 4471 263 5872 4471 2047 1229 833 4367 263
is_linear=0
shrinkage=0.05


Tree=2
num_leaves=50
num_cat=0
split_feature=1 1 1 1 1 1 1 1 1 1 1 1 1 1 1 1 1 2 2 2 2 2 1 1 1 1 1 3 2 1 2 2 1 3 1 1 2 2 1 2 2 2 2 2 1 2 1 2 2
split_gain=2.1687e+13 5.33688e+12 4.89657e+12 2.64221e+12 1.12506e+12 8.8866e+11 8.56737e+11 2.50892e+11 2.10506e+11 1.83715e+11 1.76426e+11 1.3664e+11 1.09002e+11 9.27409e+10 8.41621e+10 3.3859e+10 3.26725e+10 3.2319e+10 3.09648e+10 2.8244e+10 2.62161e+10 2.39241e+10 2.37753e+10 2.34928e+10 2.3059e+10 2.2158e+10 1.97733e+10 1.87144e+10 1.80408e+10 1.78006e+10 1.76343e+10 1.75332e+10 1.72608e+10 1.69563e+10 1.6481e+10 1.62954e+10 1.30643e+10 1.2884e+10 2.02342e+10 1.22189e+10 1.11529e+10 1.08795e+10 1.0803e+10 1.07491e+10 1.00263e+10 9.7197e+09 9.90047e+09 9.63312e+09 9.50988e+09
threshold=-38020.861881581091 -91975.864191515589 -10394.678571428571 36083.790274250154 -60759.187338658725 -23998.961091846799 -154128.82239003477 11629.033551681905 -115473.29103050711 75554.770565195082 -49285.97122167104 -17581.071428571424 -73985.40713926639 -4531.7499999999991 -29858.085800517387 53515.39783396593 -128804.42266202447 -46001.34274300134 -60799.46325732713 -71920.371022517924 -31965.374363558425 -25843.661753374614 -98358.653357852207 -14743.101260886519 -42833.938413041375 -1227.8179487179493 -20646.634334157101 53688.91140299815 -18638.550324675321 -55432.959272758046 1540.0000000000002 -2707.5769230769224 -82750.596335826704 75706.320884582834 -65760.454384922836 -33394.833333333321 -5810.7517882709717 35954.6969121886 22527.299092491641 -12651.533850151591 11422.524346479813 11422.524346479813 -86563.779661728753 -44603.177168818038 -67475.679199921506 -98321.768085956428 -106929.4106578552 -74053.693047076275 -64141.830508931336
decision_type=2 2 2 2 2 2 2 2 2 2 2 2 2 2 2 2 2 2 2 2 2 2 2 2 2 2 2 2 2 2 2 2 2 2 2 2 2 2 2 2 2 2 2 2 2 2 2 2 2
left_child=1 6 5 7 12 14 -1 13 16 15 17 26 19 30 21 27 -8 29 34 32 24 35 45 -13 -12 -15 39 -5 -16 48 -4 -27 -3 -17 47 43 -25 38 40 -7 -9 -33 -24 -2 -20 46 -10 -14 -6
right_child=2 4 3 9 10 11 8 37 22 -11 20 23 18 25 28 33 -18 -19 44 -21 -22 -23 42 36 -26 31 -28 -29 -30 -31 -32 41 -34 -35 -36 -37 -38 -39 -40 -41 -42 -43 -44 -45 -46 -47 -48 -49 -50
leaf_value=-7232.1513530774719 -117.87968576531662 -2750.3699851271886 635.23970861733119 3104.4568349800861 -1284.7431682975925 -38.411953144099698 -5274.8821946292774 2113.9003186242057 -3874.7056983116113 4913.4682234074526 -1077.3281679238969 221.61165096325863 -1848.0965194847472 844.86234801908449 -241.95660490621106 3895.8652362712378 -4486.7517607830332 -1968.7409617771614 -2806.3198398109248 -3078.1566738414117 -1609.0130650962274 -1189.9861669921875 -2995.1545929939516 366.79077527595484 -852.6977606094099 1493.457039114933 97.253896893062674 2072.5604483468192 -938.89376048037104 -1314.8232812570241 -339.08210907185332 953.21681071454577 -2336.9268026581894 2900.4797869646991 -1714.589611054909 -444.03323436172889 -380.88960312668047 1383.50913196242 2449.1748115899054 -990.3884211820714 1440.0149960994722 460.96858461614238 -3699.3890726461041 -661.06719335208459 -2270.1054286090875 -4123.8682421875001 -3357.6841962594699 -2194.6244612984037 -1674.4835233671174
leaf_weight=263 95 457 3898 204 196 3911 263 118 211 260 2297 6313 315 10801 4114 206 263 321 119 294 164 150 186 5990 2273 149 6052 56 95 1336 47 7304 564 54 529 2020 59 83 191 34 128 114 77 2206 326 150 165 552 777
leaf_count=263 95 457 3898 204 196 3911 263 118 211 260 2297 6313 315 10801 4114 206 263 321 119 294 164 150 186 5990 2273 149 6052 56 95 1336 47 7304 564 54 529 2020 59 83 191 34 128 114 77 2206 326 150 165 552 777
internal_value=0 -1915.54 424.031 966.645 -1508.81 11.236 -4627.05 868.889 -4106.02 3828.27 -1170.31 177.929 -2298.65 843.587 -418.152 3285.67 -4880.82 -1498.65 -2050.3 -2646.33 -987.892 -569.214 -3589.5 289.083 -965.603 890.828 40.48 2882.2 -257.687 -1433.3 623.632 956.439 -2521.98 3689.13 -1934.53 -547.665 359.498 1954.59 2063.05 -46.6166 1763.26 945.652 -3201.34 -638.641 -2413.5 -3783.58 -3647.82 -2068.72 -1595.97
internal_weight=0 12098 54652 23613 10520 31039 1578 22833 1315 780 7364 22359 3156 22313 8680 520 526 2630 1841 1315 4734 4471 789 12362 4570 18368 9997 260 4209 2309 3945 7567 1021 260 1396 4321 6049 520 437 3945 246 7418 263 2301 445 526 376 867 973
internal_count=66750 12098 54652 23613 10520 31039 1578 22833 1315 780 7364 22359 3156 22313 8680 520 526 2630 1841 1315 4734 4471 789 12362 4570 18368 9997 260 4209 2309 3945 7567 1021 260 1396 4321 6049 520 437 3945 246 7418 263 2301 445 526 376 867 973
is_linear=0
shrinkage=0.05


Tree=3
num_leaves=50
num_cat=0
split_feature=1 1 1 1 1 1 1 1 1 1 1 1 1 1 1 1 2 2 1 2 2 1 2 1 1 2 1 2 3 1 1 3 2 2 1 6 1 3 1 2 1 1 2 2 2 2 2 2 2
split_gain=1.95789e+13 5.11362e+12 4.13067e+12 2.35221e+12 1.01142e+12 9.20992e+11 6.84969e+11 2.19304e+11 1.81859e+11 1.65803e+11 1.26721e+11 1.17995e+11 1.08437e+11 1.06707e+11 9.186e+10 5.00858e+10 3.22328e+10 3.06211e+10 3.05578e+10 2.71525e+10 2.5002e+10 2.39203e+10 2.30231e+10 1.92416e+10 1.9186e+10 1.76311e+10 1.79107e+10 1.73431e+10 1.69467e+10 1.609e+10 1.5643e+10 1.5303e+10 1.48904e+10 1.47188e+10 1.33057e+10 1.25092e+10 1.22226e+10 1.17807e+10 1.66523e+10 1.12513e+10 1.20236e+10 1.10963e+10 1.03575e+10 1.01546e+10 1.01168e+10 9.58724e+09 9.55637e+09 9.29153e+09 9.26991e+09
threshold=-35846.566122275195 -86627.299434947607 -8781.8444444444413 36083.790274250154 -56862.264257184383 -128804.42266202447 -22009.349455688385 11629.033551681905 -154128.82239003477 75554.770565195082 -46003.907402191333 -67475.679199921506 -106929.4106578552 -16141.362797348238 -27783.36749181378 -2785.7499999999995 -67626.488517337508 -40670.985124265288 53515.39783396593 -52986.418308766639 -29870.499999999996 -76542.708234768157 -21382.2207029819 -40135.640223889677 -12646.864996316997 -82901.683841785314 -98358.653357852207 -4727.9999999999991 36142.004851459722 -50125.977972664732 -19016.036764705877 75706.320884582834 -16873.651875731182 -1047.7222222222215 -31958.333333333328 1.0000000180025095e-35 -115473.29103050711 36142.004851459722 22527.299092491641 22247.07859364746 1.0000000180025095e-35 -62268.078152757269 1540.0000000000002 -50153.077681105271 -86563.779661728753 -56814.170318433156 -7551.5260215530607 -71920.371022517924 -36961.741673583332
decision_type=2 2 2 2 2 2 2 2 2 2 2 2 2 2 2 2 2 2 2 2 2 2 2 2 2 2 2 2 2 2 2 2 2 2 2 2 2 2 2 2 2 2 2 2 2 2 2 2 2
left_child=1 5 6 7 11 8 14 15 -1 18 17 16 36 30 22 33 21 29 28 41 23 44 34 43 46 26 -14 -17 -5 45 -8 -20 -16 -4 -2 -18 -7 38 -9 40 -29 47 -26 -12 -3 -6 -15 -13 -36
right_child=2 4 3 9 10 12 13 37 -10 -11 20 19 25 24 32 27 35 -19 31 -21 -22 -23 -24 -25 42 -27 -28 39 -30 -31 -32 -33 -34 -35 48 -37 -38 -39 -40 -41 -42 -43 -44 -45 -46 -47 -48 -49 -50
leaf_value=-6870.543736632605 -533.5408623995587 -2102.6115760216348 705.23902678589548 3138.6678479842558 -1118.239110006085 -4262.4142585551335 32.172150405146958 1704.7161851612798 -5011.138067371674 4667.7947971754811 -517.69581304349401 -1438.551452722684 -3312.0747401350636 281.26362686541887 -136.09776668982065 1387.104257318038 -2324.2063058035715 -1856.9297237585088 3701.0721300439927 -2198.8832079521153 -1498.9849302900811 -1980.7578221055328 -1202.2591917661157 -707.99271483179268 430.1048087650139 -3542.2432662609012 -2757.7675842765748 839.40992405093482 2331.3059015791546 -1084.0801861777888 152.38952344185412 2755.4557635271995 -768.11476498257173 42.614611533669866 144.1993022348689 -2881.0450130208337 -3780.3669290636885 1402.6295142199313 2350.1322159598217 111.71679980468751 947.92684371756468 -1532.3576362869367 -460.00912420099434 -939.05322644184673 -2521.4298828125002 -1406.6133854106442 -449.78060689290373 -1891.8864318627311 -380.89953197143655
leaf_weight=263 2068 208 5969 131 393 263 4736 233 263 260 152 142 236 6794 4903 158 161 202 206 263 141 732 101 2029 3386 172 381 11737 129 1217 6313 54 95 85 87 270 263 112 175 50 3262 882 33 2412 470 1081 45 554 2478
leaf_count=263 2068 208 5969 131 393 263 4736 233 263 260 152 142 236 6794 4903 158 161 202 206 263 141 732 101 2029 3386 172 381 11737 129 1217 6313 54 95 85 87 270 263 112 175 50 3262 882 33 2412 470 1081 45 554 2478
internal_value=0 -1728.85 424.149 938.99 -1331.03 -4172.6 49.9323 842.376 -5940.84 3636.85 -1002.49 -2011.58 -3465.31 208.674 -297.613 817.564 -2294.63 -1263.2 3121.38 -1728.53 -843.169 -2178.96 -455.453 -823.036 324.802 -3094.58 -2969.79 865.985 2738.09 -1218.63 100.86 3504.67 -148.111 695.936 -439.173 -2673.04 -4021.39 1856.86 1981.55 860.514 863.01 -1650.14 421.513 -914.074 -2392.94 -1329.73 276.453 -1799.4 -363.089
internal_weight=0 13150 53600 22561 11309 1841 31039 21781 526 780 7627 3682 1315 21307 9732 21261 1841 2893 520 1841 4734 1410 4734 4593 10258 789 617 15207 260 2691 11049 260 4998 6054 4633 431 526 520 408 15049 14999 1578 3419 2564 678 1474 6839 696 2565
internal_count=66750 13150 53600 22561 11309 1841 31039 21781 526 780 7627 3682 1315 21307 9732 21261 1841 2893 520 1841 4734 1410 4734 4593 10258 789 617 15207 260 2691 11049 260 4998 6054 4633 431 526 520 408 15049 14999 1578 3419 2564 678 1474 6839 696 2565
is_linear=0
shrinkage=0.05


Tree=4
num_leaves=50
num_cat=0
split_feature=1 1 1 1 1 1 1 1 1 1 1 1 1 1 1 1 2 1 2 2 2 1 2 1 1 2 3 3 2 1 2 1 3 1 2 3 1 6 3 1 1 1 1 2 2 2 2 2 0
split_gain=1.7671e+13 4.54787e+12 3.79129e+12 2.12287e+12 8.80358e+11 8.31196e+11 6.53515e+11 1.97922e+11 1.64127e+11 1.49637e+11 1.06491e+11 1.06382e+11 1.0048e+11 9.78644e+10 8.60871e+10 4.52286e+10 2.90901e+10 2.75784e+10 2.54955e+10 2.47786e+10 2.23017e+10 2.1588e+10 2.01079e+10 1.8208e+10 1.77304e+10 1.62182e+10 1.61488e+10 1.60083e+10 1.59121e+10 1.61644e+10 1.4363e+10 1.43543e+10 1.3811e+10 1.29906e+10 1.29017e+10 1.16379e+10 1.14995e+10 1.12896e+10 1.10637e+10 1.10309e+10 1.08926e+10 1.04631e+10 1.01722e+10 9.67538e+09 9.28312e+09 9.26475e+09 9.1304e+09 9.12723e+09 9.02461e+09
threshold=-36433.937519424937 -86627.299434947607 -8781.8444444444413 36083.790274250154 -56862.264257184383 -128804.42266202447 -22221.68989040986 11629.033551681905 -154128.82239003477 75554.770565195082 -67475.679199921506 -46750.383739834746 -16250.440543892715 -106929.4106578552 -28216.159612277865 -3300.4999999999995 -67626.488517337508 53515.39783396593 -40670.985124265288 -50986.823550696005 -31495.628502688927 -76542.708234768157 -21382.2207029819 -12274.95657190267 -41696.350403877215 -7551.5260215530607 -9664.757440476189 53688.91140299815 -82901.683841785314 -98358.653357852207 -16633.604556132199 -19016.036764705877 75706.320884582834 -32429.554613394652 793.71176470588273 -72004.043869075613 -50985.717618570205 1.0000000180025095e-35 11580.405955213284 -115473.29103050711 -981.49999999999989 -62268.078152757269 22527.299092491641 -7551.5260215530607 -67626.488517337508 -44603.177168818038 -86563.779661728753 -42832.322829357909 1.0000000180025095e-35
decision_type=2 2 2 2 2 2 2 2 2 2 2 2 2 2 2 2 2 2 2 2 2 2 2 2 2 2 2 2 2 2 2 2 2 2 2 2 2 2 2 2 2 2 2 2 2 2 2 2 2
left_child=1 5 6 7 10 8 14 15 48 17 16 18 25 39 22 34 21 27 35 41 24 46 33 43 47 31 -17 -5 29 -15 -16 -8 -19 45 -4 -6 -37 -18 42 -7 -28 44 -9 -14 -12 -2 -3 -13 -1
right_child=2 4 3 9 11 13 12 38 -10 -11 19 20 23 28 30 26 37 32 -20 -21 -22 -23 -24 -25 -26 -27 40 -29 -30 -31 -32 -33 -34 -35 -36 36 -38 -39 -40 -41 -42 -43 -44 -45 -46 -47 -48 -49 -50
leaf_value=-6649.2286499023439 62.905407571792608 -1997.4810157189004 649.24272313481492 2806.7460032743566 -701.32525010656138 -4049.293555430133 30.875423418662521 1774.9132491262335 -4760.581036864306 4434.4049631911066 -1490.5481737297534 -835.11036404940319 269.86364326038529 -3146.4710275423731 -142.25076611993057 1249.3067416209096 -2207.9959566673137 3516.0183797595573 -1800.3748815363103 -2161.7299359489894 -1383.052280394794 -1881.7199330814551 -1145.548049328374 412.65196646127606 -712.77957473349522 -879.20023164970939 778.53276305835732 1852.3671112060547 -3365.1310546875002 -2619.8792102403218 -786.72935070556332 145.60538115112541 2617.6829915364583 -360.79893764415669 -135.26801772207585 -1314.558980097775 -1092.482693949951 -2736.992789351852 1554.5899375674599 -3591.3485719165874 862.98646594370439 -1465.4782238530179 2463.1715985033889 -435.00056603879352 -1860.7450661697731 -548.23361495124391 -2395.3583531416225 -1058.3120572576606 -5825.0794671474359
leaf_weight=224 64 208 4683 204 122 263 4976 152 263 260 273 1347 7579 236 4910 212 161 206 176 204 171 732 102 2893 2522 43 10217 56 172 381 88 6030 54 2569 53 1153 1179 270 285 263 6096 918 83 49 446 1999 470 694 39
leaf_count=224 64 208 4683 204 122 263 4976 152 263 260 273 1347 7579 236 4910 212 161 206 176 204 171 732 102 2893 2522 43 10217 56 172 381 88 6030 54 2569 53 1153 1179 270 285 263 6096 918 83 49 446 1999 470 694 39
internal_value=0 -1663.2 397.928 892.04 -1279.73 -3963.97 41.796 800.258 -5643.8 3455.01 -1911 -964.102 195.253 -3292.04 -298.327 776.686 -2179.9 2965.31 -1219.07 -1642.1 -822.453 -2070.01 -451.126 305.844 -801.445 89.9476 815.727 2601.19 -2939.85 -2821.3 -153.598 93.734 3329.44 -435.835 640.463 -1177.38 -1202.28 -2539.39 1764.02 -3820.32 810.092 -1577.35 2018 265.336 -1720.18 -529.274 -2273.3 -911.006 -6527.02
internal_weight=0 12887 53863 22561 11046 1841 31302 21781 526 780 3682 7364 21570 1315 9732 21261 1841 520 2630 1841 4734 1410 4734 10521 4563 11049 16525 260 789 617 4998 11006 260 4632 4736 2454 2332 431 520 526 16313 1637 235 7628 719 2063 678 2041 263
internal_count=66750 12887 53863 22561 11046 1841 31302 21781 526 780 3682 7364 21570 1315 9732 21261 1841 520 2630 1841 4734 1410 4734 10521 4563 11049 16525 260 789 617 4998 11006 260 4632 4736 2454 2332 431 520 526 16313 1637 235 7628 719 2063 678 2041 263
is_linear=0
shrinkage=0.05


Tree=5
num_leaves=50
num_cat=0
split_feature=1 1 1 1 1 1 1 1 1 1 1 1 1 1 1 2 1 2 3 1 1 2 1 1 2 1 2 2 3 2 2 2 1 3 1 1 2 2 1 1 2 1 2 2 1 2 2 2 2
split_gain=1.59518e+13 3.93094e+12 3.60094e+12 1.94839e+12 8.27738e+11 6.47016e+11 6.28185e+11 1.85775e+11 1.53162e+11 1.35047e+11 1.0906e+11 1.05683e+11 9.88948e+10 7.89458e+10 5.16718e+10 2.55503e+10 2.48895e+10 2.44111e+10 2.43802e+10 2.40173e+10 1.99013e+10 1.95629e+10 1.76088e+10 1.72917e+10 1.726e+10 1.70361e+10 1.66328e+10 1.6405e+10 1.44794e+10 1.43589e+10 1.38582e+10 1.33078e+10 1.30474e+10 1.24644e+10 1.1889e+10 1.16757e+10 1.14387e+10 1.12137e+10 1.11957e+10 1.05485e+10 1.03641e+10 1.60464e+10 9.81524e+09 9.81092e+09 9.60185e+09 9.5035e+09 9.22115e+09 9.09853e+09 9.06517e+09
threshold=-38020.861881581091 -91975.864191515589 -10737.347491225788 36083.790274250154 -59339.856924649204 -24554.201960784307 -154128.82239003477 11629.033551681905 -115473.29103050711 75554.770565195082 -49285.97122167104 -18040.29210621044 -71858.709302918855 -4733.5497667559348 -31958.333333333328 -45244.972669826435 53515.39783396593 -58049.842641175994 -74075.25823892052 -128804.42266202447 -14978.296316910941 -31965.374363558425 -1440.3333333333328 -42833.938413041375 -27028.005386059438 -106929.4106578552 -19015.601190476187 -11070.681271904394 36142.004851459722 -1047.7222222222215 -2707.5769230769224 -91785.210027776964 -21013.054461036005 75706.320884582834 -79439.998255018596 -82750.596335826704 -44603.177168818038 -38054.032761622097 -27383.621707689745 -64119.52267974936 35954.6969121886 22527.299092491641 11422.524346479813 11422.524346479813 -53037.226845272737 -16633.604556132199 -7551.5260215530607 -62319.252019619409 -55379.991798825817
decision_type=2 2 2 2 2 2 2 2 2 2 2 2 2 2 2 2 2 2 2 2 2 2 2 2 2 2 2 2 2 2 2 2 2 2 2 2 2 2 2 2 2 2 2 2 2 2 2 2 2
left_child=1 6 5 7 12 14 -1 13 19 16 15 27 18 29 24 44 28 39 34 -8 -13 23 -15 48 36 -10 37 32 -5 45 -24 -27 -7 -18 -3 -20 -2 -16 -39 -14 41 42 -9 -32 47 -4 -22 -6 -12
right_child=2 4 3 9 10 11 8 40 25 -11 21 20 17 22 26 -17 33 -19 35 -21 46 -23 30 -25 -26 31 -28 -29 -30 -31 43 -33 -34 -35 -36 -37 -38 38 -40 -41 -42 -43 -44 -45 -46 -47 -48 -49 -50
leaf_value=-6200.6658982889739 -23.719361950418225 -2208.6922759748932 1037.0721579318576 2841.3971769143609 -988.8570210418701 -47.988064299006446 -4522.5521046221484 1835.064066224179 -3411.7811348918726 4212.6846582031249 -498.12521315752451 176.44896298127642 -1701.6244825533458 717.87471664198699 272.96721363067627 -1715.3009864696558 3340.217522660043 -2052.0046683464261 -2754.6786270960365 -3846.8287361870252 306.14584630664706 -1384.0176580661682 1280.8259967779659 -730.44394096445012 -1180.4599375 -2741.3416866987181 -889.40877956815621 -800.8347053903293 2095.1184428370279 -208.99249345010787 813.05161092626031 -3275.0983404017861 71.463611299535899 2486.7988037109376 -1831.4002138335131 -2310.0787434895833 -532.04081686597749 -338.32022943375904 -183.68797012603326 -1428.3740499453929 1163.6187862166441 2116.9472860765704 1202.8822128295899 348.05579167905063 -1080.0835436455002 517.20859586721747 -255.29964726933758 -1358.5344452396516 -948.08000992752648
leaf_weight=263 115 468 90 131 200 3914 263 118 263 260 118 6839 896 10017 96 276 206 362 205 263 6238 164 157 2273 100 351 108 61 129 67 8342 175 5496 54 377 528 2941 2763 2031 583 83 191 128 115 899 3788 74 992 2179
leaf_count=263 115 468 90 131 200 3914 263 118 263 260 118 6839 896 10017 96 276 206 362 205 263 6238 164 157 2273 100 351 108 61 129 67 8342 175 5496 54 377 528 2941 2763 2031 583 83 191 128 115 899 3788 74 992 2179
internal_value=0 -1642.84 363.667 824.453 -1293.78 6.18865 -3969.95 741.448 -3523.8 3282.26 -986.027 143.828 -1932.95 719.927 -375.669 -1263.14 2817.05 -1683.99 -2223.41 -4184.69 235.54 -847.47 762.951 -828.215 -534.064 -3083.21 -275.65 16.4806 2471.13 516.735 815.369 -2918.92 21.7788 3162.97 -2040.36 -2434.42 -512.912 -262.095 -272.81 -1593.91 1675.81 1773.1 1506.12 806.729 -1203.46 529.274 299.564 -1296.51 -924.965
internal_weight=0 12098 54652 23876 10520 30776 1578 23096 1315 780 7101 22622 3419 22576 8154 2367 520 1841 1578 526 13151 4734 18631 4570 3156 789 4998 9471 260 3945 8614 526 9410 260 845 733 3056 4890 4794 1479 520 437 246 8457 2091 3878 6312 1192 2297
internal_count=66750 12098 54652 23876 10520 30776 1578 23096 1315 780 7101 22622 3419 22576 8154 2367 520 1841 1578 526 13151 4734 18631 4570 3156 789 4998 9471 260 3945 8614 526 9410 260 845 733 3056 4890 4794 1479 520 437 246 8457 2091 3878 6312 1192 2297
is_linear=0
shrinkage=0.05


Tree=6
num_leaves=50
num_cat=0
split_feature=1 1 1 1 1 1 1 1 1 1 1 1 1 1 1 1 2 2 2 1 2 2 1 1 3 2 1 2 1 2 2 1 2 1 1 3 1 2 2 1 3 1 2 1 2 2 0 2 2
split_gain=1.44009e+13 3.76089e+12 3.0396e+12 1.72262e+12 7.45066e+11 6.76141e+11 5.12052e+11 1.59785e+11 1.33683e+11 1.2188e+11 1.02046e+11 7.94623e+10 7.9254e+10 7.84135e+10 7.13685e+10 3.28314e+10 2.55787e+10 2.5326e+10 2.28366e+10 2.24628e+10 1.98593e+10 1.80738e+10 1.7533e+10 1.46867e+10 1.3694e+10 1.35025e+10 1.38647e+10 1.34789e+10 1.32807e+10 1.31304e+10 1.30672e+10 1.35545e+10 1.28038e+10 1.2057e+10 1.15257e+10 1.14361e+10 1.10042e+10 1.09606e+10 1.03411e+10 1.01491e+10 9.72231e+09 9.98138e+09 9.20656e+09 8.98476e+09 8.95465e+09 8.24616e+09 8.14471e+09 8.12795e+09 8.06821e+09
threshold=-35846.566122275195 -86627.299434947607 -8148.0263157894733 36083.790274250154 -55432.959272758046 -128804.42266202447 -21788.858085693548 11629.033551681905 -154128.82239003477 75554.770565195082 -67475.679199921506 -15424.975367216948 -106929.4106578552 -45224.847289365782 -27003.499999999996 -2235.4687499999995 -67626.488517337508 -50986.823550696005 -40141.388092087735 53515.39783396593 -21382.2207029819 -29870.499999999996 -76542.708234768157 -18512.345932964392 53688.91140299815 -82901.683841785314 -98358.653357852207 -1935.6923076923074 -12274.95657190267 -4727.9999999999991 -40670.985124265288 -31493.868642766374 -60799.46325732713 -40135.640223889677 -62268.078152757269 53688.91140299815 -50125.977972664732 793.71176470588273 -14066.1689801131 -79439.998255018596 1944.6875000000002 22527.299092491641 22247.07859364746 -115473.29103050711 -40141.388092087735 -67626.488517337508 1.0000000180025095e-35 -67626.488517337508 -15787.511020841455
decision_type=2 2 2 2 2 2 2 2 2 2 2 2 2 2 2 2 2 2 2 2 2 2 2 2 2 2 2 2 2 2 2 2 2 2 2 2 2 2 2 2 2 2 2 2 2 2 2 2 2
left_child=1 5 6 7 10 8 14 15 46 19 16 23 43 18 20 37 22 34 32 24 30 33 -3 -8 -5 26 -14 28 -13 -17 -2 -32 -6 44 45 -21 -34 48 -16 -18 -9 -42 -31 -7 -15 -12 -1 -36 -4
right_child=2 4 3 9 13 12 11 40 -10 -11 17 27 25 21 38 29 39 -19 -20 35 -22 -23 -24 -25 -26 -27 -28 -29 -30 42 31 -33 36 -35 47 -37 -38 -39 -40 -41 41 -43 -44 -45 -46 -47 -48 -49 -50
leaf_value=-6006.7339704241076 87.671616796019734 -2048.053827750507 1176.0508599580223 2537.691387580423 -553.98813891476152 -3654.4873507307511 41.745316645321026 1928.4235280890216 -4296.424391040875 4002.0506520432691 -1334.4927777971541 258.12464443821898 -2847.4439568988346 -721.90034155030253 -99.686157080165387 1238.4717202006907 -2896.9077935987902 -1929.4988822055529 -1567.0232895284742 3352.1016042401716 -1023.0217241484543 -1282.9961829969618 -1695.1653218920765 151.34968019673408 1654.9928664071222 -3047.2559581667883 -2359.7469785515091 -448.87139375048383 386.23954974555238 750.75903382896001 -467.63495597633158 -301.77142094459435 -1151.2291551252783 -606.62047647745987 -941.21606350750994 2688.1818980497474 -942.26681385809707 -12.521646505327368 -729.95905306269276 -2205.5336731453253 1147.8198345159715 1675.2119514984706 64.0965538725561 -3241.1920931855989 -960.98629404296889 -1683.4012848584641 -5223.7923577724359 -1345.6682289123537 625.00684047488767
leaf_weight=224 157 678 67 204 146 263 5526 152 263 260 273 5766 236 1807 4669 138 62 251 197 124 116 135 732 6839 56 172 381 60 3116 12910 2220 2767 1137 2029 142 136 1413 67 66 369 155 213 49 263 500 446 39 992 7767
leaf_count=224 157 678 67 204 146 263 5526 152 263 260 273 5766 236 1807 4669 138 62 251 197 124 116 135 732 6839 56 172 381 60 3116 12910 2220 2767 1137 2029 142 136 1413 67 66 369 155 213 49 263 500 446 39 992 7767
internal_value=0 -1482.72 363.764 809.882 -1141.55 -3578.46 45.9726 726.21 -5093.53 3118.15 -1696.04 184.479 -2972.44 -844.509 -249.292 704.769 -1967.89 -1458.16 -1047.34 2676.2 -376.057 -713.264 -1864.85 102.367 2347.57 -2655.5 -2546.29 298.025 303.07 753.329 -361.467 -375.607 -1009.37 -695.526 -1394.32 3004.82 -1035.44 624.273 -108.471 -2304.99 1592.02 1453.08 748.163 -3447.84 -773.718 -1550.92 -5890.63 -1295.02 629.72
internal_weight=0 13150 53600 22298 11309 1841 31302 21518 526 780 3945 21307 1315 7364 9995 20998 1841 2104 2893 520 5260 4471 1410 12365 260 789 617 8942 8882 13097 5144 4987 2696 4336 1853 260 2550 7901 4735 431 520 368 12959 526 2307 719 263 1134 7834
internal_count=66750 13150 53600 22298 11309 1841 31302 21518 526 780 3945 21307 1315 7364 9995 20998 1841 2104 2893 520 5260 4471 1410 12365 260 789 617 8942 8882 13097 5144 4987 2696 4336 1853 260 2550 7901 4735 431 520 368 12959 526 2307 719 263 1134 7834
is_linear=0
shrinkage=0.05


Tree=7
num_leaves=50
num_cat=0
split_feature=1 1 1 1 1 1 1 1 1 1 1 1 1 1 1 2 2 2 1 1 1 2 1 2 1 1 1 2 3 2 2 1 1 3 2 2 2 1 1 2 1 2 2 2 2 2 1 2 2
split_gain=1.29968e+13 3.39507e+12 2.74324e+12 1.55467e+12 7.80087e+11 5.10988e+11 4.62127e+11 1.44206e+11 1.24088e+11 1.10593e+11 1.09997e+11 8.4446e+10 7.19158e+10 6.45636e+10 2.98934e+10 2.2705e+10 2.14455e+10 2.10044e+10 2.02726e+10 1.95622e+10 1.75225e+10 1.71538e+10 1.68959e+10 1.62393e+10 1.46293e+10 1.37735e+10 1.29285e+10 1.28081e+10 1.23709e+10 1.16278e+10 1.13069e+10 1.07359e+10 1.0703e+10 1.07015e+10 1.05614e+10 9.9726e+09 9.64013e+09 9.95217e+09 9.58274e+09 9.34253e+09 1.38488e+10 9.32724e+09 8.93674e+09 8.89939e+09 8.83779e+09 8.72168e+09 8.70681e+09 8.13344e+09 8.02018e+09
threshold=-35846.566122275195 -91975.864191515589 -8148.0263157894733 36083.790274250154 -56862.264257184383 -154128.82239003477 -21788.858085693548 11629.033551681905 -115473.29103050711 -71858.709302918855 75554.770565195082 -46003.907402191333 -16021.999999999998 -27383.621707689745 -2549.9666666666667 -52986.418308766639 -40670.985124265288 -71920.371022517924 53515.39783396593 -128804.42266202447 -64119.52267974936 -29870.499999999996 -79439.998255018596 -21382.2207029819 -98358.653357852207 -12646.864996316997 -40639.234205231383 -7551.5260215530607 36142.004851459722 -4727.9999999999991 -40670.985124265288 -31493.868642766374 -50985.717618570205 75706.320884582834 -16873.651875731182 1540.0000000000002 -28600.489220563846 -18897.763031327177 -79439.998255018596 35954.6969121886 22527.299092491641 -56814.170318433156 -69687.759054503113 -98321.768085956428 22247.07859364746 -1047.7222222222215 233.50000000000003 -19145.223745904532 -52986.418308766639
decision_type=2 2 2 2 2 2 2 2 2 2 2 2 2 2 2 2 2 2 2 2 2 2 2 2 2 2 2 2 2 2 2 2 2 2 2 2 2 2 2 2 2 2 2 2 2 2 2 2 2
left_child=1 5 6 7 9 -1 13 14 19 17 18 16 27 23 45 20 32 22 28 -7 -11 26 -3 30 43 -14 -13 36 -5 -16 -2 -32 48 -20 -15 47 -8 -38 -19 40 -9 -34 -22 -10 46 -4 -31 -27 -6
right_child=2 4 3 10 11 8 12 39 24 15 -12 21 25 34 29 -17 -18 38 33 -21 42 -23 -24 -25 -26 35 -28 -29 -30 44 31 -33 41 -35 -36 -37 37 -39 -40 -41 -42 -43 -44 -45 -46 -47 -48 -49 -50
leaf_value=-5596.100957996674 75.410090344157439 -2061.7606185090758 587.99617526458906 2572.4427123091605 -995.81403920477624 -4081.6032883792777 658.80169380808604 1356.7675012107788 -2807.5820681308178 -1563.2782599470877 3801.9479597355771 -753.39585982377241 227.24043519161864 -99.643819803503106 1149.2591598613151 -1874.6047402605914 -1526.3617828066988 -2686.5325655346078 3018.8154799378035 -3471.7630866801333 -902.86488967575394 -1229.8224074775869 -1676.0941617772646 -970.37129674840855 -2480.7626708056086 933.76113728841142 -585.61960936798835 -795.33769962962083 1882.637317527357 688.46446450571784 -444.25321263635482 -293.42517106495177 -472.68214959894499 2228.0497730396414 -631.9177062024412 -457.77940236141808 31.00343590358462 127.41930036701145 -2158.1385788532839 1026.1251417596657 1924.2238997054974 -938.09715519305416 -1326.5505410003661 -3263.0979270833336 41.678997192382816 89.65073909116596 787.63910924186678 346.76310957755322 -1256.3003084244267
leaf_weight=263 151 668 6495 131 731 263 74 246 376 966 260 2308 6575 4903 149 298 202 121 206 263 143 141 494 108 263 60 2285 41 129 11473 2220 2518 117 54 95 38 4676 6259 295 83 191 1347 960 150 50 89 2742 3584 496
leaf_count=263 151 668 6495 131 731 263 74 246 376 966 260 2308 6575 4903 149 298 202 121 206 263 143 141 494 108 263 60 2285 41 129 11473 2220 2518 117 54 95 38 4676 6259 295 83 191 1347 960 150 50 89 2742 3584 496
internal_value=0 -1408.58 345.576 769.388 -1111.91 -3584.2 43.6739 689.899 -3181.82 -1682.72 2962.24 -816.664 175.255 -236.827 669.53 -1466.56 -1029.49 -2006.95 2542.39 -3776.68 -1407.79 -686.604 -1897.8 -363.918 -2785.24 270.599 -669.928 86.754 2230.19 709.85 -350.522 -364.096 -992.191 2854.58 -109.761 348.025 90.0391 86.1902 -2311.83 1512.42 1604.79 -900.902 -1271.62 -2937.48 705.261 581.26 707.595 356.428 -1101.11
internal_weight=0 13150 53600 22298 11572 1578 31302 21518 1315 3945 780 7627 21307 9995 20998 2367 2893 1578 520 526 2069 4734 1162 4997 789 10257 4593 11050 260 14414 4889 4738 2691 260 4998 3682 11009 10935 416 520 437 1464 1103 526 14265 6584 14215 3644 1227
internal_count=66750 13150 53600 22298 11572 1578 31302 21518 1315 3945 780 7627 21307 9995 20998 2367 2893 1578 520 526 2069 4734 1162 4997 789 10257 4593 11050 260 14414 4889 4738 2691 260 4998 3682 11009 10935 416 520 437 1464 1103 526 14265 6584 14215 3644 1227
is_linear=0
shrinkage=0.05


Tree=8
num_leaves=50
num_cat=0
split_feature=1 1 1 1 1 1 1 1 1 1 1 1 1 1 1 2 2 3 1 1 2 2 1 2 1 1 1 3 2 1 2 2 2 3 1 6 2 2 3 1 1 6 1 2 2 2 0 2 2
split_gain=1.17332e+13 2.892e+12 2.6494e+12 1.42713e+12 6.10817e+11 4.85532e+11 4.61167e+11 1.35412e+11 1.1199e+11 9.92723e+10 8.02146e+10 7.71895e+10 7.20828e+10 5.35372e+10 4.05469e+10 2.17567e+10 2.06091e+10 1.94744e+10 1.82961e+10 1.76549e+10 1.49476e+10 1.47506e+10 1.45707e+10 1.44284e+10 1.32029e+10 1.24207e+10 1.17605e+10 1.17146e+10 1.16145e+10 1.11578e+10 1.09506e+10 1.05076e+10 1.00732e+10 9.81369e+09 9.64004e+09 9.3734e+09 9.1959e+09 9.11772e+09 8.72008e+09 8.63671e+09 8.60305e+09 8.47924e+09 8.46575e+09 8.0317e+09 7.78924e+09 7.73095e+09 7.35061e+09 7.18492e+09 6.96724e+09
threshold=-38020.861881581091 -91975.864191515589 -10394.678571428571 36083.790274250154 -59339.856924649204 -24288.444444444442 -154128.82239003477 11629.033551681905 -115473.29103050711 75554.770565195082 -48401.928355788608 -17343.180585130624 -71858.709302918855 -4974.8888888888869 -31068.249999999996 -43991.104538754829 -60799.46325732713 -74075.25823892052 53515.39783396593 -128804.42266202447 -35850.264053809231 -13459.455711266482 -408.49999999999994 -25843.661753374614 -98358.653357852207 -14074.279899809017 -20325.186659589523 53688.91140299815 -19015.601190476187 -42833.938413041375 -44603.177168818038 -2707.5769230769224 1540.0000000000002 53688.91140299815 -53037.226845272737 1.0000000180025095e-35 -35850.264053809231 -1047.7222222222215 1944.6875000000002 -79439.998255018596 -65760.454384922836 1.0000000180025095e-35 22527.299092491641 -98321.768085956428 -5810.7517882709717 -62319.252019619409 1.0000000180025095e-35 11422.524346479813 35954.6969121886
decision_type=2 2 2 2 2 2 2 2 2 2 2 2 2 2 2 2 2 2 2 2 2 2 2 2 2 2 2 2 2 2 2 2 2 2 2 2 2 2 2 2 2 2 2 2 2 2 2 2 2
left_child=1 6 5 7 12 14 46 13 19 18 15 21 17 37 23 34 40 39 27 -8 29 26 32 30 43 -13 -7 -5 36 -12 -2 -24 -15 -20 45 -19 -16 -4 -9 -3 -14 -18 -40 -10 -27 -6 -1 -33 -44
right_child=2 4 3 9 10 11 8 38 24 -11 20 25 16 22 28 -17 41 35 33 -21 -22 -23 31 -25 -26 44 -28 -29 -30 -31 -32 47 -34 -35 -36 -37 -38 -39 42 -41 -42 -43 48 -45 -46 -47 -48 -49 -50
leaf_value=-5426.5925589425224 28.608577659887864 -1886.4781089326254 449.53336150109448 2294.5268339269301 -830.49607951450344 -21.813291970041227 -3877.5232102542777 1755.390784012644 -2667.2029546210106 3611.8506520432693 -774.7951511944824 175.22642846091424 -1469.5235748243406 631.68122774232506 222.71529145674273 -1490.3488722336781 -1515.5274932202676 -1886.9180224452373 3033.5558987525201 -3298.1749101413975 -1038.0554093595126 -594.85286566623915 1179.3277704238892 -1026.7746495863971 -2356.7245570193677 286.60497352194261 83.873990571471097 1478.1113248007639 -741.7280308356867 -610.5013988359018 -440.59622706651209 730.13676612956147 -86.430318715621013 2418.5310737161076 -912.34333545985885 -2248.6893040950831 -218.98086110407922 -167.28502371115763 1024.083694044544 -1564.9055278100134 -1212.7275321500847 -1913.5416609889778 1707.735987854004 -3099.9430390625002 -322.96635731382753 -1170.8060208517406 -4682.7974358974361 322.57022285117762 1096.6754362686822
leaf_weight=224 129 468 3358 204 200 4684 263 152 376 260 2010 7102 641 14417 121 269 278 311 124 263 334 93 128 102 263 4681 6009 56 104 2127 3451 4189 49 136 1153 422 4510 61 155 377 664 258 144 150 53 1008 39 111 69
leaf_count=224 129 468 3358 204 200 4684 263 152 376 260 2010 7102 641 14417 121 269 278 311 124 263 334 93 128 102 263 4681 6009 56 104 2127 3451 4189 49 136 1153 422 4510 61 155 377 664 258 144 150 53 1008 39 111 69
internal_value=0 -1408.96 311.894 711.028 -1109.56 8.25123 -3404.99 639.184 -3022.73 2814.13 -845.19 128.876 -1658.63 620.595 -315.948 -1064.3 -1446.08 -1906.6 2415.27 -3587.85 -716.302 32.1254 653.542 -440.396 -2645.98 217.045 37.5784 2118.68 -219.175 -690.325 -423.689 732.905 629.249 2711.85 -1015.76 -2095.2 -207.44 438.528 1436.8 -1743.01 -1338.86 -1707.11 1305.21 -2790.61 279.78 -1114.46 -5316.3 719.616 1509.79
internal_weight=0 12098 54652 23613 10520 31039 1578 22833 1315 780 7101 22622 3419 22313 8417 2630 1841 1578 520 526 4471 10786 18894 3682 789 11836 10693 260 4735 4137 3580 4428 14466 260 2361 733 4631 3419 520 845 1305 536 368 526 4734 1208 263 4300 213
internal_count=66750 12098 54652 23613 10520 31039 1578 22833 1315 780 7101 22622 3419 22313 8417 2630 1841 1578 520 526 4471 10786 18894 3682 789 11836 10693 260 4735 4137 3580 4428 14466 260 2361 733 4631 3419 520 845 1305 536 368 526 4734 1208 263 4300 213
is_linear=0
shrinkage=0.05


Tree=9
num_leaves=50
num_cat=0
split_feature=1 1 1 1 1 1 1 1 1 1 1 1 1 1 1 1 2 2 1 2 1 2 2 2 2 2 2 1 2 2 4 2 3 2 1 2 1 3 2 1 3 1 1 2 2 1 1 2 1
split_gain=1.05939e+13 2.84867e+12 2.1609e+12 1.26604e+12 5.87521e+11 4.95144e+11 3.34894e+11 1.17393e+11 9.82692e+10 8.95933e+10 8.65816e+10 5.98133e+10 5.66688e+10 5.6328e+10 4.67318e+10 2.50876e+10 2.25263e+10 1.97673e+10 1.79354e+10 1.7561e+10 1.65122e+10 1.63927e+10 1.31022e+10 1.27936e+10 1.2333e+10 1.1039e+10 1.10031e+10 1.08889e+10 1.07603e+10 1.06656e+10 1.05975e+10 1.04075e+10 1.03781e+10 1.03714e+10 1.06026e+10 9.65299e+09 9.23176e+09 9.18798e+09 9.01145e+09 8.35402e+09 8.25092e+09 1.05026e+10 8.12127e+09 7.83435e+09 7.64799e+09 7.81934e+09 7.40942e+09 7.32387e+09 6.90174e+09
threshold=-34769.088074583247 -86627.299434947607 -8148.0263157894733 36083.790274250154 -54237.857071168277 -128804.42266202447 -21577.699999999997 11629.033551681905 -154128.82239003477 75554.770565195082 -65760.454384922836 -106929.4106578552 -15315.811634937703 -44599.924053317161 -26599.738205371763 -2785.7499999999995 -62319.252019619409 -50986.823550696005 -76542.708234768157 -40141.388092087735 53515.39783396593 -29870.499999999996 -22221.882198102165 -9283.7499999999982 -82901.683841785314 -60799.46325732713 -49302.781181403239 -39109.898536082197 -19400.692577668004 -39135.644927536057 53831.962750777639 -1935.6923076923074 -9664.757440476189 -25146.249999999996 -18274.795439035483 -82901.683841785314 -98358.653357852207 75706.320884582834 -74053.693047076275 -59339.856924649204 22496.025441625523 22527.299092491641 -12274.95657190267 -16873.651875731182 11422.524346479813 -218.80158730158743 -30666.916666666664 -106864.77477297086 4239.7761033229262
decision_type=2 2 2 2 2 2 2 2 2 2 2 2 2 2 2 2 2 2 2 2 2 2 2 2 2 2 2 2 2 2 2 2 2 2 2 2 2 2 2 2 2 2 2 2 2 2 2 2 2
left_child=1 5 6 7 10 8 14 15 -1 20 16 47 23 19 22 -4 18 38 35 25 30 26 29 33 36 -6 -15 -28 -14 -2 -5 42 -17 -8 -35 -3 -13 -22 -12 -40 41 -9 -30 -16 45 -34 -31 -7 -46
right_child=2 4 3 9 13 11 12 40 -10 -11 17 24 28 21 43 32 -18 -19 -20 -21 37 -23 -24 -25 -26 -27 27 -29 31 46 -32 -33 44 34 -36 -37 -38 -39 39 -41 -42 -43 -44 -45 48 -47 -48 -49 -50
leaf_value=-5050.4811044439166 114.28367330312729 -1570.8482497535194 515.89530951674999 2178.0938355087651 -356.5256052411836 -2861.8655542416254 544.38866094454067 1302.0005292873939 -3683.6470383792775 3431.258073918269 -650.25251499133174 -2417.9709778866527 745.20017089843759 -184.51708447677268 -72.844272871202563 996.8943094953222 -2050.1898949331794 -1576.6840638813219 -1458.4798513378448 -1304.2871899185893 2728.4377178303248 -1087.4736321551434 -774.4187582311497 -698.67501466040528 -2651.0100796011993 -855.20016177055004 -657.071082632659 -498.76872584193916 219.91288705166158 -367.67612842616984 1396.4651345547763 -404.28741427103682 615.92605947008281 40.297579495680402 133.78447611911767 -1938.6131748870482 -2020.0137390296918 1995.720687753183 -1274.032469979333 -1052.9980103051348 1106.7788900372909 1890.4408780924477 321.69433640592791 -543.84055096520319 -280.88861236572268 700.0426850072497 -241.80964996119462 -3302.6517736915653 514.11270176814151
leaf_weight=263 160 313 5791 205 116 403 127 206 263 260 89 236 112 177 4645 199 311 304 1065 214 206 159 142 51 172 2563 2440 1958 5445 2202 55 60 11223 5682 6505 415 381 54 877 834 194 120 3062 90 42 3665 2493 123 78
leaf_count=263 160 313 5791 205 116 403 127 206 263 260 89 236 112 177 4645 199 311 304 1065 214 206 159 142 51 172 2563 2440 1958 5445 2202 55 60 11223 5682 6505 415 381 54 877 834 194 120 3062 90 42 3665 2493 123 78
internal_value=0 -1240.89 319.75 694.568 -956.279 -3070.55 48.1856 622.837 -4367.06 2673.42 -1430.56 -2551.94 160.35 -694.606 -194.353 604.459 -1657.36 -1203.76 -1589.23 -868.425 2294.5 -588.384 -301.008 91.6089 -2276.6 -833.608 -571.039 -586.594 258.285 -287.161 2012.75 251.92 638.185 94.8819 90.1977 -1780.49 -2172.23 2576.26 -1140.78 -1166.29 1364.96 1518.6 256.548 -81.7967 633.429 636.633 -300.842 -2964.94 235.862
internal_weight=0 13676 53074 22298 11835 1841 30776 21518 526 780 4208 1315 21044 7627 9732 20998 2104 2104 1793 2893 520 4734 4997 12365 789 2679 4575 4398 8679 4855 260 8567 15207 12314 12187 728 617 260 1800 1711 520 326 8507 4735 15008 14888 4695 526 120
internal_count=66750 13676 53074 22298 11835 1841 30776 21518 526 780 4208 1315 21044 7627 9732 20998 2104 2104 1793 2893 520 4734 4997 12365 789 2679 4575 4398 8679 4855 260 8567 15207 12314 12187 728 617 260 1800 1711 520 326 8507 4735 15008 14888 4695 526 120
is_linear=0
shrinkage=0.05


Tree=10
num_leaves=50
num_cat=0
split_feature=1 1 1 1 1 1 1 1 1 1 1 1 1 1 1 1 2 2 2 1 2 2 1 2 1 2 2 1 2 2 3 1 2 2 3 1 2 1 6 2 3 1 1 2 2 2 6 2 2
split_gain=9.562e+12 2.46413e+12 2.05157e+12 1.14655e+12 4.76414e+11 4.46867e+11 3.55742e+11 1.06805e+11 8.86879e+10 8.08579e+10 6.80575e+10 6.67074e+10 5.39815e+10 4.82805e+10 3.2057e+10 2.63403e+10 1.96902e+10 1.81621e+10 1.61934e+10 1.49023e+10 1.28856e+10 1.25595e+10 1.17569e+10 1.15401e+10 1.11573e+10 1.11305e+10 1.05078e+10 1.01117e+10 1.00775e+10 1.00415e+10 1.00239e+10 9.03515e+09 8.68498e+09 8.482e+09 8.42133e+09 8.33166e+09 8.14356e+09 7.92845e+09 7.90941e+09 7.65188e+09 7.56351e+09 7.40804e+09 7.35321e+09 8.04116e+09 7.17436e+09 7.16594e+09 7.06899e+09 6.98486e+09 6.93713e+09
threshold=-36433.937519424937 -86627.299434947607 -8781.8444444444413 36083.790274250154 -55432.959272758046 -128804.42266202447 -23446.193004702436 11629.033551681905 -154128.82239003477 75554.770565195082 -67475.679199921506 -16372.959979145353 -106929.4106578552 -46003.907402191333 -29022.912578616349 -3300.4999999999995 -67626.488517337508 -50986.823550696005 -43991.104538754829 53515.39783396593 -31965.374363558425 -11070.681271904394 -76542.708234768157 -21016.281075550316 -19563.974836445133 -82901.683841785314 -24001.428571428569 -13153.749011005673 -51918.479903764499 -7023.6425816149349 36142.004851459722 -41187.23277707502 -59355.756010879202 -20161.834622721995 53688.91140299815 -98358.653357852207 1540.0000000000002 -62268.078152757269 1.0000000180025095e-35 -42282.334755250289 1944.6875000000002 22527.299092491641 1.0000000180025095e-35 1920.660426357703 -16031.762499999999 -86563.779661728753 1.0000000180025095e-35 -71920.371022517924 -4968.6962499391393
decision_type=2 2 2 2 2 2 2 2 2 2 2 2 2 2 2 2 2 2 2 2 2 2 2 2 2 2 2 2 2 2 2 2 2 2 2 2 2 2 2 2 2 2 2 2 2 2 2 2 2
left_child=1 5 6 7 10 8 14 15 -1 19 16 21 -7 18 26 36 22 37 32 30 28 24 45 -13 -8 35 39 -25 -15 -17 -5 -30 -6 -16 -21 -14 44 47 -18 -2 -9 -42 43 -31 -4 -3 -20 -12 -29
right_child=2 4 3 9 13 12 11 40 -10 -11 17 23 25 20 33 29 38 -19 46 34 -22 -23 -24 27 -26 -27 -28 48 31 42 -32 -33 -34 -35 -36 -37 -38 -39 -40 -41 41 -43 -44 -45 -46 -47 -48 -49 -50
leaf_value=-4797.9569413913978 53.867158837890628 -1419.025134746845 1008.2504788306451 2220.189564945134 -493.68864051103594 -2816.6921254901381 1.2192227765598549 1593.4236035798726 -3499.4646165042777 3259.6951832932696 -949.16094321130026 710.98356704711921 -2297.0723814883472 -127.66235690434775 -136.41503520875057 1030.6787662760416 -1622.1410853794644 -1586.6281277234812 -995.40486101797217 2745.4561239919358 -1019.5378813462451 -635.47425548669071 -1374.4008578607945 178.97688809888902 98.343180625141329 -2518.4595896166429 -807.93731043198534 286.87142504802699 -670.87821393147294 582.87432738808036 1599.2577248743339 -523.50929740528579 -845.32220889251062 -530.8800847466058 2175.7292383530562 -1919.0130628690947 -194.5629580622134 -1051.0626165601941 -2064.9189887152779 -343.4530978078318 911.18010740710861 1365.5295807672778 664.05568436469503 -155.27506309586602 466.80421258140041 -1771.5104207529921 -1436.3751158439072 -1340.6152541770473 -237.7396701112506
leaf_weight=263 125 208 62 131 192 526 5228 152 263 260 142 120 236 120 4068 135 161 251 233 124 173 66 732 6505 6807 172 119 4095 1953 13027 129 2225 2056 141 136 381 46 1134 270 3964 155 213 3326 37 4628 470 149 577 64
leaf_count=263 125 208 62 131 192 526 5228 152 263 260 142 120 236 120 4068 135 161 251 233 124 173 66 732 6505 6807 172 119 4095 1953 13027 129 2225 2056 141 136 381 46 1134 270 3964 155 213 3326 37 4628 470 149 577 64
internal_value=0 -1223.46 292.718 656.193 -941.195 -2917.02 30.7422 588.741 -4148.71 2539.75 -1381.75 132.967 -2424.34 -696.445 -247.196 571.426 -1603.76 -1187.48 -866.433 2179.78 -596.451 52.3804 -1513.35 223.394 56.1526 -2162.77 -344.786 217.908 -579.421 601.219 1912.11 -592.397 -815.289 -149.629 2447.45 -2063.62 467.469 -1133.42 -1899.52 -331.307 1296.71 1174.16 597.682 580.784 473.962 -1663.37 -1167.41 -1263.3 278.799
internal_weight=0 12887 53863 22561 11046 1841 31302 21781 526 780 3945 22885 1315 7101 8417 21261 1841 2104 2630 520 4471 12101 1410 10784 12035 789 4208 10664 4298 16525 260 4178 2248 4209 260 617 4736 1853 431 4089 520 368 16390 13064 4690 678 382 719 4159
internal_count=66750 12887 53863 22561 11046 1841 31302 21781 526 780 3945 22885 1315 7101 8417 21261 1841 2104 2630 520 4471 12101 1410 10784 12035 789 4208 10664 4298 16525 260 4178 2248 4209 260 617 4736 1853 431 4089 520 368 16390 13064 4690 678 382 719 4159
is_linear=0
shrinkage=0.05


Tree=11
num_leaves=50
num_cat=0
split_feature=1 1 1 1 1 1 1 1 1 1 1 1 1 1 1 2 1 2 2 1 1 2 2 2 2 2 2 2 3 2 2 1 2 1 2 2 3 1 2 1 3 1 1 2 1 6 2 2 0
split_gain=8.63402e+12 2.31931e+12 1.76017e+12 1.02753e+12 4.78949e+11 4.03298e+11 2.77744e+11 9.48227e+10 8.00409e+10 7.29743e+10 7.06225e+10 4.89972e+10 4.87183e+10 4.59684e+10 3.82547e+10 1.88649e+10 1.88368e+10 1.67786e+10 1.5114e+10 1.4745e+10 1.34493e+10 1.33934e+10 1.09925e+10 1.06254e+10 1.02179e+10 9.70721e+09 9.48677e+09 9.4199e+09 9.33266e+09 9.2705e+09 9.25527e+09 8.7527e+09 8.67581e+09 9.92108e+09 8.52546e+09 8.10636e+09 7.88865e+09 7.62973e+09 7.54146e+09 7.60087e+09 7.45471e+09 9.40578e+09 7.37444e+09 6.9645e+09 6.94114e+09 6.69873e+09 6.69484e+09 6.65347e+09 6.63393e+09
threshold=-34769.088074583247 -86627.299434947607 -7542.3067311410095 36083.790274250154 -54237.857071168277 -128804.42266202447 -21577.699999999997 11629.033551681905 -154128.82239003477 75554.770565195082 -65760.454384922836 -15315.811634937703 -106929.4106578552 -43423.358162484263 -26599.738205371763 -62319.252019619409 -2115.8642857142859 -52986.418308766639 -39135.644927536057 -76542.708234768157 53515.39783396593 -31495.628502688927 -21382.2207029819 -9283.7499999999982 -86563.779661728753 -1935.6923076923074 -46734.700151061072 -19145.223745904532 75706.320884582834 -28230.999999999996 -39135.644927536057 -18274.795439035483 -58049.842641175994 -48401.928355788608 -4727.9999999999991 -82901.683841785314 75706.320884582834 -11836.706878880899 -74053.693047076275 -59339.856924649204 36142.004851459722 22527.299092491641 -98358.653357852207 -31495.628502688927 -38585.558471946752 1.0000000180025095e-35 -79439.998255018596 22247.07859364746 1.0000000180025095e-35
decision_type=2 2 2 2 2 2 2 2 2 2 2 2 2 2 2 2 2 2 2 2 2 2 2 2 2 2 2 2 2 2 2 2 2 2 2 2 2 2 2 2 2 2 2 2 2 2 2 2 2
left_child=1 5 6 7 10 8 14 16 48 20 15 23 -7 18 22 19 -4 38 32 35 28 26 30 29 42 27 -15 -13 -5 -8 -2 -31 -6 -34 -18 -3 -22 -29 -12 -40 41 -9 -14 -16 -28 -19 -21 -36 -1
right_child=2 4 3 9 13 12 11 40 -10 -11 17 25 24 21 43 -17 34 45 -20 46 36 -23 -24 -25 -26 -27 44 37 -30 31 -32 -33 33 -35 47 -37 -38 -39 39 -41 -42 -43 -44 -45 -46 -47 -48 -49 -50
leaf_value=-4662.8409790039068 113.67405994690955 -1415.4422801642374 489.15197940091133 1902.9821901957196 -423.09014949251025 -2675.8575585194867 606.0038554112964 1123.011668841317 -3324.4914686311786 3096.7104176682697 -569.84035575952419 673.52787738923109 -2160.122027504281 -187.2258865682488 348.11313925981523 -1855.9780300128114 987.94195183906857 -1177.1395526683273 -1145.9555743408205 -1059.5948973424227 2466.0822823830022 -906.71877746582038 -752.80305345469515 -637.55692833545163 -2325.9627135470696 -367.84297124688146 -575.55518328391042 202.70400086828377 778.79450469970709 36.816861048416492 -272.99734497738956 121.60452846405161 -857.99272346209329 -674.19420616043044 584.7628828151702 -1752.4597404461599 1787.1482416223598 302.86474584030219 -1145.7621917328277 -928.18639798345612 870.54744533811299 1608.0773065359936 -1785.6625415558512 -82.143129019902901 -438.80018362544564 -1583.9350425643152 -1376.9785602751656 0.97765942398382699 -3956.2357171474359
leaf_weight=224 160 313 8166 240 209 526 85 233 263 260 89 124 219 234 96 311 131 207 240 206 206 209 116 51 241 66 2107 5960 20 5709 4721 6520 1328 1642 12389 415 54 2792 847 763 112 175 329 4639 1658 198 859 49 39
leaf_count=224 160 313 8166 240 209 526 85 233 263 260 89 124 219 234 96 311 131 207 240 206 206 209 116 51 241 66 2107 5960 20 5709 4721 6520 1328 1642 12389 415 54 2792 847 763 112 175 329 4639 1658 198 859 49 39
internal_value=0 -1120.24 288.662 630.408 -863.432 -2771.17 46.0516 565.001 -3941.28 2412.76 -1291.65 147.135 -2303.12 -627.171 -175.257 -1496.49 548.276 -1086.82 -763.351 -1434.14 2070.79 -516.526 -271.755 82.6562 -2054.63 236.295 -496.133 240.788 1816.51 85.6391 -260.322 82.0222 -734.466 -756.378 586.689 -1607.56 2325.07 234.657 -1017.88 -1042.65 1231.88 1331.07 -1935.31 -73.4199 -515.332 -1376.02 -1315.59 582.463 -4558.06
internal_weight=0 13676 53074 22035 11835 1841 31039 21255 526 780 4208 21307 1315 7627 9732 2104 20735 2104 3419 1793 520 4208 4997 12365 789 8942 3999 8876 260 12314 4881 12229 3179 2970 12569 728 260 8752 1699 1610 520 408 548 4735 3765 405 1065 12438 263
internal_count=66750 13676 53074 22035 11835 1841 31039 21255 526 780 4208 21307 1315 7627 9732 2104 20735 2104 3419 1793 520 4208 4997 12365 789 8942 3999 8876 260 12314 4881 12229 3179 2970 12569 728 260 8752 1699 1610 520 408 548 4735 3765 405 1065 12438 263
is_linear=0
shrinkage=0.05


Tree=12
num_leaves=50
num_cat=0
split_feature=1 1 1 1 1 1 1 1 1 1 1 1 1 1 1 2 2 2 1 2 2 2 1 1 1 1 2 2 1 2 1 3 2 3 2 1 2 3 1 6 2 2 1 2 2 2 3 2 2
split_gain=7.79238e+12 2.06633e+12 1.61574e+12 9.30552e+11 4.82862e+11 3.04587e+11 2.61718e+11 8.6323e+10 7.71609e+10 6.7679e+10 6.58593e+10 5.4991e+10 5.07494e+10 2.71418e+10 1.74449e+10 1.57981e+10 1.57279e+10 1.42617e+10 1.34502e+10 1.35572e+10 1.25531e+10 1.24053e+10 1.22483e+10 1.2138e+10 1.06735e+10 1.04625e+10 1.03302e+10 1.00074e+10 9.72498e+09 9.48085e+09 9.19992e+09 8.78122e+09 8.3731e+09 8.29488e+09 7.89668e+09 1.00551e+10 7.34287e+09 7.22642e+09 7.07588e+09 7.01489e+09 6.89599e+09 6.84126e+09 6.82608e+09 6.82373e+09 6.7959e+09 6.58981e+09 6.57265e+09 6.12035e+09 6.01565e+09
threshold=-35290.512814989575 -91975.864191515589 -8148.0263157894733 36083.790274250154 -56862.264257184383 -154128.82239003477 -22677.554892563199 4239.7761033229262 -115473.29103050711 -71858.709302918855 75554.770565195082 -47488.015849668293 -16372.959979145353 -28216.159612277865 -3181.4999999999995 -54232.817607743091 -71920.371022517924 -43991.104538754829 22527.299092491641 22247.07859364746 11422.524346479813 -31495.628502688927 -40639.234205231383 53515.39783396593 -79439.998255018596 -128804.42266202447 -21016.281075550316 -10741.783739293434 -64119.52267974936 -25146.249999999996 -13471.34598708677 36142.004851459722 35954.6969121886 -43446.419702648818 -91785.210027776964 -106929.4106578552 1540.0000000000002 53688.91140299815 -19275.153743663064 1.0000000180025095e-35 -18772.034485896267 -64141.830508931336 -79439.998255018596 -67626.488517337508 -39135.644927536057 -44603.177168818038 -115473.29103050711 -71920.371022517924 -31495.628502688927
decision_type=2 2 2 2 2 2 2 2 2 2 2 2 2 2 2 2 2 2 2 2 2 2 2 2 2 2 2 2 2 2 2 2 2 2 2 2 2 2 2 2 2 2 2 2 2 2 2 2 2
left_child=1 5 6 7 9 -1 13 14 25 16 23 17 27 29 -4 28 24 41 19 -9 -16 22 33 31 -3 46 -14 38 47 44 -28 -5 -20 -13 35 -10 -32 -25 -8 -17 48 -6 -18 -30 -2 -24 -7 -11 -15
right_child=2 4 3 10 11 8 12 18 34 15 -12 21 26 40 20 39 42 -19 32 -21 -22 -23 45 37 -26 -27 30 -29 43 -31 36 -33 -34 -35 -36 -37 -38 -39 -40 -41 -42 -43 -44 -45 -46 -47 -48 -49 -50
leaf_value=-4330.1561608840302 46.308633369869654 -1591.845003742515 430.38319128365129 2014.0309741770038 -380.96709549403431 -3038.6607148072435 12.478731667743453 1016.5184190728198 -2312.1726591222427 -1018.1791986896528 2941.874874549279 -514.50811068420819 658.14929586995038 216.83007039497639 541.92534191798018 -1180.2008399092911 -2136.0465755746386 -1168.5190173791957 1514.6532237427398 326.11561832427981 -313.52703076739647 -909.86758993643309 -130.23560062239443 2484.8791590536798 -1285.3134957626282 -2712.2772999346485 157.51089719908691 -601.40734242406393 -711.88019944763187 -648.96331014467808 255.48816565906188 1432.8603636512462 872.02666882501126 -686.72393086363627 -2424.9181884765626 -1891.1749446336362 -393.32510133223104 1957.1174668985257 92.318174324515809 -1631.0300821741616 -504.27725623801899 -802.75712045180308 -1690.0838953257417 -1036.0869618733725 -284.23888530135309 -463.86653551541843 -3680.628304368623 -1285.9419222445104 -110.71024369514294
leaf_weight=263 162 668 4736 131 101 214 4970 435 238 323 260 1497 124 145 15959 149 121 270 191 85 43 216 158 124 494 263 5984 58 200 173 4895 129 69 1312 200 351 44 136 6284 205 108 1996 295 861 3873 2340 49 629 4219
leaf_count=263 162 668 4736 131 101 214 4970 435 238 323 260 1497 124 145 15959 149 121 270 191 85 43 216 158 124 494 263 5984 58 200 173 4895 129 69 1312 200 351 44 136 6284 205 108 1996 295 861 3873 2340 49 629 4219
internal_value=0 -1077.29 270.912 595.597 -850.677 -2776.85 37.6621 534.1 -2466.19 -1302.34 2292.13 -624.846 128.124 -195.361 514.678 -1133.24 -1555.98 -826.481 1050.48 903.664 539.627 -538.431 -523.314 1967.25 -1461.53 -2935.27 204.351 53.6833 -1079.07 -286.508 199.199 1725.68 1344.11 -594.945 -2153.46 -2061.29 249.708 2208.82 57.0594 -1441.27 -109.595 -782.442 -1819.8 -974.974 -270.968 -442.764 -3158.27 -1195.09 -99.8273
internal_weight=0 13413 53337 22298 11835 1578 31039 21518 1315 3945 780 7890 22359 8680 20738 2367 1578 2367 780 520 16002 5523 5307 520 1162 526 11047 11312 2013 4208 10923 260 260 2809 789 589 4939 260 11254 354 4472 2097 416 1061 4035 2498 263 952 4364
internal_count=66750 13413 53337 22298 11835 1578 31039 21518 1315 3945 780 7890 22359 8680 20738 2367 1578 2367 780 520 16002 5523 5307 520 1162 526 11047 11312 2013 4208 10923 260 260 2809 789 589 4939 260 11254 354 4472 2097 416 1061 4035 2498 263 952 4364
is_linear=0
shrinkage=0.05


Tree=13
num_leaves=50
num_cat=0
split_feature=1 1 1 1 1 1 1 1 1 1 1 1 1 1 1 1 2 2 2 2 3 2 2 1 2 2 1 1 2 2 2 1 2 1 2 2 1 2 1 3 3 6 2 1 1 1 0 3 2
split_gain=7.03528e+12 1.76372e+12 1.56174e+12 8.58307e+11 3.81013e+11 2.7489e+11 2.72792e+11 1.01607e+11 6.96377e+10 6.25802e+10 4.5909e+10 4.07101e+10 3.66825e+10 2.58915e+10 2.52188e+10 2.10494e+10 1.53128e+10 1.51454e+10 1.44299e+10 1.32435e+10 1.26518e+10 1.22502e+10 1.22354e+10 1.16605e+10 9.56842e+09 9.54096e+09 9.47277e+09 9.4424e+09 9.28758e+09 8.46264e+09 8.38928e+09 8.1211e+09 7.81653e+09 7.68843e+09 7.32013e+09 7.2603e+09 7.20629e+09 7.18282e+09 7.03595e+09 6.77316e+09 6.57143e+09 6.43765e+09 6.28401e+09 6.215e+09 6.16268e+09 6.02095e+09 5.98711e+09 5.93181e+09 5.90341e+09
threshold=-37518.010465990192 -91975.864191515589 -10737.347491225788 22527.299092491641 -60759.187338658725 -154128.82239003477 -24554.201960784307 53515.39783396593 -115473.29103050711 -50125.977972664732 -17581.071428571424 -5463.2252606651664 -73985.40713926639 4239.7761033229262 75554.770565195082 -32429.554613394652 -60799.46325732713 -76524.704916238319 -48411.205199798947 11422.524346479813 53688.91140299815 -36458.214285714283 22247.07859364746 -42833.938413041375 -29870.499999999996 -30659.503190846739 -1546.7179487179485 -128804.42266202447 -13459.455711266482 -7551.5260215530607 -35850.264053809231 -14202.479475874947 -13307.663395294423 -98358.653357852207 -56814.170318433156 -1047.7222222222215 -20646.634334157101 -91785.210027776964 36083.790274250154 75706.320884582834 -86563.779661728753 1.0000000180025095e-35 -65857.614921882385 -69594.839302531313 -82750.596335826704 -82750.596335826704 1.0000000180025095e-35 -115473.29103050711 -106864.77477297086
decision_type=2 2 2 2 2 2 2 2 2 2 2 2 2 2 2 2 2 2 2 2 2 2 2 2 2 2 2 2 2 2 2 2 2 2 2 2 2 2 2 2 2 2 2 2 2 2 2 2 2
left_child=1 5 6 11 12 46 15 20 27 18 24 35 17 19 39 25 40 45 42 26 38 23 -15 34 -8 -2 -13 47 36 31 -17 -12 -32 37 -11 -4 -26 -10 -5 -9 -14 -20 -6 -42 -19 -3 -1 -7 -29
right_child=2 4 3 7 9 8 10 14 33 21 29 13 16 22 -16 30 -18 44 41 -21 -22 -23 -24 -25 28 -27 -28 48 -30 -31 32 -33 -34 -35 -36 -37 -38 -39 -40 -41 43 -43 -44 -45 -46 -47 -48 -49 -50
leaf_value=-4213.1910016741076 -330.81239094997443 -1522.7641313632525 327.38373983042607 1379.2953482649446 -517.29647975055718 -2886.7276412821266 501.54784750096945 2229.0381385581009 -2070.5275334241483 -238.79836769409181 133.33560347522618 470.34141091289467 -789.53138639955637 965.69248823253588 2794.7811273662865 141.20831773842085 -1421.6494197682587 -2049.4204938616072 -967.35252375017137 -328.57048263549808 936.50254911723903 -805.45791635125306 309.80983549230245 -455.61982671521855 -29.555354127164744 -662.13809156936588 540.94250632518151 -2477.8190878731866 -488.00583736713935 -310.13721475802527 -192.95861208901636 217.69837777407699 -762.38597369586114 -1825.0588417894487 -631.34785520113428 -232.52738520735403 55.008758548177155 -2554.8393481182798 1786.5017099417892 1599.9349672953288 -1297.0284222595049 -1369.8847317435525 -841.50059521484388 -1051.3853376580832 -1633.647614849252 -1255.0578438332554 -3541.9161858974362 -3496.5967235331636 -3144.3848106971154
leaf_weight=224 2391 407 3097 221 163 214 102 206 433 125 7338 10273 166 435 260 187 445 119 228 48 95 467 85 2289 4357 239 8839 224 91 94 5013 4667 61 263 2379 59 5973 93 204 54 367 176 1800 863 355 434 39 49 39
leaf_count=224 2391 407 3097 221 163 214 102 206 433 125 7338 10273 166 435 260 187 445 119 228 48 95 467 85 2289 4357 239 8839 224 91 94 5013 4667 61 263 2379 59 5973 93 204 54 367 176 1800 863 355 434 39 49 39
internal_value=0 -1076.75 244.713 547.6 -848.271 -2638.01 7.70758 1952.37 -2342.88 -657.082 96.0042 483.624 -1310.31 510.358 2446.58 -245.422 -1166.24 -1512 -870.586 500.91 1458.15 -561.006 858.481 -537.188 19.6279 -360.921 502.993 -2788.51 14.9109 162.432 -187.683 166.132 -199.804 -2045.79 -611.752 316.916 19.3412 -2156.16 1574.75 2098.38 -1084.83 -1142.71 -814.58 -1124.68 -1738.03 -1384.61 -4113.65 -3000.35 -2576.66
internal_weight=0 12361 54389 23876 10783 1578 30513 1040 1315 7627 22622 22836 3156 19680 520 7891 1841 1315 2367 19160 520 5260 520 4793 10523 2630 19112 526 10421 12099 5261 12005 5074 789 2504 3156 10330 526 425 260 1396 404 1963 1230 474 841 263 263 263
internal_count=66750 12361 54389 23876 10783 1578 30513 1040 1315 7627 22622 22836 3156 19680 520 7891 1841 1315 2367 19160 520 5260 520 4793 10523 2630 19112 526 10421 12099 5261 12005 5074 789 2504 3156 10330 526 425 260 1396 404 1963 1230 474 841 263 263 263
is_linear=0
shrinkage=0.05


Tree=14
num_leaves=50
num_cat=0
split_feature=1 1 1 1 1 1 1 1 1 1 1 1 1 1 1 2 2 1 2 2 1 2 2 2 2 2 1 2 2 3 6 2 2 1 2 2 1 1 3 2 2 3 1 1 2 2 2 2 6
split_gain=6.3512e+12 1.70709e+12 1.295e+12 7.53072e+11 3.54429e+11 2.95729e+11 2.07842e+11 7.02083e+10 5.88374e+10 5.35332e+10 5.23853e+10 3.64671e+10 3.45243e+10 3.43138e+10 3.3743e+10 1.48894e+10 1.33427e+10 1.31689e+10 1.21825e+10 1.09487e+10 9.80506e+09 8.9976e+09 8.64555e+09 8.62172e+09 8.37479e+09 8.27227e+09 8.11174e+09 7.99005e+09 7.77943e+09 7.6227e+09 7.56007e+09 7.43703e+09 7.41656e+09 7.00028e+09 7.25837e+09 6.9511e+09 6.8252e+09 6.74483e+09 6.55017e+09 6.43538e+09 6.39076e+09 6.20096e+09 6.04268e+09 5.94534e+09 5.87139e+09 5.6486e+09 5.54766e+09 5.53155e+09 5.51323e+09
threshold=-34769.088074583247 -86627.299434947607 -6993.6111111111113 36083.790274250154 -54237.857071168277 -128804.42266202447 -21013.054461036005 11629.033551681905 -154128.82239003477 75554.770565195082 -67475.679199921506 -106929.4106578552 -14978.296316910941 -26219.124999999996 -44599.924053317161 -69687.759054503113 -52986.418308766639 -1811.7666666666662 -40141.388092087735 -29870.499999999996 53515.39783396593 -23740.173913043476 -79439.998255018596 -19272.818654133047 -9283.7499999999982 -50153.077681105271 -79439.998255018596 1920.660426357703 -60799.46325732713 75706.320884582834 1.0000000180025095e-35 -39135.644927536057 -24553.035294117642 -59339.856924649204 -67626.488517337508 -3569.4999999999995 -39609.666062274315 -98358.653357852207 1944.6875000000002 -14865.708436240737 -106864.77477297086 53688.91140299815 -30666.916666666664 -17934.623376623374 -31965.374363558425 -40670.985124265288 -16873.651875731182 11422.524346479813 1.0000000180025095e-35
decision_type=2 2 2 2 2 2 2 2 2 2 2 2 2 2 2 2 2 2 2 2 2 2 2 2 2 2 2 2 2 2 2 2 2 2 2 2 2 2 2 2 2 2 2 2 2 2 2 2 2
left_child=1 5 6 7 10 8 13 17 -1 20 15 40 24 21 18 26 33 39 28 25 29 31 37 -14 32 -16 -3 -25 -6 -5 -17 -2 -8 34 -12 -19 45 -13 -9 -4 -7 -22 -33 -34 -15 -27 -46 -37 -18
right_child=2 4 3 9 14 11 12 38 -10 -11 16 22 23 44 19 30 48 35 -20 -21 41 -23 -24 27 -26 36 -28 -29 -30 -31 -32 42 43 -35 -36 47 -38 -39 -40 -41 -42 -43 -44 -45 46 -47 -48 -49 -50
leaf_value=-3907.9660423597911 114.96565174940156 -1386.9485004340279 930.15375671386721 1637.3789117940269 -242.26913744170093 -2202.570948840726 455.54841174354607 1336.8960207487407 -2850.3358394724337 2655.0420669320915 -791.24434701632151 -1895.5704099577615 647.14825897216804 370.59253158569339 -71.842523869365252 -1313.9948274875785 -1023.9555083216085 859.46299430968929 -1034.8000309168735 -862.90413207049085 2249.1834214733494 -545.03304020051041 -2135.7609851925872 209.58712574401 -553.09710609362673 -460.80295667300726 -1123.7661365936935 -384.43543159083316 -660.89589060442177 621.38660842895513 -1687.1863955358033 -288.80469008212316 41.309976684110673 -782.06026457668418 -1060.790859464508 509.87349003194049 -391.1334693374265 -1565.0033026211504 946.72739879981327 427.12060590762331 -2614.3213049415654 1760.2992337843953 -176.96709914669 111.33925200505604 -48.573284174751869 -632.56733458297231 -424.63462483981249 162.69023156001651 -1382.8970643496186
leaf_weight=263 164 450 64 240 116 403 132 152 263 260 365 246 112 82 147 239 211 141 214 159 124 217 129 8247 52 1509 838 57 2563 20 314 2198 5671 783 791 10462 2218 414 368 9689 123 136 2681 6510 5079 701 100 116 217
leaf_count=263 164 450 64 240 116 403 132 152 263 260 365 246 112 82 147 239 211 141 214 159 124 217 129 8247 52 1509 838 57 2563 20 314 2198 5671 783 791 10462 2218 414 368 9689 123 136 2681 6510 5079 701 100 116 217
internal_value=0 -960.801 247.577 543.72 -740.478 -2377.17 41.5965 487.036 -3379.15 2069.24 -1108.85 -1976.37 133.27 -139.477 -537.237 -1308.89 -953.268 472.463 -671.769 -455.023 1776.34 -229.783 -1761.39 211.387 80.1018 -440.847 -1215.72 205.51 -642.769 1559.23 -1525.9 -216.218 82.7759 -897.495 -975.683 510.715 -453.097 -1688.21 1060.78 430.422 -2298.85 1993.46 -227.35 78.7363 -49.1881 -515.286 -55.8346 506.066 -1205.94
internal_weight=0 13676 53074 21772 11835 1841 31302 20992 526 780 4208 1315 20781 10521 7627 1841 2367 20472 2893 4734 520 5260 789 8416 12365 4575 1288 8304 2679 260 553 5043 12313 1939 1156 10719 4428 660 520 9753 526 260 4879 12181 5261 2210 5179 10578 428
internal_count=66750 13676 53074 21772 11835 1841 31302 20992 526 780 4208 1315 20781 10521 7627 1841 2367 20472 2893 4734 520 5260 789 8416 12365 4575 1288 8304 2679 260 553 5043 12313 1939 1156 10719 4428 660 520 9753 526 260 4879 12181 5261 2210 5179 10578 428
is_linear=0
shrinkage=0.05


Tree=15
num_leaves=50
num_cat=0
split_feature=1 1 1 1 1 1 1 1 1 1 1 1 1 1 1 1 2 2 2 2 3 2 2 2 2 2 2 1 2 1 2 1 2 1 2 2 1 2 3 3 2 1 0 1 3 6 2 2 1
split_gain=5.73237e+12 1.394e+12 1.319e+12 7.01451e+11 2.88295e+11 2.49208e+11 2.23637e+11 8.18622e+10 5.77593e+10 4.51964e+10 4.05491e+10 3.31807e+10 3.03004e+10 2.05479e+10 2.05409e+10 1.85681e+10 1.31419e+10 1.30455e+10 1.22508e+10 1.11071e+10 1.10792e+10 1.07251e+10 1.07004e+10 8.52199e+09 7.98607e+09 7.86038e+09 7.78592e+09 7.67338e+09 7.38236e+09 7.96811e+09 7.34574e+09 7.32487e+09 6.80029e+09 7.62842e+09 6.75744e+09 6.37027e+09 6.35055e+09 6.14176e+09 5.81549e+09 5.76634e+09 5.63384e+09 5.5481e+09 5.40337e+09 5.39164e+09 5.35346e+09 5.29895e+09 5.15895e+09 5.13353e+09 5.12247e+09
threshold=-38585.558471946752 -91975.864191515589 -10737.347491225788 22527.299092491641 -60759.187338658725 -25144.724358974356 -154128.82239003477 53515.39783396593 -115473.29103050711 -50125.977972664732 -18040.29210621044 -4312.5833333333312 -73985.40713926639 4239.7761033229262 75554.770565195082 -33394.833333333321 -76524.704916238319 -60799.46325732713 -48411.205199798947 11422.524346479813 53688.91140299815 -38054.032761622097 22247.07859364746 -29870.499999999996 -14865.708436240737 -28230.999999999996 -2236.8749999999995 -43423.358162484263 -7551.5260215530607 -14337.582445079941 -36961.741673583332 -128804.42266202447 -91785.210027776964 -106929.4106578552 -14333.79403353698 -22221.882198102165 -676.49999999999989 -55379.991798825817 75706.320884582834 -86563.779661728753 -65857.614921882385 -21013.054461036005 1.0000000180025095e-35 36083.790274250154 -115473.29103050711 1.0000000180025095e-35 -115374.15816109559 -44603.177168818038 -69594.839302531313
decision_type=2 2 2 2 2 2 2 2 2 2 2 2 2 2 2 2 2 2 2 2 2 2 2 2 2 2 2 2 2 2 2 2 2 2 2 2 2 2 2 2 2 2 2 2 2 2 2 2 2
left_child=1 6 5 11 12 15 42 20 31 18 23 26 16 19 38 25 -3 39 40 36 43 27 -15 -7 41 47 34 37 29 -12 -17 44 33 -10 -4 -32 -13 -11 -9 -14 -6 -25 -1 -5 -8 -20 -33 -2 -41
right_child=2 4 3 7 9 10 8 14 32 21 28 13 17 22 -16 30 -18 -19 45 -21 -22 -23 -24 24 -26 -27 -28 -29 -30 -31 35 46 -34 -35 -36 -37 -38 -39 -40 48 -42 -43 -44 -45 -46 -47 -48 -49 -50
leaf_value=-3807.1331891741074 0.21598920085213402 -1247.5202510693127 693.51978469848643 1258.8453541337096 -453.83727251766652 429.40221271050177 -2599.8745162821265 2014.8573656989536 -1977.8054149980305 -249.40792586320367 113.40820812076011 440.9511772330477 -700.17641454489831 876.48788875536002 2522.2900939002407 118.66852758539486 -1576.7318223397942 -1287.6793416981216 -878.56766020122325 -310.24839435333905 832.67966480255132 -724.38690275688305 263.12491405262671 -35.439549236250173 -415.96634243315305 -788.00731589577424 -171.23520438111859 -419.19085722743915 -296.25502629280089 193.9961786934287 -188.23184303042277 -2180.2886178054378 -2096.7259375000003 -1611.1120803007034 313.07743853928616 -475.46171500362573 507.74923376202935 -577.67964976725239 1431.9232478389035 -1170.592706598183 -760.81170980580646 40.42293018704914 -3169.4220452724362 1615.3077187332453 -3179.2502391581634 -1243.7685262680054 -2652.3435796693316 -349.02901603284334 -947.58300409062849
leaf_weight=224 110 841 120 221 163 118 214 206 238 153 8129 12882 166 435 260 188 474 445 228 47 95 562 85 4329 113 99 81 1946 96 4926 4872 177 200 351 4270 201 4916 2073 54 367 1800 5437 39 204 49 176 86 2421 863
leaf_count=224 110 841 120 221 163 118 214 206 238 153 8129 12882 166 435 260 188 474 445 228 47 95 562 85 4329 113 99 81 1946 96 4926 4872 177 200 351 4270 201 4916 2073 54 367 1800 5437 39 204 49 176 86 2421 863
internal_value=0 -998.098 215.105 494.5 -785.254 0.186703 -2381.58 1764.43 -2115.39 -608.533 82.906 436.665 -1182.88 466.403 2208.04 -242.468 -1366.19 -1051.94 -786.926 457.374 1320.83 -519.337 776.227 7.00479 1.95946 -350.946 314.514 -491.715 140.604 143.816 -188.239 -2521.23 -1844.82 -1759.28 323.477 -199.612 459.402 -555.116 1893.79 -976.792 -735.322 6.79517 -3712.57 1429.95 -2707.82 -1037.67 -2334.65 -333.85 -1014.12
internal_weight=0 11835 54915 23876 10257 31039 1578 1040 1315 7101 23148 22836 3156 18365 520 7891 1315 1841 2367 17845 520 4734 520 9997 9879 2630 4471 4172 13151 13055 5261 526 789 589 4390 5073 17798 2226 260 1396 1963 9766 263 425 263 404 263 2531 1230
internal_count=66750 11835 54915 23876 10257 31039 1578 1040 1315 7101 23148 22836 3156 18365 520 7891 1315 1841 2367 17845 520 4734 520 9997 9879 2630 4471 4172 13151 13055 5261 526 789 589 4390 5073 17798 2226 260 1396 1963 9766 263 425 263 404 263 2531 1230
is_linear=0
shrinkage=0.05


Tree=16
num_leaves=50
num_cat=0
split_feature=1 1 1 1 1 1 1 1 1 1 1 1 1 1 1 1 2 2 2 2 3 2 1 1 2 2 2 2 2 2 2 2 2 2 1 2 1 2 2 2 3 1 2 1 2 0 1 2 2
split_gain=5.17453e+12 1.39339e+12 1.05656e+12 6.13721e+11 2.89949e+11 2.40085e+11 1.69549e+11 7.38806e+10 4.8385e+10 4.79234e+10 3.22493e+10 2.95047e+10 2.33406e+10 2.25498e+10 1.99656e+10 1.85381e+10 1.37745e+10 1.21787e+10 1.21729e+10 1.14458e+10 9.99895e+09 9.65711e+09 9.63287e+09 8.89497e+09 8.46005e+09 7.67939e+09 7.53833e+09 7.23799e+09 7.2363e+09 7.23186e+09 6.7705e+09 6.7013e+09 6.44916e+09 6.38771e+09 6.3592e+09 6.34104e+09 6.08023e+09 5.97895e+09 5.66425e+09 5.57034e+09 5.32094e+09 5.19387e+09 5.1587e+09 4.97697e+09 4.92468e+09 4.87654e+09 4.86595e+09 4.84641e+09 4.82196e+09
threshold=-34769.088074583247 -86627.299434947607 -6993.6111111111113 22527.299092491641 -53037.226845272737 -128804.42266202447 -21788.858085693548 53515.39783396593 -65760.454384922836 -154128.82239003477 -15533.683316001558 -106929.4106578552 -42260.273546622571 -27003.499999999996 4239.7761033229262 75554.770565195082 -62319.252019619409 11422.524346479813 -50986.823550696005 -39135.644927536057 53688.91140299815 22247.07859364746 -1766.8571428571427 -76542.708234768157 -34242.600396678165 -86563.779661728753 -23740.173913043476 -29870.499999999996 -56814.170318433156 -19400.692577668004 -7551.5260215530607 -86563.779661728753 1920.660426357703 -45244.972669826435 -48401.928355788608 -38054.032761622097 -12071.227515716566 -74053.693047076275 -106864.77477297086 -15787.511020841455 53688.91140299815 -59339.856924649204 -79439.998255018596 -18897.763031327177 -128577.29818295802 1.0000000180025095e-35 36083.790274250154 -1935.6923076923074 -12651.533850151591
decision_type=2 2 2 2 2 2 2 2 2 2 2 2 2 2 2 2 2 2 2 2 2 2 2 2 2 2 2 2 2 2 2 2 2 2 2 2 2 2 2 2 2 2 2 2 2 2 2 2 2
left_child=1 5 6 14 8 9 13 20 16 45 27 38 19 26 17 40 23 22 37 28 46 47 39 31 33 -13 35 -8 -6 -12 43 -3 36 -14 -30 -2 -31 -10 -7 -4 -9 -39 -25 -29 -11 -1 -5 -16 -15
right_child=2 4 3 7 12 11 10 15 18 44 29 25 24 48 21 -17 -18 -19 -20 -21 -22 -23 -24 42 -26 -27 -28 30 34 32 -32 -33 -34 -35 -36 -37 -38 41 -40 -41 -42 -43 -44 -45 -46 -47 -48 -49 -50
leaf_value=-3616.7765485491072 71.818442817818593 -1001.8255071695035 888.08737989153178 1195.9030746071587 -273.75183104256791 -1985.1721585181451 570.19758221169366 2035.9812916417277 -385.68415425059561 -2456.071151194853 559.68012723846437 -1488.9271989585711 -108.02901861126685 -56.764527569111607 1164.068471180309 2396.1754938213644 -1467.448170436847 -326.24591403537329 -1092.477785846894 -863.62939448972963 791.04568090338455 249.96866831162399 459.94162832028974 -790.19694616308493 -583.98587555966139 -1827.5943150690484 -541.39448322917144 18.678587011578781 -656.91318223600047 150.9592235878722 -555.52168497720118 -1337.6265485088643 -353.36190779836556 -377.2334061536622 -507.22019598645448 -216.7899218414837 234.75509630605211 -889.87725496194253 -2372.8125539888215 388.01140751097898 1583.1143714455998 -724.12521584138642 -1068.7993897692288 84.715562160037621 -2974.7469213453392 -3010.9509515224363 1534.5423182468789 748.61842162272433 -536.37453305227859
leaf_weight=224 199 208 56 221 240 403 69 124 91 204 125 548 238 4682 88 260 311 54 374 294 95 85 10157 206 472 241 172 4681 1080 6232 45 520 57 2972 2068 4363 3317 877 123 9945 136 1025 859 7307 59 39 204 347 53
leaf_count=224 199 208 56 221 240 403 69 124 91 204 125 548 238 4682 88 260 311 54 374 294 95 85 10157 206 472 241 172 4681 1080 6232 45 520 57 2972 2068 4363 3317 877 123 9945 136 1025 859 7307 59 39 204 347 53
internal_value=0 -867.244 223.47 490.962 -668.19 -2146.87 37.4159 1676.21 -985.805 -3049.68 114.051 -1785.75 -475.352 -139.284 431.506 2097.64 -1160.27 423.635 -830.729 -564.369 1254.79 737.415 425.644 -1106.99 -386.336 -1592.37 -216.452 59.5601 -538.4 181.819 56.632 -1241.68 176.902 -357.274 -558.576 -204.2 180.067 -781.61 -2075.82 390.812 1799.1 -800.552 -1014.91 58.9299 -2572.43 -3526.94 1358.45 832.663 -62.1329
internal_weight=0 13676 53074 21772 11835 1841 31302 1040 4471 526 21833 1315 7364 9469 20732 520 2104 20212 2367 3682 520 520 20158 1793 3682 789 4734 12102 3388 9731 12033 728 9606 3210 3148 4562 9549 1993 526 10001 260 1902 1065 11988 263 263 425 435 4735
internal_count=66750 13676 53074 21772 11835 1841 31302 1040 4471 526 21833 1315 7364 9469 20732 520 2104 20212 2367 3682 520 520 20158 1793 3682 789 4734 12102 3388 9731 12033 728 9606 3210 3148 4562 9549 1993 526 10001 260 1902 1065 11988 263 263 425 435 4735
is_linear=0
shrinkage=0.05


Tree=17
num_leaves=50
num_cat=0
split_feature=1 1 1 1 1 1 1 1 1 1 1 1 1 1 1 1 3 2 2 3 3 2 2 2 1 2 2 2 2 2 2 6 1 1 1 2 2 1 6 2 2 2 1 2 3 2 1 4 1
split_gain=4.67412e+12 1.17314e+12 1.03804e+12 5.66922e+11 2.52921e+11 1.86791e+11 1.81673e+11 6.66773e+10 4.7684e+10 3.55948e+10 3.03348e+10 2.93955e+10 2.23927e+10 1.89328e+10 1.67307e+10 1.65835e+10 1.21606e+10 1.15516e+10 1.0763e+10 9.37321e+09 8.79266e+09 8.72627e+09 8.71554e+09 8.32783e+09 8.00844e+09 7.18217e+09 6.95253e+09 6.42706e+09 6.14273e+09 6.0233e+09 5.99257e+09 5.87834e+09 5.86657e+09 5.69413e+09 5.65971e+09 5.61375e+09 5.46972e+09 5.4555e+09 5.42611e+09 5.40453e+09 5.35779e+09 5.35053e+09 5.30162e+09 5.15549e+09 4.99331e+09 4.83076e+09 5.35465e+09 4.79284e+09 4.65748e+09
threshold=-37518.010465990192 -91975.864191515589 -10074.245196175489 22527.299092491641 -58068.067629424491 -23728.054236465858 -154128.82239003477 53515.39783396593 -115473.29103050711 -71858.709302918855 -47488.015849668293 -16994.760111028569 -4110.8214285714275 -29858.085800517387 75554.770565195082 4239.7761033229262 -91543.337076567434 -46734.700151061072 -58049.842641175994 36142.004851459722 -41224.322724089252 4239.7761033229262 22247.07859364746 -27785.385889310044 -82750.596335826704 -13459.455711266482 -28600.489220563846 1920.660426357703 -22686.841034418012 -69687.759054503113 -91785.210027776964 1.0000000180025095e-35 -98358.653357852207 233.50000000000003 -128804.42266202447 -44603.177168818038 -64141.830508931336 -53037.226845272737 1.0000000180025095e-35 -7023.6425816149349 -51918.479903764499 -14333.79403353698 -13930.518751660155 -20665.700409463145 75706.320884582834 -76524.704916238319 -65760.454384922836 -153141.60974614747 -19838.351134147921
decision_type=2 2 2 2 2 2 2 2 2 2 2 2 2 2 2 2 2 2 2 2 2 2 2 2 2 2 2 2 2 2 2 2 2 2 2 2 2 2 2 2 2 2 2 2 2 2 2 2 2
left_child=1 6 5 12 9 13 -1 19 34 16 17 25 27 23 44 21 -3 36 45 -5 40 33 -17 35 -18 26 -7 41 -13 -26 32 -19 -10 -14 47 -2 -6 -38 -20 42 -12 -4 -30 -15 -9 -11 -47 -8 -28
right_child=2 4 3 7 10 11 8 14 30 18 20 28 15 43 -16 22 24 31 38 -21 -22 -23 -24 -25 29 -27 48 -29 39 -31 -32 -33 -34 -35 -36 -37 37 -39 -40 -41 -42 -43 -44 -45 -46 46 -48 -49 -50
leaf_value=-3350.5923842977663 97.101363113625297 -923.5440998515146 671.43186182925581 1369.5747258304773 -295.02553282689007 439.00970394061164 -1954.1858677455359 1821.3287610248456 -1679.6214419745961 -578.21083149682909 -109.5647225960323 559.21088022753099 404.98747480782413 -104.58324236590454 2276.3666851337143 791.03031585079498 -1470.5986184009644 -735.2693063248596 -932.27974457047958 938.20634755642629 -518.06443143952208 -40.416123944237121 237.47023827272301 -547.73162023922634 -1107.9349324020925 -409.11568672220392 -7.9129022683407619 -313.93174289437229 113.93328998226785 -1387.1997440011162 -1901.6743215332031 -1088.155468035759 -1322.0082231570514 485.9129334983586 -2115.783605446471 -255.93012428828649 -720.51491412651251 -552.26030672151751 -1271.349292505088 -233.71645921073701 -396.28026707515301 291.8398667298722 183.96113177088984 -386.11473480765903 1281.1713819715712 -982.96315132919062 -786.14017209384986 -2536.8567696549776 57.918669489588119
leaf_weight=263 116 305 95 306 137 104 42 206 433 168 175 88 14933 4303 260 435 371 317 234 214 1932 105 85 242 622 93 4892 43 6499 280 200 188 156 2544 263 3850 820 1168 238 96 2364 4070 4627 169 54 559 905 221 5960
leaf_count=263 116 305 95 306 137 104 42 206 433 168 175 88 14933 4303 260 435 371 317 234 214 1932 105 85 242 622 93 4892 43 6499 280 200 188 156 2544 263 3850 820 1168 238 96 2364 4070 4627 169 54 559 905 221 5960
internal_value=0 -877.653 199.464 451.309 -691.315 10.0073 -2150.96 1592.4 -1911.04 -1027.6 -516.943 86.4309 398.115 -186.854 1992.75 422.267 -1207.11 -651.686 -892.969 1192.05 -437.683 414.037 700.545 -262.98 -1275.05 28.4274 32.1415 294.219 143.096 -1194.62 -1665.2 -866.641 -1584.91 416.767 -2279.8 -245.604 -600.603 -621.661 -1103.25 139.833 -376.518 300.498 143.056 -115.223 1709.14 -832.152 -861.293 -2443.81 28.2423
internal_weight=0 12361 54389 23350 10783 31039 1578 1040 1315 3682 7101 22359 22310 8680 520 18102 1578 2630 2104 520 4471 17582 520 4208 1273 11049 10956 4208 11310 902 789 505 589 17477 526 3966 2125 1988 472 11222 2539 4165 11126 4472 260 1632 1464 263 10852
internal_count=66750 12361 54389 23350 10783 31039 1578 1040 1315 3682 7101 22359 22310 8680 520 18102 1578 2630 2104 520 4471 17582 520 4208 1273 11049 10956 4208 11310 902 789 505 589 17477 526 3966 2125 1988 472 11222 2539 4165 11126 4472 260 1632 1464 263 10852
is_linear=0
shrinkage=0.05


Tree=18
num_leaves=50
num_cat=0
split_feature=1 1 1 1 1 1 1 1 1 1 1 1 1 1 1 2 2 2 2 2 2 2 1 3 2 1 2 1 2 3 2 2 1 3 1 1 1 2 2 1 2 2 3 2 0 3 1 2 1
split_gain=4.22087e+12 1.02609e+12 9.69781e+11 5.18166e+11 2.11844e+11 1.80523e+11 1.6396e+11 5.01974e+10 4.30348e+10 3.49008e+10 3.29705e+10 2.8524e+10 2.61811e+10 2.25487e+10 1.39276e+10 1.09333e+10 1.03029e+10 9.6069e+09 8.89626e+09 8.48254e+09 6.98909e+09 6.95276e+09 6.73795e+09 6.68044e+09 6.46396e+09 6.38537e+09 6.33183e+09 6.18065e+09 6.15604e+09 5.78505e+09 5.7011e+09 5.40829e+09 5.47994e+09 5.37154e+09 5.2058e+09 5.10789e+09 5.05535e+09 5.05161e+09 5.00512e+09 4.82222e+09 4.76748e+09 4.72444e+09 4.51125e+09 4.47523e+09 4.40108e+09 4.38772e+09 4.37176e+09 4.35143e+09 4.80012e+09
threshold=-38585.558471946752 -91975.864191515589 -11070.202424016748 36083.790274250154 -60759.187338658725 -25144.724358974356 -154128.82239003477 11629.033551681905 -115473.29103050711 75554.770565195082 -50125.977972664732 -17581.071428571424 -5463.2252606651664 -73985.40713926639 -32949.199263369315 -71920.371022517924 -60799.46325732713 -48411.205199798947 -36458.214285714283 -11348.475946275945 -29870.499999999996 -28230.999999999996 -1387.4999999999998 75706.320884582834 -55379.991798825817 53515.39783396593 -7551.5260215530607 -43423.358162484263 -36458.214285714283 22496.025441625523 -7551.5260215530607 -91785.210027776964 -106929.4106578552 -91543.337076567434 -20646.634334157101 -128804.42266202447 22527.299092491641 -22221.882198102165 -22221.882198102165 -82750.596335826704 -65857.614921882385 -4100.8015627781197 -83026.633195083865 -115374.15816109559 1.0000000180025095e-35 -115473.29103050711 -14481.188757325826 11422.524346479813 4239.7761033229262
decision_type=2 2 2 2 2 2 2 2 2 2 2 2 2 2 2 2 2 2 2 2 2 2 2 2 2 2 2 2 2 2 2 2 2 2 2 2 2 2 2 2 2 2 2 2 2 2 2 2 2
left_child=1 6 5 7 13 14 44 12 35 23 17 20 41 15 21 33 42 40 24 -14 -7 -2 -21 25 -12 -5 34 -26 -16 36 38 32 -10 -3 -22 45 -9 -30 -13 -35 -6 -4 -15 -37 -1 -8 -40 48 -24
right_child=2 4 3 9 10 11 8 29 31 -11 18 30 19 16 28 -17 -18 -19 -20 22 26 -23 47 -25 27 -27 -28 -29 37 -31 -32 -33 -34 39 -36 43 -38 -39 46 -41 -42 -43 -44 -45 -46 -47 -48 -49 -50
leaf_value=-3268.4081159319198 -279.41422850257953 -904.67750793963796 251.41825651693458 1350.7803181425732 -370.09252115787905 386.62420995448667 -2223.8919417621933 843.6310948677434 -1690.8706990217961 2162.5484743088941 -139.87075330551633 487.94027373464883 839.08999018351244 -642.05032242924335 125.84464724050986 -1441.5032297977787 -1111.2446804226652 -896.7690897724417 -687.27857909498925 362.80810602539361 -28.16953494712201 -679.50741655467891 421.17261513133872 1013.0879265656342 -500.00906071986839 1730.2623540193135 -559.49401693537982 -378.58341085144252 -157.49027787691026 649.07028169140381 -284.4785637979034 -1806.5905903320313 -1380.076000072338 -1318.8226180525016 41.376913900460004 -1866.2263156007241 1251.8847987874351 -416.02967846865397 97.471540141450077 -1060.3100991385325 -652.47943788740372 -86.147021995972253 -876.84040616882703 -2305.8890534156976 -2692.8737930689103 -2748.4123246173472 159.50909562785554 117.027482903522 689.66037290685324
leaf_weight=224 2780 271 3312 240 163 123 214 206 238 260 188 95 105 249 185 294 445 404 354 11007 4882 113 8023 74 2105 206 49 2087 4616 194 85 200 351 302 5995 177 120 197 6758 448 1800 107 1147 86 39 49 4898 115 170
leaf_count=224 2780 271 3312 240 163 123 214 206 238 260 188 95 105 249 185 294 445 404 354 11007 4882 113 8023 74 2105 206 49 2087 4616 194 85 200 351 302 5995 177 120 197 6758 448 1800 107 1147 86 39 49 4898 115 170
internal_value=0 -856.459 184.58 421.831 -673.85 -1.50686 -2043.42 379.499 -1815.49 1689.55 -522.363 69.6016 368.439 -1014.7 -207.731 -1172.83 -901.744 -674.729 -446.18 390.901 11.8265 -295.042 388.465 1453.06 -426.694 1526.06 7.60715 -439.557 -157.193 865.257 123.535 -1581.94 -1505.66 -1095.47 10.1619 -2165.81 993.909 -168.073 126.486 -1164.4 -629.031 240.854 -834.962 -2009.99 -3183.06 -2321.62 123.541 422.456 426.744
internal_weight=0 11835 54915 24139 10257 30776 1578 23359 1315 780 7101 22885 22839 3156 7891 1315 1841 2367 4734 19420 11049 2893 19315 520 4380 446 10926 4192 4998 520 11836 789 589 1021 10877 526 326 4813 11751 750 1963 3419 1396 263 263 263 11656 8308 8193
internal_count=66750 11835 54915 24139 10257 30776 1578 23359 1315 780 7101 22885 22839 3156 7891 1315 1841 2367 4734 19420 11049 2893 19315 520 4380 446 10926 4192 4998 520 11836 789 589 1021 10877 526 326 4813 11751 750 1963 3419 1396 263 263 263 11656 8308 8193
is_linear=0
shrinkage=0.05


Tree=19
num_leaves=50
num_cat=0
split_feature=1 1 1 1 1 1 1 1 1 1 1 1 1 1 1 2 2 2 2 1 2 1 2 2 2 3 2 1 2 3 2 2 2 2 1 2 2 2 2 3 1 2 4 2 2 1 0 2 1
split_gain=3.80935e+12 1.05615e+12 7.51819e+11 4.53519e+11 2.04706e+11 1.99499e+11 1.10037e+11 4.219e+10 3.52281e+10 3.1498e+10 3.11227e+10 3.06716e+10 2.00096e+10 1.84834e+10 1.77391e+10 1.06331e+10 1.06078e+10 1.01968e+10 9.20406e+09 8.30282e+09 7.18137e+09 7.07137e+09 6.46567e+09 6.0859e+09 6.04935e+09 6.0291e+09 5.89163e+09 5.7628e+09 5.58107e+09 5.50611e+09 5.3521e+09 5.31367e+09 5.26825e+09 5.173e+09 5.07301e+09 4.98834e+09 4.97908e+09 4.82442e+09 4.57761e+09 4.53915e+09 4.50886e+09 4.38883e+09 4.23513e+09 4.20552e+09 4.12584e+09 4.0309e+09 3.97197e+09 3.82575e+09 3.8283e+09
threshold=-33819.874428802206 -82750.596335826704 -6993.6111111111113 36083.790274250154 -128804.42266202447 -51918.997401350585 -20492.714285714283 11629.033551681905 -154128.82239003477 75554.770565195082 -98358.653357852207 -65760.454384922836 -25843.661753374614 -14978.296316910941 -41696.350403877215 -46001.34274300134 -79439.998255018596 -64141.830508931336 -39135.644927536057 -1977.9718329956374 -32434.439319729103 -115473.29103050711 -55379.991798825817 -45244.972669826435 -19272.818654133047 75706.320884582834 -13307.663395294423 53515.39783396593 -98321.768085956428 1944.6875000000002 -5810.7517882709717 -36961.741673583332 -69687.759054503113 -7551.5260215530607 -58068.067629424491 -24553.035294117642 -16873.651875731182 -32950.826226012789 -15787.511020841455 -86563.779661728753 -71858.709302918855 -9283.7499999999982 -153141.60974614747 793.71176470588273 -106864.77477297086 -46750.383739834746 1.0000000180025095e-35 11422.524346479813 639.28571428571433
decision_type=2 2 2 2 2 2 2 2 2 2 2 2 2 2 2 2 2 2 2 2 2 2 2 2 2 2 2 2 2 2 2 2 2 2 2 2 2 2 2 2 2 2 2 2 2 2 2 2 2
left_child=1 4 6 7 8 11 12 19 46 25 21 17 26 35 18 32 -12 39 22 38 23 44 -7 -16 -15 27 31 -5 -23 -9 -26 -2 -13 -21 -34 -8 37 -14 -4 -3 -41 -37 -10 -40 -6 -24 -1 48 -35
right_child=2 5 3 9 10 14 13 29 42 -11 16 15 36 24 20 -17 -18 -19 -20 33 -22 28 45 -25 30 -27 -28 -29 -30 -31 -32 -33 34 47 -36 41 -38 -39 43 40 -42 -43 -44 -45 -46 -47 -48 -49 -50
leaf_value=-3104.9875749860494 88.979129016687338 -738.82146589935803 783.57233753551145 1283.241279932658 -1826.861093357631 -202.08831118704782 390.56456915863879 1075.1531861957751 -1745.281982421875 2054.4209647310699 -1146.8689766176285 -442.11579722176612 410.0424085855488 528.12820963178365 -37.719117388479027 -1034.2989419099972 -1568.321764404297 -1208.380723490568 -724.71990183371088 758.82376448313403 -538.00018522951029 -1489.0914022242769 -532.25420766274442 -313.24330325781352 163.60116794527806 962.43351213609867 -679.35343400435022 1643.7492427492607 -1849.8213971354166 717.42891389131546 -139.79236865688267 -169.82527548534344 -774.66962278244728 380.32239082567799 -622.13228717905235 64.387639559261373 -358.26653787748825 -26.539784393789791 328.91448161284552 -1040.5990318674678 -843.23771977592924 -424.98399777620546 -2293.0044798147624 -87.719030599125105 -2384.1079927884616 -416.87748244128147 -2558.2300530849361 105.80684493627305 457.60035076319986
leaf_weight=224 207 305 55 240 224 252 117 152 42 260 589 226 64 112 213 221 200 357 324 96 338 376 1307 3394 8156 74 55 206 150 368 148 4736 1053 9645 1130 11413 112 5610 8576 669 510 46 221 61 39 1799 39 117 1922
leaf_count=224 207 305 55 240 224 252 117 152 42 260 589 226 64 112 213 221 200 357 324 96 338 376 1307 3394 8156 74 55 206 150 368 148 4736 1053 9645 1130 11413 112 5610 8576 669 510 46 221 61 39 1799 39 117 1922
internal_value=0 -726.563 196.366 421.223 -1760.5 -546.748 37.2948 377.234 -2614.72 1605.08 -1475.75 -811.939 -91.4326 106.732 -391.292 -702.371 -1253.7 -968.465 -470.221 365.937 -317.624 -1697.81 -445.666 -296.973 163.117 1380.4 -164.714 1449.75 -1591.96 821.994 158.194 -158.987 -671.92 393.289 -695.711 65.7397 -28.1319 -21.6153 328.867 -910.75 -955.226 62.4231 -2205.54 325.972 -1909.49 -465.428 -3023.91 390.286 393.163
internal_weight=0 14202 52548 21772 2104 12098 30776 20992 526 780 1578 4471 10784 19992 7627 2630 789 1841 3682 20472 3945 789 3358 3607 8416 520 4998 446 526 520 8304 4943 2409 11780 2183 11576 5786 5674 8692 1484 1179 11459 263 8637 263 3106 263 11684 11567
internal_count=66750 14202 52548 21772 2104 12098 30776 20992 526 780 1578 4471 10784 19992 7627 2630 789 1841 3682 20472 3945 789 3358 3607 8416 520 4998 446 526 520 8304 4943 2409 11780 2183 11576 5786 5674 8692 1484 1179 11459 263 8637 263 3106 263 11684 11567
is_linear=0
shrinkage=0.05


Tree=20
num_leaves=50
num_cat=0
split_feature=1 1 1 1 1 1 1 1 1 1 1 1 1 1 1 1 2 2 2 3 2 2 2 2 2 2 2 2 2 2 2 2 1 6 2 1 2 1 6 2 1 2 1 3 2 1 2 2 1
split_gain=3.44118e+12 8.36433e+11 7.91262e+11 4.23414e+11 1.72561e+11 1.46483e+11 1.33338e+11 4.88671e+10 3.48395e+10 2.68935e+10 2.24599e+10 2.14344e+10 1.84593e+10 1.34857e+10 1.24565e+10 1.20905e+10 9.52063e+09 8.7751e+09 8.73129e+09 8.19015e+09 7.97073e+09 7.85531e+09 7.31918e+09 6.78285e+09 5.75993e+09 5.2518e+09 5.23324e+09 5.03382e+09 4.82442e+09 4.81838e+09 4.76413e+09 4.75375e+09 5.2468e+09 4.65603e+09 4.63182e+09 4.6777e+09 4.62835e+09 4.61711e+09 4.57737e+09 4.33564e+09 4.16041e+09 4.03661e+09 5.02353e+09 3.98138e+09 3.94487e+09 3.93496e+09 3.92987e+09 3.92533e+09 4.30677e+09
threshold=-38585.558471946752 -91975.864191515589 -11070.202424016748 22527.299092491641 -60759.187338658725 -24554.201960784307 -154128.82239003477 53515.39783396593 -115473.29103050711 -49285.97122167104 -4733.5497667559348 -17229.099999999995 -73985.40713926639 -31958.333333333328 4239.7761033229262 75554.770565195082 -76524.704916238319 -48411.205199798947 -60799.46325732713 36142.004851459722 4239.7761033229262 -39135.644927536057 11422.524346479813 -29428.986538461537 -28230.999999999996 -13459.455711266482 -34769.088074583247 -14066.1689801131 -11348.475946275945 -8785.6893396917676 -13307.663395294423 -52986.418308766639 -43963.165930499286 1.0000000180025095e-35 -91785.210027776964 -106929.4106578552 1920.660426357703 -584.49999999999989 1.0000000180025095e-35 -42832.322829357909 -128804.42266202447 -65857.614921882385 -53037.226845272737 53688.91140299815 -59355.756010879202 -19838.351134147921 -128577.29818295802 -76524.704916238319 -69594.839302531313
decision_type=2 2 2 2 2 2 2 2 2 2 2 2 2 2 2 2 2 2 2 2 2 2 2 2 2 2 2 2 2 2 2 2 2 2 2 2 2 2 2 2 2 2 2 2 2 2 2 2 2
left_child=1 6 5 10 12 13 -1 19 40 17 27 24 16 23 20 43 -3 41 47 -5 28 31 -16 39 -7 45 -15 -4 -12 -13 -28 -11 -33 -19 35 -10 -29 -30 -23 -2 46 -6 -43 -9 -18 -26 -8 -14 -49
right_child=2 4 3 7 9 11 8 15 34 21 14 29 18 26 22 -17 44 33 -20 -21 -22 38 -24 -25 25 -27 30 36 37 -31 -32 32 -34 -35 -36 -37 -38 -39 -40 -41 -42 42 -44 -45 -46 -47 -48 48 -50
leaf_value=-2872.7140476473387 7.072054988773246 -958.15078713579214 545.91202932634667 1191.0723004708882 -318.45818643627058 340.55521136873392 -1991.3164268344055 1674.415273358745 -1529.8263889344801 -142.94692041970154 745.38996018035505 118.33716953088748 -570.67097691049389 119.27191162719819 761.7674640197755 1951.6998958220847 -1180.3426153444777 -663.36451588948569 -1006.737571047665 787.84480922378123 -75.307653421384316 -478.85391381955617 382.07583873401995 -533.86588704377698 -12.855053160424289 -351.22951224970029 -131.84227603291512 228.22079940812907 339.18500177288979 -215.75057235683462 -576.55471771739303 -449.78268493988355 -326.0939736144424 -975.75619303385417 -1637.2004484863282 -1242.6809963302396 -276.1662716907004 397.21322482161304 -776.30202891652186 -251.6742561248476 -1814.0199619771863 -637.32362327230328 -472.7588631774903 1282.6795096004712 -1596.9947628136838 46.753739735163308 -2454.6524480270127 -951.80261541628374 -732.87812865195201
leaf_weight=263 171 841 124 306 167 136 204 124 238 223 79 10938 245 207 300 260 408 300 445 214 108 612 220 206 5639 98 4730 4038 13601 109 61 1544 1928 198 200 351 46 4583 164 3042 263 1215 750 136 66 5439 59 306 845
leaf_count=263 171 841 124 306 167 136 204 124 238 223 79 10938 245 207 300 260 408 300 445 214 108 612 220 206 5639 98 4730 4038 13601 109 61 1544 1928 198 200 351 46 4583 164 3042 263 1215 750 136 66 5439 59 306 845
internal_value=0 -773.321 166.662 380.966 -608.449 -1.42645 -1844.98 1367.87 -1639.44 -471.727 336.533 65.5018 -916.075 -179.215 359.802 1710.6 -1059.15 -598.597 -813.876 1025.13 352.971 -397.098 601.129 -255.736 17.1233 13.1875 -126.87 232.069 355.504 115.041 -137.504 -366.726 -381.098 -787.568 -1429.3 -1358.71 222.54 353.81 -541.717 -237.903 -1954.64 -554.456 -574.513 1469.51 -1238.36 16.4113 -2095.26 -752.398 -791.08
internal_weight=0 11835 54915 24139 10257 30776 1578 1040 1315 7101 23099 22359 3156 8417 18891 520 1315 2630 1841 520 18371 4471 520 3419 11312 11176 4998 4208 18263 11047 4791 3695 3472 498 789 589 4084 18184 776 3213 526 2132 1965 260 474 11078 263 1396 1151
internal_count=66750 11835 54915 24139 10257 30776 1578 1040 1315 7101 23099 22359 3156 8417 18891 520 1315 2630 1841 520 18371 4471 520 3419 11312 11176 4998 4208 18263 11047 4791 3695 3472 498 789 589 4084 18184 776 3213 526 2132 1965 260 474 11078 263 1396 1151
is_linear=0
shrinkage=0.05


Tree=21
num_leaves=50
num_cat=0
split_feature=1 1 1 1 1 1 1 1 1 1 1 1 1 1 1 1 2 2 2 3 2 2 2 2 3 2 2 2 2 3 2 1 6 2 2 1 2 2 1 2 1 2 2 1 2 4 2 6 1
split_gain=3.10638e+12 7.90981e+11 6.78102e+11 3.78854e+11 1.50728e+11 1.42549e+11 1.16979e+11 3.58048e+10 2.86935e+10 2.53143e+10 2.27723e+10 1.98582e+10 1.81258e+10 1.45576e+10 1.38833e+10 1.19703e+10 1.07517e+10 9.90447e+09 8.32619e+09 7.06623e+09 5.99108e+09 5.65944e+09 5.44793e+09 5.34803e+09 5.3304e+09 5.06151e+09 5.02874e+09 4.95684e+09 4.82019e+09 4.64469e+09 4.52818e+09 4.45451e+09 4.40694e+09 4.35665e+09 4.16641e+09 4.74577e+09 4.06043e+09 4.03855e+09 4.01467e+09 4.60107e+09 4.00412e+09 3.96271e+09 3.95933e+09 4.70444e+09 3.93807e+09 3.73188e+09 3.71924e+09 3.65697e+09 3.6169e+09
