tree
version=v4
num_class=1
num_tree_per_iteration=1
label_index=0
max_feature_idx=17
objective=regression
feature_names=is_weekend surplus surplus_lag_1 surplus_lag_2 surplus_lag_3 surplus_lag_4 surplus_lag_7 surplus_lag_14 is_holiday series_id_DE series_id_DK series_id_HU series_id_IT series_id_NE series_id_PO series_id_SE series_id_SP series_id_UK
feature_infos=[0:1] [-215915.5143690921:117036.53161415138] [-215915.5143690921:117036.53161415138] [-215915.5143690921:117036.53161415138] [-215915.5143690921:117036.53161415138] [-215915.5143690921:117036.53161415138] [-215915.5143690921:116469.2273451318] [-215915.5143690921:121161.16855697852] [0:1] [0:1] [0:1] [0:1] [0:1] [0:1] [0:1] [0:1] [0:1] [0:1]
tree_sizes=4614 4564 4565 4562 4575 4565 4571 4550 4555 4564 4573 4570 4573 4569 4560 4568 4551 4579 4561 4554 4560 4569 4579 4564 4534 4542 4561 4549 4553 4555 4560 4548 4523 4564 4538 4553 4548 4565 4536 4565 4558 4538 4557 4559 4568 4560 4543 4557 4531 4525 4543 4530 4539 4560 4518 4558 4545 4554 4538 4558 4530 4555 4543 4556 4563 4550 4533 4548 4563 4520 4540 4507 4555 4544 4514 4493 4557 4552 4532 4516 4551 4537 4455 4472 4547 4526 4502 4540 4538 4483 4559 4452 4494 4501 4482 4536 4482 4579 4564 4538 4506 4447 4519 4439 4495 4444 4483 4472 4473 4562 4579 4425 4432 4467 4529 4585 4427 4457 4411 4433 4567 4546 4453 4404 4464 4462 4469 4512 4567 4444 4414 4460 4413 4603 4455 4410 4400 4453 4434 4530 4414 4388 4408 4494 4362 4416 4480 4414 4486 4383 4477 4474 4349 4375 4502 4357 4587 4359 4418 4444 4366 4394 4345 4429 4341 4363 4389 4394 4481 4590 4358 4434 4390 4340 4602 4461 4407 4407 4354 4381 4447 4337 4397 4480 4400 4438 4391 4326 4393 4449 4337 4443 4397 4376 4489 4393 4427 4407 4470 4356 4386 4479 4392 4355 4535 4393 4324 4379 4458 4503 4456 4579 4456 4371 4415 4386 4365 4474 4562 4373 4455 4377 4354 4441 4361 4494 4444 4370 4468 4360 4386 4357 4426 4357 4347 4474 4415 4466 4477 4405 4373 4400 4570 4445 4401 4421 4355 4337 4383 4474 4517 4468 4387 4432 4385 4394 4549 4347 4431 4372 4560 4366 4330 4506 4534 4438 4567 4424 4392 4378 4398 4389 4407 4481 4517 4422 4404 4368 4378 4520 4335 4382 4387 4356 4477 4475 4548 4474 4527 4317 4386 4411 4309 4365 4317 4562 4401 4383 4396 4341 4381 4314 4380 4462 4425 4423 4379 4406 4376 4384 4393 4530 4312 4414 4526 4381 4348 4403 4469 4368 4446 4510 4379 4461 4380 4506 4385 4379 4307 4338 4503 4410 4312 4353 4448 4380 4402 4403 4443 4436 4362 4371 4323 4395 4367 4409 4416 4357 4550 4487 4510 4483 4395 4463 4377 4445 4348 4478 4437 4478 4379 4506 4408 4382 4456 4482 4388 4388 4410 4393 4396 4394 4392 4481 4405 4410 4401 4374 4384 4422 4450 4316 4387 4347 4420 4312 4384 4375 4397 4378 4315 4361 4325 4391 4336 4341 4348 4325 4353 4346 4339 4356 4378 4505 4505 4368 4393 4465 4387 4323 4378 4366 4350 4345 4480 4388 4370 4417 4390 4460 4478 4472 4380 4437 4478 4477 4483 4393 4338 4407 4499 4399 4337 4343 4348 4401 4496 4391 4386 4376 4379 4363 4519 4421 4422 4362 4413 4391 4399 4463 4487 4421 4493 4387 4408 4399 4364 4351 4473 4425 4370 4401 4369 4405 4385 4369 4456 4402 4360 4374 4397 4425 4367 4357 4441 4382 4370 4367 4356 4483 4416 4362 4365 4377 4341 4451 4342 4471 4410 4459 4381 4455 4366 4378 4419 4514 4406 4360 4428 4335

Tree=0
num_leaves=50
num_cat=0
split_feature=1 1 1 1 1 1 1 1 1 1 1 1 1 1 1 1 2 1 2 3 2 1 2 2 2 1 2 3 1 2 1 3 2 1 1 9 1 1 1 3 2 2 1 1 2 1 2 0 6
split_gain=2.42706e+13 7.07853e+12 5.64351e+12 3.21226e+12 1.24334e+12 1.04963e+12 8.85701e+11 2.91895e+11 2.57481e+11 2.33019e+11 1.72309e+11 1.41452e+11 1.30462e+11 1.14286e+11 9.79134e+10 9.24192e+10 4.34745e+10 4.23799e+10 3.52204e+10 2.85568e+10 2.84193e+10 2.61283e+10 2.46561e+10 2.45859e+10 2.40756e+10 2.5255e+10 2.28702e+10 2.23071e+10 2.03808e+10 1.99935e+10 2.15706e+10 1.97354e+10 1.96048e+10 1.94671e+10 1.85976e+10 1.64091e+10 1.63068e+10 1.60315e+10 1.4659e+10 1.44729e+10 1.37016e+10 1.36945e+10 1.43193e+10 1.28595e+10 1.23525e+10 1.21132e+10 1.21285e+10 1.13611e+10 1.13481e+10
threshold=-35523.065223226724 -84571.245617340333 -9471.7991954065237 35720.793788997202 -126876.27663919397 -52587.014573651126 -22012.131970273211 12903.439151215725 -153401.96644471382 75534.293395730361 -66571.461139436185 -105505.94777177766 -16052.962206206576 -28536.857173265216 -43770.109973442683 -3479.617647058823 -66559.064793132638 52782.592793280732 -49614.143498774814 -8961.5159722389271 -29748.970604451435 -59185.983140393095 -39211.052448319671 -13388.546938775509 -84505.322937850025 -97273.063118366277 -20643.460938515531 53128.149052509463 -19099.28571428571 -5410.7499999999991 -13080.049999999997 75675.314437166657 -492.49999999999994 -740.49999999999989 -75263.850017880948 1.0000000180025095e-35 -39673.473869143774 -114274.61365799412 -25408.399999999998 3027.3049541321384 13074.984928922235 -42669.707141466301 -32217.165157090287 -48800.820358726909 -69153.687659569929 22130.455132966719 35681.600838992286 1.0000000180025095e-35 -55124.540343542722
decision_type=2 2 2 2 2 2 2 2 2 2 2 2 2 2 2 2 2 2 2 2 2 2 2 2 2 2 2 2 2 2 2 2 2 2 2 2 2 2 2 2 2 2 2 2 2 2 2 2 2
left_child=1 4 6 7 8 10 13 15 47 17 16 37 28 26 22 32 34 27 21 -17 36 44 43 38 25 -13 41 -5 -8 30 -14 -19 -4 -21 -3 -18 -16 -6 -15 -9 -35 -2 -43 -7 -12 -41 -47 -1 -20
right_child=2 5 3 9 11 14 12 39 -10 -11 18 24 29 23 20 19 35 31 48 33 -22 -23 -24 -25 -26 -27 -28 -29 -30 -31 -32 -33 -34 40 -36 -37 -38 -39 -40 45 -42 42 -44 -45 -46 46 -48 -49 -50
leaf_value=-28390.361684298005 -20243.433904064623 -22938.185264623127 -19522.646922354281 -16880.696129292999 -25181.839540066991 -21707.797650288121 -20258.495564113869 -17738.373529027376 -26040.756953327447 -14847.506091406438 -21951.04633831586 -24075.916152086673 -19975.716288924563 -20580.332291149731 -21303.110565634626 -18788.711879470487 -22831.344931481595 -16020.33665636347 -23081.318570923748 -19340.448326264548 -21906.894091238995 -21922.44647543284 -22116.618890889706 -21322.982376558946 -24281.85282127119 -23393.778641273115 -21661.756321285564 -17992.554231634826 -20119.96642959462 -20644.466505359447 -19819.639135741007 -17142.621592629013 -20311.401568113226 -19214.716922561842 -22488.882808628361 -23539.862538262529 -21102.66687371103 -24629.769707307962 -20411.288567500524 -18642.988438282515 -19759.329532130414 -20940.297408774317 -20750.148137004478 -21480.719854712122 -22377.321312496439 -17807.291484387602 -18623.432839890022 -27465.659568233728 -22447.650730134439
leaf_weight=224 101 427 5168 203 263 990 4465 149 263 261 220 229 5731 2073 2048 274 117 213 105 11464 149 1079 219 87 227 333 82 58 6550 95 3607 48 80 5424 500 271 2011 263 3363 164 118 1753 2275 1684 747 142 67 39 216
leaf_count=224 101 427 5168 203 263 990 4465 149 263 261 220 229 5731 2073 2048 274 117 213 105 11464 149 1079 219 87 227 333 82 58 6550 95 3607 48 80 5424 500 271 2011 263 3363 164 118 1753 2275 1684 747 142 67 39 216
internal_value=-20253.3 -22227.1 -19792 -19216.8 -25092.5 -21737.9 -20246.1 -19323.8 -27147 -16067.3 -22422.9 -24270.7 -20059.2 -20638.7 -21382.6 -19350.9 -22881.8 -16677.3 -22168 -19295.1 -21228.7 -22091.6 -21606.6 -20489.1 -23847.3 -23671.7 -20834.9 -17127.8 -20176.1 -19922.8 -19915.4 -16226.7 -19534.7 -19303.3 -22695.8 -23326.2 -21203.8 -24905.8 -20475.8 -18154.9 -19226.3 -20818.5 -20832.9 -21564.8 -22280.3 -18321.3 -18068.9 -28253.2 -22654.9
internal_weight=0 12624 54015 23833 1841 10783 30182 23050 526 783 3682 1315 20448 9734 7101 22528 1315 522 2367 17280 4208 2046 2893 5523 789 562 4211 261 11015 9433 9338 261 5248 17006 927 388 4059 526 5436 522 5542 4129 4028 2674 967 373 209 263 321
internal_count=66639 12624 54015 23833 1841 10783 30182 23050 526 783 3682 1315 20448 9734 7101 22528 1315 522 2367 17280 4208 2046 2893 5523 789 562 4211 261 11015 9433 9338 261 5248 17006 927 388 4059 526 5436 522 5542 4129 4028 2674 967 373 209 263 321
is_linear=0
shrinkage=1


Tree=1
num_leaves=50
num_cat=0
split_feature=1 1 1 1 1 1 1 1 1 1 1 1 1 1 1 1 2 1 2 2 2 3 1 2 1 1 2 3 2 2 2 1 3 1 1 2 1 1 2 1 1 2 1 2 2 1 2 3 6
split_gain=2.19042e+13 6.38838e+12 5.09326e+12 2.89907e+12 1.12212e+12 9.48665e+11 7.99875e+11 2.63435e+11 2.32377e+11 2.103e+11 1.35733e+11 1.29293e+11 1.27661e+11 1.07654e+11 9.0615e+10 8.37225e+10 3.98341e+10 3.82479e+10 3.20233e+10 2.70876e+10 2.58159e+10 2.5444e+10 2.34581e+10 2.17283e+10 2.27926e+10 2.07684e+10 2.06404e+10 2.01321e+10 1.97943e+10 1.97216e+10 1.96393e+10 1.79752e+10 1.78112e+10 1.62921e+10 1.62285e+10 1.60887e+10 1.57817e+10 1.44684e+10 1.3289e+10 1.9737e+10 1.2601e+10 1.24095e+10 1.29906e+10 1.22566e+10 1.19055e+10 1.14847e+10 1.14576e+10 1.11816e+10 1.09103e+10
threshold=-35523.065223226724 -84571.245617340333 -9471.7991954065237 35720.793788997202 -126876.27663919397 -53768.553778774753 -22435.623809523804 12903.439151215725 -153401.96644471382 75534.293395730361 -66571.461139436185 -16674.18950162156 -105505.94777177766 -44986.388904857711 -28536.857173265216 -3125.0462691333773 -62548.780953035421 52782.592793280732 -49614.143498774814 -39681.636433752785 -29748.970604451435 -8961.5159722389271 -13721.663961038959 -84505.322937850025 -97273.063118366277 -40645.018964053204 -20643.460938515531 53128.149052509463 1813.5000000000002 -13388.546938775509 -12152.881590611374 -60863.693334257092 75675.314437166657 -72135.29332286492 -19372.595557649805 -4527.8611111111113 -489.8055555555556 -114274.61365799412 35681.600838992286 22130.455132966719 -5985.9434467266246 -43764.607811344133 -31764.827472773144 13074.984928922235 -60780.821892834108 -50449.949008910262 -64438.845802215117 -84491.602634335344 -90407.41515508866
decision_type=2 2 2 2 2 2 2 2 2 2 2 2 2 2 2 2 2 2 2 2 2 2 2 2 2 2 2 2 2 2 2 2 2 2 2 2 2 2 2 2 2 2 2 2 2 2 2 2 2
left_child=1 4 6 7 8 10 14 15 -1 17 16 30 37 19 26 28 33 27 31 44 25 -17 -13 24 -14 -15 41 -5 40 -16 34 -12 -19 47 -8 -24 -23 -6 39 -9 -4 -2 -43 -38 -7 -46 -33 -3 -49
right_child=2 5 3 9 12 13 11 38 -10 -11 18 22 23 20 29 21 -18 32 -20 -21 -22 36 35 -25 -26 -27 -28 -29 -30 -31 -32 46 -34 -35 -36 -37 43 -39 -40 -41 -42 42 -44 -45 45 -47 -48 48 -50
leaf_value=-7599.9658864068442 75.830567774360574 -2255.3655352925148 606.83493817475141 3203.9498576046799 -4682.1365122980042 -762.34820070850617 -15.259748829618253 1805.10315643187 -5498.1078867633078 5135.4805069145114 -1971.5954431001226 233.13265003506396 -3631.509176275928 -1044.6412050995812 -225.35182336789035 1403.4107343782491 -3062.3329093812008 4021.2913668207166 -2379.5865786852587 -1919.0899195353193 -1572.6034515380861 875.87274084289118 392.40913978355087 -3827.1490122522027 -2983.4785021349476 -830.41205392800475 -1338.0573364257814 2147.6846427128235 -237.77883991513932 -1036.9887656763981 -702.27087040391086 -1311.5351825978496 2955.1207031250001 -2108.0776654703363 112.23196201385622 -438.47065202098787 996.87778603680636 -4157.6698119653038 1404.777729913335 2478.9797796190401 759.4462291379964 -639.04533617513039 -459.90383811161439 478.71808909880815 -1496.516840593205 -1253.3865287799235 -1727.2305783490601 -3438.9059523809528 -2588.4098069105694
leaf_weight=263 81 258 2068 203 263 98 4434 247 263 261 727 6027 229 2051 4921 263 252 213 251 192 160 11468 4657 227 333 2523 82 58 56 76 86 202 48 394 5711 59 4646 263 81 194 3910 2018 2030 117 688 1652 924 42 369
leaf_count=263 81 258 2068 203 263 98 4434 247 263 261 727 6027 229 2051 4921 263 252 213 251 192 160 11468 4657 227 333 2523 82 58 56 76 86 202 48 394 5711 59 4646 263 81 194 3910 2018 2030 117 688 1652 924 42 369
internal_value=0 -1875.12 438.239 984.62 -4597.25 -1410.36 6.79298 882.982 -6549.04 3976.64 -2098.64 177.342 -3816.54 -1090.8 -381.684 857.252 -2497.13 3397.22 -1849.58 -1347.29 -948.311 915.552 298.489 -3414.29 -3247.53 -926.473 -552.547 2969.22 697.888 -237.696 50.1319 -1777.79 3825.21 -2363.15 56.5101 382.014 907.647 -4419.9 1993.43 2101.55 706.653 -536.947 -549.209 984.15 -1302.26 -1324.87 -1652.66 -2513.37 -2675.32
internal_weight=0 12624 54015 23833 1841 10783 30182 23050 526 783 3419 20974 1315 7364 9208 22528 1315 522 2104 2630 4734 16494 10743 789 562 4574 4211 261 6034 4997 10231 1853 261 1063 10145 4716 16231 526 522 441 5978 4129 4048 4763 2438 2340 1126 669 411
internal_count=66639 12624 54015 23833 1841 10783 30182 23050 526 783 3419 20974 1315 7364 9208 22528 1315 522 2104 2630 4734 16494 10743 789 562 4574 4211 261 6034 4997 10231 1853 261 1063 10145 4716 16231 526 522 441 5978 4129 4048 4763 2438 2340 1126 669 411
is_linear=0
shrinkage=0.05


Tree=2
num_leaves=50
num_cat=0
split_feature=1 1 1 1 1 1 1 1 1 1 1 1 1 1 1 1 2 1 2 2 3 2 1 2 3 3 1 2 2 1 2 3 1 1 1 1 1 1 1 1 3 2 2 1 0 1 1 2 2
split_gain=1.97713e+13 5.92467e+12 4.44363e+12 2.61641e+12 1.01271e+12 9.21877e+11 6.47204e+11 2.3775e+11 2.0972e+11 1.89796e+11 1.40096e+11 1.15214e+11 1.02469e+11 9.80228e+10 8.29337e+10 7.5625e+10 3.62e+10 3.45187e+10 2.95675e+10 2.39725e+10 2.33107e+10 2.27004e+10 2.21638e+10 2.20095e+10 1.98899e+10 1.81692e+10 1.72803e+10 1.69509e+10 1.66827e+10 1.62521e+10 1.62309e+10 1.60746e+10 1.59396e+10 1.59323e+10 1.55432e+10 1.50469e+10 1.49763e+10 1.49219e+10 1.30577e+10 1.30061e+10 1.29076e+10 1.26646e+10 1.13058e+10 1.14267e+10 1.02534e+10 1.02153e+10 9.84202e+09 9.7855e+09 9.76889e+09
threshold=-34474.068112933121 -84571.245617340333 -9471.7991954065237 35720.793788997202 -126876.27663919397 -52587.014573651126 -21776.522435897434 12903.439151215725 -153401.96644471382 75534.293395730361 -66571.461139436185 -105505.94777177766 -15820.096405281856 -42694.164903740028 -26929.605550964447 -3349.8461538461534 -66559.064793132638 52782.592793280732 -47914.489003339615 -28544.499999999996 -8961.5159722389271 -38145.731707186074 -59185.983140393095 -20643.460938515531 -72098.066072276401 53128.149052509463 -18468.912768386039 -5181.4999999999991 -1712.5941543988438 -97273.063118366277 -16553.28161965423 75675.314437166657 -75263.850017880948 -12732.815550933747 -1032.4999999999998 -72135.29332286492 -48800.820358726909 -38657.67758732981 -114274.61365799412 -30905.79246910031 3027.3049541321384 -60780.821892834108 13074.984928922235 6772.3906067935541 1.0000000180025095e-35 22130.455132966719 -5985.9434467266246 -56287.439804603178 -13562.341479266865
decision_type=2 2 2 2 2 2 2 2 2 2 2 2 2 2 2 2 2 2 2 2 2 2 2 2 2 2 2 2 2 2 2 2 2 2 2 2 2 2 2 2 2 2 2 2 2 2 2 2 2
left_child=1 4 6 7 8 10 14 15 44 17 16 38 26 21 23 28 32 25 22 37 -17 36 41 39 29 -5 48 33 46 -13 -16 -19 -3 -14 -22 -18 -7 -15 -6 -2 -9 -12 43 -36 -1 -42 -4 -38 -8
right_child=2 5 3 9 11 13 12 40 -10 -11 18 24 27 19 30 20 35 31 -20 -21 34 -23 -24 -25 -26 -27 -28 -29 -30 -31 -32 -33 -34 -35 42 -37 47 -39 -40 -41 45 -43 -44 -45 -46 -47 -48 -49 -50
leaf_value=-7350.2344133649567 -547.28781419573238 -2426.9135607252638 579.64861992655676 3043.7524034020935 -4448.029484018537 -1320.6061299377443 20.951194380665555 2287.1422543519298 -5223.2024135575102 4878.7063016343391 -1713.2119830359713 -3421.1038240131584 262.79239256582855 -906.92557751577942 -161.05042797930804 1328.2715464311905 -3115.9755102264749 3820.2268394219486 -2237.1845879289217 -1491.5649570749767 820.38853484099764 -1685.2501416015625 -1516.2101355304549 -1186.261708170573 -3617.6572082270413 2040.3004478717676 138.87360600799033 -385.28814135897397 46.623708259307591 -2859.2424195429103 -811.2854183586353 2807.3646280924481 -2010.9550353515624 403.6687667216662 918.24785557179518 -2491.1055445498514 -544.38722329974178 -715.53887878018213 -3949.7865902744775 -378.79070380420694 1441.2257122505002 -2093.3490086410984 436.10596221154475 1384.8361747172341 -6471.7674479166672 1968.4012159429669 718.7246261409764 -1107.7183721465849 -735.63614608411535
leaf_weight=224 2073 427 2052 203 263 1000 5469 149 263 261 652 209 5733 2051 4636 269 178 213 255 134 10176 220 1130 105 245 58 5764 88 111 335 98 48 500 3088 6320 210 80 2023 263 2559 164 330 119 134 39 209 3347 2119 43
leaf_count=224 2073 427 2052 203 263 1000 5469 149 263 261 652 209 5733 2051 4636 269 178 213 255 134 10176 220 1130 105 245 58 5764 88 111 335 98 48 500 3088 6320 210 80 2023 263 2559 164 330 119 134 39 209 3347 2119 43
internal_value=0 -1736.97 427.026 935.389 -4367.39 -1308.77 18.4814 838.833 -6221.58 3777.81 -1958.49 -3625.71 178.481 -995.106 -322.516 814.389 -2372.28 3227.36 -1728.61 -833.534 866.516 -1193.97 -1667.2 -470.427 -3243.58 2820.76 78.3449 305.221 653.391 -3075.1 -174.511 3633.95 -2202.56 312.11 859.1 -2777.77 -1160.18 -811.89 -4198.91 -454.2 1893.76 -1840.96 919.031 927.935 -7219.97 1736.61 665.866 -1087.22 15.0489
internal_weight=0 13150 53489 23833 1841 11309 29656 23050 526 783 3682 1315 20185 7627 9471 22528 1315 522 2367 4208 17018 3419 2112 4737 789 261 11276 8909 5510 544 4734 261 927 8821 16749 388 3199 4074 526 4632 522 982 6573 6454 263 373 5399 2199 5512
internal_count=66639 13150 53489 23833 1841 11309 29656 23050 526 783 3682 1315 20185 7627 9471 22528 1315 522 2367 4208 17018 3419 2112 4737 789 261 11276 8909 5510 544 4734 261 927 8821 16749 388 3199 4074 526 4632 522 982 6573 6454 263 373 5399 2199 5512
is_linear=0
shrinkage=0.05


Tree=3
num_leaves=50
num_cat=0
split_feature=1 1 1 1 1 1 1 1 1 1 1 1 1 1 1 1 2 1 2 1 2 2 1 2 1 1 2 1 2 1 2 3 2 2 2 3 2 1 2 9 1 2 2 2 1 1 2 2 2
split_gain=1.78444e+13 5.20271e+12 4.14976e+12 2.36868e+12 9.13971e+11 7.76405e+11 6.41056e+11 2.17513e+11 1.89272e+11 1.71291e+11 1.05514e+11 1.04839e+11 1.0398e+11 9.40461e+10 7.2177e+10 6.84901e+10 3.54254e+10 3.11532e+10 2.95776e+10 2.71043e+10 2.56392e+10 2.15659e+10 1.97631e+10 1.94688e+10 1.91808e+10 1.85155e+10 1.82161e+10 1.88629e+10 1.69261e+10 1.6562e+10 1.64032e+10 1.63977e+10 1.60421e+10 1.51696e+10 1.46373e+10 1.45074e+10 1.43116e+10 1.30123e+10 1.26866e+10 1.24098e+10 1.17846e+10 1.14442e+10 1.14072e+10 1.11608e+10 1.11915e+10 1.07067e+10 9.45221e+09 9.43314e+09 9.28365e+09
threshold=-35523.065223226724 -84571.245617340333 -9844.5311971922492 35720.793788997202 -126876.27663919397 -55043.825576442352 -22678.734993614296 6772.3906067935541 -153401.96644471382 75534.293395730361 -45659.91668417734 -16927.8641199792 -105505.94777177766 -69251.073310424923 -3941.9444444444439 -28536.857173265216 -66559.064793132638 52782.592793280732 -53725.707630833116 22130.455132966719 -41596.3652946445 -29748.970604451435 -40645.018964053204 13074.984928922235 -14024.22289202305 -969.49999999999989 -84505.322937850025 -97273.063118366277 -20643.460938515531 -62577.473898866781 -18463.505540101385 53128.149052509463 -12152.881590611374 35681.600838992286 -219.96666666666667 75675.314437166657 22197.036357292007 -19975.130975022697 -6305.8137254901958 1.0000000180025095e-35 -114274.61365799412 -42105.391189590569 -5693.4999999999991 -60780.821892834108 -50449.949008910262 -32217.165157090287 -34010.124145406451 -69153.687659569929 -47152.643890532992
decision_type=2 2 2 2 2 2 2 2 2 2 2 2 2 2 2 2 2 2 2 2 2 2 2 2 2 2 2 2 2 2 2 2 2 2 2 2 2 2 2 2 2 2 2 2 2 2 2 2 2
left_child=1 4 6 7 8 13 15 14 -1 17 20 32 40 16 34 28 -3 31 29 36 43 22 -12 25 -13 -16 27 -14 41 -15 46 -5 37 -21 -4 -19 -9 -8 -26 -20 -6 -2 -27 -7 -45 -43 -17 -31 -24
right_child=2 5 3 9 12 10 11 19 -10 -11 21 24 26 18 23 30 -18 35 39 33 -22 -23 48 -25 38 42 -28 -29 -30 47 -32 -33 -34 -35 -36 -37 -38 -39 -40 -41 -42 45 -44 44 -46 -47 -48 -49 -50
leaf_value=-6858.9690916112177 25.641526795770524 -2150.2245938641599 601.55006436742349 2891.564682112069 -4225.6279230038026 -743.38916056925257 -33.068817929790647 1515.6642201419331 -4962.0422543369777 4634.7711356561304 -951.70206440437823 199.8082702824224 -3278.0201453329701 -1839.2790298572327 776.30455217034432 256.10799173072536 -2818.6071336969344 3629.2155232174296 -1811.7463539751841 2252.3388996556864 -1731.8640468597414 -1427.304393347556 -258.99805959886123 -88.469303690592454 342.03324605204415 1436.0473943295688 -3459.419091581773 -2688.4955107451206 -1210.1659225836033 -1093.6926749246163 -779.96578824632456 1938.2854096511314 -643.98187796128161 1379.6909769997669 -132.06987163156703 2666.9963968912762 788.89997535705572 85.790674986564753 -331.14974835890177 -2380.5321701882103 -3752.2971512595063 -591.2396368050712 875.11188693013037 -1368.7472555624472 -1140.602096508323 -426.69052736994246 -217.23629954063719 -1576.1974224766227 -768.02806260285558
leaf_weight=263 107 787 4655 203 263 124 3652 442 263 261 2309 6027 229 691 11548 108 265 213 170 194 256 165 93 60 4907 92 227 333 82 114 128 58 86 67 69 48 80 6232 71 220 263 1750 6105 888 1362 2272 4498 909 2430
leaf_count=263 107 787 4655 203 263 124 3652 442 263 261 2309 6027 229 691 11548 108 265 213 170 194 256 165 93 60 4907 92 227 333 82 114 128 58 86 67 69 48 80 6232 71 220 263 1750 6105 888 1362 2272 4498 909 2430
internal_value=0 -1692.45 395.547 883.909 -4149.02 -1273.03 2.26212 793.053 -5910.51 3588.92 -1000.11 153.401 -3444.42 -1932.59 764.58 -352.141 -2318.59 3065.99 -1739.59 1612.3 -1256.46 -865.195 -846.001 810.679 259.799 813.719 -3081.4 -2928.71 -498.836 -1650.17 -221.653 2679.72 35.9576 2028.33 590.835 3452.26 1404.28 41.8738 332.432 -2132.6 -3988.96 -484.71 883.439 -1205.19 -1230.64 -498.287 -206.137 -1522.43 -749.265
internal_weight=0 12624 54015 24095 1841 10783 29920 23312 526 783 7627 20975 1315 3156 22529 8945 1052 522 2104 783 2630 4997 4832 17805 11005 17745 789 562 4211 1714 4734 261 9970 261 4724 261 522 9884 4978 390 526 4129 6197 2374 2250 4022 4606 1023 2523
internal_count=66639 12624 54015 24095 1841 10783 29920 23312 526 783 7627 20975 1315 3156 22529 8945 1052 522 2104 783 2630 4997 4832 17805 11005 17745 789 562 4211 1714 4734 261 9970 261 4724 261 522 9884 4978 390 526 4129 6197 2374 2250 4022 4606 1023 2523
is_linear=0
shrinkage=0.05


Tree=4
num_leaves=50
num_cat=0
split_feature=1 1 1 1 1 1 1 1 1 1 1 1 1 1 1 1 2 1 2 2 2 3 1 1 2 3 2 3 1 2 1 1 3 2 2 1 2 1 3 2 2 1 1 1 1 2 2 0 7
split_gain=1.61065e+13 4.82516e+12 3.62004e+12 2.13096e+12 8.24859e+11 7.52098e+11 5.27412e+11 1.95703e+11 1.70818e+11 1.5459e+11 1.14385e+11 9.38423e+10 8.73241e+10 8.03143e+10 6.39416e+10 6.21536e+10 3.10383e+10 2.81157e+10 2.48718e+10 2.0924e+10 1.94986e+10 1.90813e+10 1.86013e+10 1.82892e+10 1.80945e+10 1.65421e+10 1.55612e+10 1.4799e+10 1.44444e+10 1.43114e+10 1.38311e+10 1.37783e+10 1.30929e+10 1.23962e+10 1.18937e+10 1.18287e+10 1.16255e+10 1.15467e+10 1.14136e+10 1.1331e+10 1.1154e+10 1.06356e+10 1.06096e+10 1.02559e+10 9.79579e+09 9.41065e+09 9.40197e+09 9.25369e+09 9.43812e+09
threshold=-34474.068112933121 -84571.245617340333 -9471.7991954065237 35720.793788997202 -126876.27663919397 -52587.014573651126 -22012.131970273211 12903.439151215725 -153401.96644471382 75534.293395730361 -66571.461139436185 -105505.94777177766 -15473.23986509707 -42112.564299749101 -26929.605550964447 -3125.0462691333773 -62548.780953035421 52782.592793280732 -47914.489003339615 -30153.382726818349 -36073.032049439491 -8961.5159722389271 -59185.983140393095 -18591.916666666661 -20643.460938515531 -72098.066072276401 3006.6082105293758 53128.149052509463 -46372.511636279705 -5181.4999999999991 -90566.645963411764 -75263.850017880948 75675.314437166657 -13388.546938775509 -47152.643890532992 -218.94444444444431 -38145.731707186074 -30905.79246910031 3027.3049541321384 -64438.845802215117 -18592.995726495723 -114274.61365799412 -38121.252955737531 -12351.446806620736 -5409.9374999999991 -84505.322937850025 13074.984928922235 1.0000000180025095e-35 -79183.335301993851
decision_type=2 2 2 2 2 2 2 2 2 2 2 2 2 2 2 2 2 2 2 2 2 2 2 2 2 2 2 2 2 2 2 2 2 2 2 2 2 2 2 2 2 2 2 2 2 2 2 2 2
left_child=1 4 6 7 8 10 14 15 47 17 16 41 23 20 24 26 31 27 22 34 28 -17 39 -8 36 30 44 -5 -7 40 -13 45 -19 -16 -15 -23 -2 -38 -9 -12 -14 -6 -36 -42 -4 -3 -37 48 -1
right_child=2 5 3 9 11 13 12 38 -10 -11 18 25 29 19 33 21 -18 32 -20 -21 -22 35 -24 -25 -26 -27 -28 -29 -30 -31 -32 -33 -34 -35 42 46 37 -39 -40 -41 43 -43 -44 -45 -46 -47 -48 -49 -50
leaf_value=-6767.402988079898 -20.266827624482538 -1960.8710603275404 531.55434110539932 2746.9865243996305 -4014.3466700332701 -1141.8281489155841 6.5842950766280754 2084.1472361315018 -4713.9402893298484 4403.0324667744253 -1468.8635076401656 -2937.1474726664492 764.79412236407529 -302.06757060188846 -151.2697282515478 1207.6572385374584 -2640.9669914124506 3447.7546178110333 -2026.8893236825982 -1263.3488744183317 -1595.4885677475529 753.93072283247511 -1365.7971186761097 129.08246110324572 -1074.6035346330916 -3268.4770009566328 -308.60691830249544 1841.3711501549033 -939.1395609453474 -356.13210019843524 -2384.8335264217781 -1868.6557727651129 2533.6466044108074 -812.68339818318691 -815.41908250614506 866.19199950763198 -518.00422410652288 -355.68103828714715 1566.4591652714216 -1811.6604981345376 246.03140673954377 -3564.6823075095062 -643.28709979128234 368.17262863721635 660.63377116904167 -2423.749821942552 407.45021142047386 -5805.2307291666666 -5814.4417968750004
leaf_weight=194 183 187 2592 203 263 1766 5513 149 263 261 425 383 123 166 4399 263 252 213 255 183 166 12233 1130 6812 105 245 47 58 1750 86 161 610 48 72 1915 3883 1952 2497 373 557 5391 263 1681 2523 3395 266 115 39 30
leaf_count=194 183 187 2592 203 263 1766 5513 149 263 261 425 383 123 166 4399 263 252 213 255 183 166 12233 1130 6812 105 245 47 58 1750 86 161 610 48 72 1915 3883 1952 2497 373 557 5391 263 1681 2523 3395 266 115 39 30
internal_value=0 -1567.74 385.422 844.262 -3941.57 -1181.31 16.6757 757.123 -5614.98 3409.47 -1768.16 -3272.2 158.172 -898 -297.542 734.946 -2142.06 2912.69 -1560.44 -741.249 -1065.95 785.178 -1504.13 74.2888 -425.548 -2927.33 597.636 2545.74 -1040.95 285.448 -2773.69 -2023.78 3279.64 -161.921 -715.852 778.333 -410.835 -426.9 1714.23 -1663.3 292.314 -3789.51 -734.954 284.97 604.75 -2232.67 852.997 -6516.02 -6639.77
internal_weight=0 13150 53489 23833 1841 11309 29656 23050 526 783 3682 1315 20448 7627 9208 22528 1315 522 2367 3945 3682 16494 2112 12325 4737 789 6034 261 3516 8123 544 1063 261 4471 3762 16231 4632 4449 522 982 8037 526 3596 7914 5987 453 3998 263 224
internal_count=66639 13150 53489 23833 1841 11309 29656 23050 526 783 3682 1315 20448 7627 9208 22528 1315 522 2367 3945 3682 16494 2112 12325 4737 789 6034 261 3516 8123 544 1063 261 4471 3762 16231 4632 4449 522 982 8037 526 3596 7914 5987 453 3998 263 224
is_linear=0
shrinkage=0.05


Tree=5
num_leaves=50
num_cat=0
split_feature=1 1 1 1 1 1 1 1 1 1 1 1 1 1 1 2 2 1 2 1 1 2 1 2 2 1 1 1 2 1 1 2 2 1 2 3 2 3 2 2 1 2 9 1 6 2 2 2 2
split_gain=1.45389e+13 4.18871e+12 3.43722e+12 1.92924e+12 7.41589e+11 6.31505e+11 5.53145e+11 1.79869e+11 1.43474e+11 1.39517e+11 1.05525e+11 9.81157e+10 9.46178e+10 5.92201e+10 4.72668e+10 2.94947e+10 2.7503e+10 2.53744e+10 2.39481e+10 2.3234e+10 2.2932e+10 1.81062e+10 1.77939e+10 1.75142e+10 1.66129e+10 1.65606e+10 1.60526e+10 1.57323e+10 1.50874e+10 1.4952e+10 1.48326e+10 1.58504e+10 1.46404e+10 1.34692e+10 1.34624e+10 1.33561e+10 1.26894e+10 1.2106e+10 1.19412e+10 1.08017e+10 1.07442e+10 1.04693e+10 9.92833e+09 9.81023e+09 9.51588e+09 9.35368e+09 9.26129e+09 8.70112e+09 8.62847e+09
threshold=-36065.930935826451 -90566.645963411764 -9844.5311971922492 35720.793788997202 -56384.809040207365 -153401.96644471382 -23450.552259759006 6772.3906067935541 -114274.61365799412 75534.293395730361 -72135.29332286492 -17051.345443910042 -46372.511636279705 -4524.4999999999991 -29323.911868033592 -75194.294420813574 -53725.707630833116 52782.592793280732 -43232.2055385364 -126876.27663919397 22130.455132966719 6848.1264370662984 -1313.6249999999998 -32217.646769764175 -12152.881590611374 -14024.22289202305 -41600.48988578486 -62577.473898866781 -18216.071428571424 -79521.222667878304 -105505.94777177766 -90343.211167017755 -24828.62667341925 -20290.613761326225 35681.600838992286 53128.149052509463 22197.036357292007 53128.149052509463 -1712.5941543988438 -43764.607811344133 -79521.222667878304 -6305.8137254901958 1.0000000180025095e-35 -50449.949008910262 -66704.725700550232 -69153.687659569929 -3946.8499999999999 -43232.2055385364 -34010.124145406451
decision_type=2 2 2 2 2 2 2 2 2 2 2 2 2 2 2 2 2 2 2 2 2 2 2 2 2 2 2 2 2 2 2 2 2 2 2 2 2 2 2 2 2 2 2 2 2 2 2 2 2
left_child=1 5 6 7 10 -1 14 13 19 17 15 24 18 38 32 40 27 35 43 -7 36 22 -15 26 33 -13 47 45 48 -17 -10 -32 39 -8 -22 -5 -9 -19 -4 -2 -3 -27 -20 -6 -18 -12 -24 -14 -16
right_child=2 4 3 9 12 8 11 20 30 -11 16 25 23 21 28 29 44 37 42 -21 34 -23 46 -25 -26 41 -28 -29 -30 -31 31 -33 -34 -35 -36 -37 -38 -39 -40 -41 -42 -43 -44 -45 -46 -47 -48 -49 -50
leaf_value=-6190.2194555014257 82.222216801066978 -2203.5286605674341 526.65910733137707 2609.6371459359607 -1215.3143558255365 -4478.2434113593154 -47.258516141909851 1374.3032479264618 -3386.4482459006658 4182.8809042744251 -1514.9983554369257 178.60409381245961 -800.64339568046546 688.5404098269255 196.75266039530436 -2983.9637240475172 -2571.4273753851235 3465.4452809731793 -1311.9729204450337 -3813.6294506000481 2054.4609334729384 143.65416633721554 1221.7382246537643 -1221.4358813269664 -641.64352212457902 309.39194860619688 -700.72825282205793 -1401.7337522384391 -814.26491674595263 -2355.8929662181713 -2734.4190432453966 -3318.6333600523849 -1008.0397369477058 70.206854385093493 1232.3835134022272 1749.3025950464707 689.96591361999515 2784.1485493674209 -69.06509652692219 -469.12874637140851 -1784.4710733413697 -302.13841675775996 -1869.6806274414064 -1009.1407626792363 -1916.0879158141122 -1834.4455557397371 780.94657520977671 -1010.9181969773626 -233.18203471739173
leaf_weight=263 91 380 3848 203 1190 263 3910 442 263 261 397 6289 1208 10489 120 146 71 127 168 263 194 132 121 236 94 4907 2723 842 110 270 353 173 124 6493 67 58 80 134 86 3731 256 71 152 1120 252 542 7853 830 4243
leaf_count=263 91 380 3848 203 1190 263 3910 442 263 261 397 6289 1208 10489 120 146 71 127 168 263 194 132 121 236 94 4907 2723 842 110 270 353 173 124 6493 67 58 80 134 86 3731 256 71 152 1120 252 542 7853 830 4243
internal_value=0 -1547.59 352.441 797.768 -1195.49 -3953.61 -3.06301 715.772 -3506.29 3239 -1840.09 130.065 -928.759 689.88 -347.213 -2248.97 -1635.65 2767.06 -1171.51 -4145.94 1460.76 727.167 731.339 -800.997 20.0779 232.535 -780.156 -1558.67 -235.938 -2576.32 -3079.86 -2926.57 -473.349 26.0571 1843.43 2418.45 1269.42 3115.66 513.636 -456.001 -2034.85 300.67 -1576.88 -1115.35 -2060.14 -1699.39 787.635 -886.28 -221.357
internal_weight=0 12361 54278 24095 10783 1578 30183 23312 1315 783 3156 21764 7627 22529 8419 1052 2104 522 2630 526 783 18595 18463 4997 10497 11267 4761 1781 4473 416 789 526 3946 10403 261 261 522 261 3934 3822 636 4978 320 2310 323 939 7974 2038 4363
internal_count=66639 12361 54278 24095 10783 1578 30183 23312 1315 783 3156 21764 7627 22529 8419 1052 2104 522 2630 526 783 18595 18463 4997 10497 11267 4761 1781 4473 416 789 526 3946 10403 261 261 522 261 3934 3822 636 4978 320 2310 323 939 7974 2038 4363
is_linear=0
shrinkage=0.05


Tree=6
num_leaves=50
num_cat=0
split_feature=1 1 1 1 1 1 1 1 1 1 1 1 1 1 1 1 2 1 2 1 2 2 3 2 1 2 2 3 1 6 1 2 2 3 2 2 2 2 1 1 1 3 6 3 1 6 3 1 1
split_gain=1.31268e+13 3.98206e+12 2.89983e+12 1.72991e+12 6.71335e+11 6.3382e+11 4.13312e+11 1.5981e+11 1.39132e+11 1.25914e+11 9.44769e+10 7.61686e+10 7.31033e+10 7.1144e+10 5.09789e+10 4.62292e+10 2.77575e+10 2.29004e+10 2.10818e+10 1.74497e+10 1.74368e+10 1.64282e+10 1.63911e+10 1.54286e+10 1.47282e+10 1.42195e+10 1.34329e+10 1.25494e+10 1.19469e+10 1.19345e+10 1.18522e+10 1.16775e+10 1.15209e+10 1.12701e+10 1.07201e+10 1.06784e+10 1.057e+10 1.04766e+10 1.15787e+10 1.03028e+10 1.01041e+10 1.00861e+10 9.81739e+09 9.60041e+09 9.40593e+09 9.27445e+09 9.11632e+09 1.01887e+10 8.66278e+09
threshold=-34009.841941202503 -84571.245617340333 -9034.8974178297813 35720.793788997202 -126876.27663919397 -52587.014573651126 -21776.522435897434 12903.439151215725 -153401.96644471382 75534.293395730361 -64418.185977381887 -105505.94777177766 -15351.352053915274 -42112.564299749101 -26546.249999999996 -2666.4999999999995 -60780.821892834108 52782.592793280732 -49614.143498774814 -72135.29332286492 -28544.499999999996 -38145.731707186074 -5686.8214285714275 -20643.460938515531 -18094.480214820436 -90343.211167017755 3006.6082105293758 36259.924813679543 -47938.223689982406 -84576.181715557177 -97273.063118366277 -5693.4999999999991 -47152.643890532992 75675.314437166657 -19673.519852862359 -37657.749915366199 -17155.893557319981 -69153.687659569929 -57878.926005906826 -72135.29332286492 -38121.252955737531 3027.3049541321384 -55124.540343542722 -84491.602634335344 -12151.788761029073 -84576.181715557177 13322.597694467173 220.50194220598681 -114274.61365799412
decision_type=2 2 2 2 2 2 2 2 2 2 2 2 2 2 2 2 2 2 2 2 2 2 2 2 2 2 2 2 2 2 2 2 2 2 2 2 2 2 2 2 2 2 2 2 2 2 2 2 2
left_child=1 4 6 7 8 10 14 15 -1 17 16 48 24 21 23 26 19 27 37 43 32 28 -17 35 -8 30 -4 -5 -7 -27 -13 34 -15 -19 -14 -2 -16 -12 -39 -18 -34 -9 -20 -3 -36 -45 47 -24 -6
right_child=2 5 3 9 11 13 12 41 -10 -11 18 25 31 20 36 22 39 33 42 -21 -22 -23 46 -25 -26 29 -28 -29 -30 -31 -32 -33 40 -35 44 -37 -38 38 -40 -41 -42 -43 -44 45 -46 -47 -48 -49 -50
leaf_value=-5880.7085180014255 8.8461947090267525 -1719.9071739492492 566.74671196639542 2640.2729240648678 -3622.9478419082698 -1057.236699274192 18.29235876597826 1899.3561421848783 -4254.3309232414449 3973.7367980723184 -946.2118602170782 -2755.5918707368342 755.41469488903488 -242.5952521605299 -122.12514171062979 1068.1617290154331 -2754.2067533827321 3115.8486108054581 -2161.2160960477941 -1593.339232627894 -1199.841898403846 -1353.3375558593752 691.80092981537564 -951.74262291160801 127.63872620434861 -3424.7598242187505 -281.36186114372089 1946.8144877589029 -863.17628244682476 -2723.4582132407868 -2241.8446592133619 -256.39820139003251 -740.84694348894425 2267.7567901611328 227.69365282133026 -371.07878897421898 -639.50460402989154 -1483.7740770409919 -1216.5842699041414 -2119.1674193683157 -579.67510022869044 1412.702619962718 -1559.9456434729063 -2745.5874921875002 344.80996354732702 -2021.6379994710287 313.61027721010407 797.6691226990464 -3217.1257775368349
leaf_weight=263 193 258 7040 132 263 1244 6298 149 263 261 177 197 113 173 4370 323 97 213 102 602 145 250 11902 111 6026 80 47 129 2188 251 261 106 1929 48 5390 4433 101 818 804 187 1961 373 203 50 2514 384 145 2809 263
leaf_count=263 193 258 7040 132 263 1244 6298 149 263 261 177 197 113 173 4370 323 97 213 102 602 145 250 11902 111 6026 80 47 129 2188 251 261 106 1929 48 5390 4433 101 818 804 187 1961 373 203 50 2514 384 145 2809 263
internal_value=0 -1397.92 352.278 766.234 -3557.85 -1054.3 23.2492 686.834 -5067.52 3077.05 -1595.98 -2953.98 148.514 -801.514 -254.909 666.56 -1888.44 2628.7 -1376.64 -1790.2 -661.07 -962.022 715.789 -369.206 71.7589 -2643.27 561.122 2297.53 -933.518 -2892.96 -2462.82 264.964 -641.842 2959.88 271.858 -355.228 -133.813 -1311.47 -1351.33 -2336.06 -659.598 1551.61 -1761.03 -1961.45 264.944 -2105.04 708.127 712.016 -3420.04
internal_weight=0 13413 53226 23571 1841 11572 29655 22788 526 783 3682 1315 20447 7890 9208 22266 1578 522 2104 1294 4208 3682 15179 4737 12324 789 7087 261 3432 331 458 8123 4063 261 8017 4626 4471 1799 1622 284 3890 522 305 692 7904 434 14856 14711 526
internal_count=66639 13413 53226 23571 1841 11572 29655 22788 526 783 3682 1315 20447 7890 9208 22266 1578 522 2104 1294 4208 3682 15179 4737 12324 789 7087 261 3432 331 458 8123 4063 261 8017 4626 4471 1799 1622 284 3890 522 305 692 7904 434 14856 14711 526
is_linear=0
shrinkage=0.05


Tree=7
num_leaves=50
num_cat=0
split_feature=1 1 1 1 1 1 1 1 1 1 1 1 1 1 1 1 2 1 2 1 2 2 2 2 2 2 1 1 1 6 2 2 3 2 1 1 2 1 2 3 2 1 2 2 2 0 7 1 2
split_gain=1.1848e+13 3.63902e+12 2.57413e+12 1.55612e+12 6.0588e+11 5.91307e+11 3.60242e+11 1.44653e+11 1.25567e+11 1.13638e+11 8.05904e+10 7.40424e+10 6.87421e+10 6.04962e+10 5.39074e+10 3.40136e+10 2.48162e+10 2.06676e+10 1.9973e+10 1.94372e+10 1.74321e+10 1.58538e+10 1.54729e+10 1.4676e+10 1.399e+10 1.3009e+10 1.43158e+10 1.28729e+10 1.27757e+10 1.20624e+10 1.19477e+10 1.17132e+10 1.1398e+10 1.12096e+10 1.10705e+10 1.08594e+10 1.07147e+10 1.05156e+10 1.05072e+10 1.04189e+10 1.02999e+10 8.94586e+09 8.80577e+09 8.66604e+09 8.64329e+09 8.35146e+09 8.56859e+09 8.24401e+09 8.14719e+09
threshold=-33586.647602716272 -84571.245617340333 -8529.1229552988389 35720.793788997202 -126876.27663919397 -53768.553778774753 -20996.681535883989 6772.3906067935541 -153401.96644471382 75534.293395730361 -42694.164903740028 -66571.461139436185 -105505.94777177766 -14996.94105030547 -25804.078947368416 -2521.9090909090905 -66559.064793132638 52782.592793280732 -51345.902426466397 22130.455132966719 -38145.731707186074 -29748.970604451435 -16553.28161965423 13074.984928922235 -10555.934112292252 -84505.322937850025 -97273.063118366277 -38121.252955737531 -48800.820358726909 -66704.725700550232 35681.600838992286 -17985.428364330979 53128.149052509463 22197.036357292007 -18094.480214820436 -75263.850017880948 -1621.6538461538455 -60863.693334257092 3006.6082105293758 53128.149052509463 -37140.584395129357 220.50194220598681 -11933.366718661984 -56287.439804603178 -64438.845802215117 1.0000000180025095e-35 -75063.05271801888 -30120.265393491802 -105437.14081763969
decision_type=2 2 2 2 2 2 2 2 2 2 2 2 2 2 2 2 2 2 2 2 2 2 2 2 2 2 2 2 2 2 2 2 2 2 2 2 2 2 2 2 2 2 2 2 2 2 2 2 2
left_child=1 4 6 7 8 11 14 15 45 17 20 16 48 24 22 38 35 32 37 33 28 27 40 41 34 26 -14 -12 -7 -18 -21 -15 -5 -9 -8 -3 -33 -13 -4 -19 -2 -17 -16 -30 -39 46 -1 -42 -6
right_child=2 5 3 9 12 10 13 19 -10 -11 21 18 25 31 42 23 29 39 -20 30 -22 -23 -24 -25 -26 -27 -28 -29 43 -31 -32 36 -34 -35 -36 -37 -38 44 -40 -41 47 -43 -44 -45 -46 -47 -48 -49 -50
leaf_value=-5818.7245181630715 40.418078846956426 -1883.7964217103338 548.95338627226397 2359.2686359875311 -3142.0534482758621 -1039.8926788446604 34.053840465573089 1245.8888548147625 -4041.6145080798483 3775.0500448994253 -691.80588362800495 -1445.1483824031648 -2686.3851929243997 715.99751556612921 -91.171577772857304 659.99396656201259 -2560.8970497532896 3136.3805110420767 -1719.3356583758098 1874.5805889326273 -1353.4276124068383 -1045.0642136320064 -1024.9027176965642 -131.40712530953545 -574.60931337833415 -2830.5632167194385 -2172.8068937101166 -522.95664956911037 -328.55168994903568 -1973.5348824295343 1100.1292138854069 261.47634231721491 1564.4967344086747 602.69274493217472 131.00100429267272 -1540.4652834960939 -398.57455655990111 -901.59161870975322 -217.4204308403863 2504.3384164383165 -412.84200905590762 759.17296335009007 -700.5696360270183 -858.6819348647158 -1264.567500935126 -4911.422526041667 -4868.9210792824078 -278.76210369202113 -3610.989054361979
leaf_weight=197 191 427 7309 203 406 1244 5215 442 263 261 2288 702 229 141 4937 11499 133 127 328 194 239 218 79 56 80 227 333 2228 80 255 67 7395 58 80 6764 500 62 202 45 134 1952 2834 60 2119 872 39 27 2778 120
leaf_count=197 191 427 7309 203 406 1244 5215 442 263 261 2288 702 229 141 4937 11499 133 127 328 194 239 218 79 56 80 227 333 2228 80 255 67 7395 58 80 6764 500 62 202 45 134 1952 2834 60 2119 872 39 27 2778 120
internal_value=0 -1312 338.783 731.952 -3379.95 -990.323 29.74 655.784 -4814.14 2923.2 -765.061 -1544.82 -2806.28 154.02 -214.631 631.74 -1839.14 2497.27 -1360.87 1323.47 -940.502 -628.607 -330.703 676.448 84.3945 -2511.11 -2382.08 -608.503 -911.838 -2174.87 1675.78 264.525 2182.65 1147.31 88.7955 -1698.61 255.988 -1294.66 544.264 2811.88 -319.559 679.604 -98.4887 -839.396 -1196.3 -5586.67 -5704.24 -334.095 -3249.03
internal_weight=0 13676 52963 23309 1841 11835 29654 22526 526 783 8416 3419 1315 19657 9997 21743 1315 522 2104 783 3682 4734 5000 14389 12059 789 562 4516 3443 388 261 7598 261 522 11979 927 7457 1776 7354 261 4921 14333 4997 2199 1074 263 224 4730 526
internal_count=66639 13676 52963 23309 1841 11835 29654 22526 526 783 8416 3419 1315 19657 9997 21743 1315 522 2104 783 3682 4734 5000 14389 12059 789 562 4516 3443 388 261 7598 261 522 11979 927 7457 1776 7354 261 4921 14333 4997 2199 1074 263 224 4730 526
is_linear=0
shrinkage=0.05


Tree=8
num_leaves=50
num_cat=0
split_feature=1 1 1 1 1 1 1 1 1 1 1 1 1 1 1 2 2 2 1 1 1 2 1 2 2 2 1 1 2 2 1 2 1 1 2 2 3 2 2 1 3 9 1 2 2 2 1 6 2
split_gain=1.06947e+13 3.13054e+12 2.48758e+12 1.42664e+12 5.64472e+11 4.62424e+11 3.72295e+11 1.36522e+11 1.0599e+11 1.02558e+11 7.635e+10 7.52525e+10 6.50653e+10 5.65796e+10 3.1963e+10 2.40298e+10 2.22078e+10 2.04002e+10 1.86525e+10 1.75421e+10 1.63909e+10 1.45154e+10 1.40582e+10 1.40106e+10 1.32008e+10 1.24823e+10 1.24456e+10 1.1654e+10 1.14973e+10 1.13291e+10 1.13223e+10 1.13181e+10 1.15207e+10 1.09254e+10 1.1518e+10 1.07828e+10 1.07199e+10 1.0303e+10 9.82689e+09 9.78461e+09 9.70104e+09 9.61795e+09 8.96123e+09 8.7422e+09 8.44001e+09 8.17721e+09 8.14129e+09 8.02093e+09 7.88074e+09
threshold=-35523.065223226724 -90566.645963411764 -10558.963928246456 35720.793788997202 -56384.809040207365 -153401.96644471382 -23450.552259759006 6772.3906067935541 -114274.61365799412 75534.293395730361 -72135.29332286492 -45659.91668417734 -17286.723220033546 -4730.4999999999991 -28536.857173265216 -75194.294420813574 -53725.707630833116 -43232.2055385364 52782.592793280732 22130.455132966719 -126876.27663919397 6848.1264370662984 -1529.7840909090908 -31348.172889367554 -13562.341479266865 -29748.970604451435 -39673.473869143774 -79521.222667878304 -1712.5941543988438 -25119.443805691288 -62577.473898866781 -6305.8137254901958 -14449.115079365078 -97273.063118366277 -90343.211167017755 35681.600838992286 36259.924813679543 35681.600838992286 -62548.780953035421 -50449.949008910262 75675.314437166657 1.0000000180025095e-35 -19975.130975022697 -19234.482327548649 -16289.280303030302 -51345.902426466397 -79521.222667878304 -66704.725700550232 -43764.607811344133
decision_type=2 2 2 2 2 2 2 2 2 2 2 2 2 2 2 2 2 2 2 2 2 2 2 2 2 2 2 2 2 2 2 2 2 2 2 2 2 2 2 2 2 2 2 2 2 2 2 2 2
left_child=1 5 6 7 10 -1 14 13 20 18 15 17 24 28 29 46 30 38 36 37 -7 22 -15 26 25 -8 45 -17 44 48 -12 32 -14 34 -10 -21 -5 -9 -6 -40 -20 -19 -27 -16 -4 -13 -3 -18 -2
right_child=2 4 3 9 11 8 12 19 33 -11 16 23 31 21 43 27 47 41 40 35 -22 -23 -24 -25 -26 42 -28 -29 -30 -31 -32 -33 -34 -35 -36 -37 -38 -39 39 -41 -42 -43 -44 -45 -46 -47 -48 -49 -50
leaf_value=-5307.3395333293729 117.3753256385709 -1879.1355440481086 895.57186304728191 2390.2959620620268 -479.57944931302757 -3839.5336850938688 592.24344722666638 1139.7694976868045 -2666.5511286982783 3586.2976420318491 -1454.0824103358455 -277.4675226268202 145.64951420952744 584.80569737235953 -176.290810522448 -2580.932380404538 -2254.7352208956868 -1113.628669772982 2815.9966519494574 1780.8515390297803 -3281.3100805014255 100.41598146034011 671.50767324886897 -1068.8131237792968 -550.17083043958098 -39.970653483162067 -555.47380237216544 -2026.4394071903935 -132.91441740575044 -797.26531652609515 -1201.5710120103704 -364.01557845035973 247.4557445459258 -2381.0025732236218 -3277.2755277593083 1045.1227234569949 1749.3773147464724 99.517249389648441 -1067.2025063459014 -864.53618324392937 2029.1520904541017 -1618.048677770103 56.320041820334737 -618.73214263583009 421.16940379988858 -735.67627307836915 -1514.3534790039064 -1653.0711330837673 -380.81933037571372
leaf_weight=263 81 380 96 132 112 263 94 497 432 261 939 101 5995 9703 3830 146 71 223 213 194 263 132 9023 210 103 4367 1978 270 92 162 842 92 5180 263 94 67 129 25 1113 1281 48 164 5409 115 4007 2708 256 252 3968
leaf_count=263 81 380 96 132 112 263 94 497 432 261 939 101 5995 9703 3830 146 71 223 213 194 263 132 9023 210 103 4367 1978 270 92 162 842 92 5180 263 94 67 129 25 1113 1281 48 164 5409 115 4007 2708 256 252 3968
internal_value=0 -1310.23 306.218 676.993 -1012.63 -3393.43 -4.30337 608.008 -3010.65 2777.04 -1577.78 -786.577 105.96 585.955 -291.453 -1925.57 -1403.88 -989.519 2372.4 1257.29 -3560.42 622.899 626.582 -669.084 12.9436 18.8201 -651.549 -2221.05 419.874 -387.257 -1334.7 188.293 192.84 -2644.13 -2775.69 1591.99 2073.52 1089.95 -937.342 -958.758 2671.29 -1327.39 13.3064 -189.188 432.269 -719.201 -1732.31 -1785.33 -370.853
internal_weight=0 12624 54015 24619 11046 1578 29396 23836 1315 783 3156 7890 21240 23053 8156 1052 2104 2893 522 783 526 18858 18726 4997 9973 9870 4787 416 4195 4211 1781 11267 11175 789 526 261 261 522 2506 2394 261 387 9776 3945 4103 2809 636 323 4049
internal_count=66639 12624 54015 24619 11046 1578 29396 23836 1315 783 3156 7890 21240 23053 8156 1052 2104 2893 522 783 526 18858 18726 4997 9973 9870 4787 416 4195 4211 1781 11267 11175 789 526 261 261 522 2506 2394 261 387 9776 3945 4103 2809 636 323 4049
is_linear=0
shrinkage=0.05


Tree=9
num_leaves=50
num_cat=0
split_feature=1 1 1 1 1 1 1 1 1 1 1 1 1 1 1 2 2 1 1 1 2 2 1 2 2 2 6 3 2 2 1 2 1 3 2 2 3 2 3 2 6 1 2 2 1 6 2 1 0
split_gain=9.65682e+12 2.96731e+12 2.09795e+12 1.26719e+12 5.7703e+11 4.17338e+11 2.92742e+11 1.18751e+11 9.56562e+10 9.25586e+10 7.9049e+10 7.57193e+10 4.91664e+10 4.40665e+10 3.06367e+10 2.16869e+10 1.99122e+10 1.68339e+10 1.47928e+10 1.47302e+10 1.46292e+10 1.39517e+10 1.37323e+10 1.36275e+10 1.31068e+10 1.17499e+10 1.05224e+10 1.02189e+10 1.0199e+10 1.01091e+10 1.2223e+10 1.00144e+10 9.96062e+09 9.72673e+09 9.25168e+09 9.0523e+09 8.96681e+09 8.85605e+09 8.83869e+09 8.79752e+09 8.6263e+09 8.36706e+09 8.35579e+09 8.27673e+09 7.93778e+09 7.76324e+09 7.53961e+09 8.12298e+09 7.53718e+09
threshold=-33586.647602716272 -90566.645963411764 -8529.1229552988389 35720.793788997202 -55043.825576442352 -153401.96644471382 -20996.681535883989 12903.439151215725 -114274.61365799412 75534.293395730361 -72135.29332286492 -43770.109973442683 -15233.776190476188 -25804.078947368416 -2458.8846153846148 -75194.294420813574 -49614.143498774814 52782.592793280732 -126876.27663919397 -62577.473898866781 -41596.3652946445 -27708.301333393887 -38657.67758732981 -5693.4999999999991 -16553.28161965423 -11701.371836787213 -79529.067624030533 -69308.660486282548 -17985.428364330979 -90343.211167017755 -105505.94777177766 -25801.099999999995 -47938.223689982406 53128.149052509463 -64438.845802215117 -37140.584395129357 53128.149052509463 -5181.4999999999991 3027.3049541321384 3006.6082105293758 -47977.696732787743 -17982.559022556386 -66559.064793132638 -39681.636433752785 -11689.533077294047 -90407.41515508866 22197.036357292007 6772.3906067935541 1.0000000180025095e-35
decision_type=2 2 2 2 2 2 2 2 2 2 2 2 2 2 2 2 2 2 2 2 2 2 2 2 2 2 2 2 2 2 2 2 2 2 2 2 2 2 2 2 2 2 2 2 2 2 2 2 2
left_child=1 5 6 7 10 48 13 14 18 17 15 20 25 24 39 -3 19 33 -7 34 27 22 43 -16 35 31 -17 -6 -14 30 -10 -8 -29 -5 -12 -2 -19 44 -9 -4 -22 -33 -21 -13 -30 -31 47 -25 -1
right_child=2 4 3 9 11 8 12 38 29 -11 16 21 28 -15 23 26 -18 36 -20 42 40 -23 -24 46 -26 -27 -28 32 37 45 -32 41 -34 -35 -36 -37 -38 -39 -40 -41 -42 -43 -44 -45 -46 -47 -48 -49 -50
leaf_value=-5153.6600577218196 49.350818301994764 -1645.6897535791938 497.52776062509656 2132.9986299261086 -434.82931632863148 -3647.557086204848 545.27342349364699 1662.948293309564 -2686.680795794548 3406.9825431034487 -1282.6381775250265 -592.71566989391863 641.58307857259115 -88.425506337147752 1079.1069561511656 -2569.1073984781906 -1751.5004814581059 2838.7616072527071 -3117.2444606998579 -827.25392960184854 -1564.6663212890626 -1050.0208268097908 -485.86765468791685 609.67127996035333 -937.29718253220187 -509.72423899450973 -1972.2585000610352 -950.3469563595927 199.93003014021664 -3413.6780296148263 -2221.2812876239377 27.214142708370574 -762.1332264599879 1398.8030280277646 -1597.5722825070645 -301.74754181658244 2252.414353646805 -224.26032460133234 1207.3818061603617 -188.6637766087309 -1034.376988150646 113.22489881069096 -1197.4076536697341 -790.6101731804788 311.25700526676405 -2655.9263863479036 -13.408575201034546 923.70653643448395 -4400.4846354166666
leaf_weight=224 191 636 7569 203 144 263 113 149 235 261 614 1829 150 4997 158 96 229 127 263 181 100 155 2533 13973 79 86 320 1579 5627 43 353 5402 1267 58 376 4730 134 108 373 47 329 5933 967 743 2238 158 48 209 39
leaf_count=224 191 636 7569 203 144 263 113 149 235 261 614 1829 150 4997 158 96 229 127 263 181 100 155 2533 13973 79 86 320 1579 5627 43 353 5402 1267 58 376 4730 134 108 373 47 329 5933 967 743 2238 158 48 209 39
internal_value=0 -1184.49 305.855 660.8 -918.493 -3223.76 26.8572 592.067 -2860.11 2638.18 -1468.66 -701.759 138.89 -193.433 574.385 -1829.29 -1308.38 2253.78 -3382.4 -1260.92 -884.941 -582.691 -568.502 617.309 -298.377 72.5294 -2109.99 -845.765 233.118 -2511.92 -2407.28 76.9034 -866.557 1969.84 -1402.25 -288.12 2537.73 225.433 1337.42 493.293 -1157.99 72.2342 -1139.05 -649.883 231.608 -2818.03 612.182 614.299 -5041.97
internal_weight=0 13676 52963 23309 12098 1578 29654 22526 1315 783 3419 8679 19657 9997 22004 1052 2367 522 526 2138 3419 5260 5105 14388 5000 11534 416 2990 8123 789 588 11448 2846 261 990 4921 261 7973 522 7616 429 11335 1148 2572 7865 201 14230 14182 263
internal_count=66639 13676 52963 23309 12098 1578 29654 22526 1315 783 3419 8679 19657 9997 22004 1052 2367 522 526 2138 3419 5260 5105 14388 5000 11534 416 2990 8123 789 588 11448 2846 261 990 4921 261 7973 522 7616 429 11335 1148 2572 7865 201 14230 14182 263
is_linear=0
shrinkage=0.05


Tree=10
num_leaves=50
num_cat=0
split_feature=1 1 1 1 1 1 1 1 1 1 1 1 1 1 1 1 2 2 2 1 1 2 2 2 2 2 2 2 2 2 2 2 3 6 1 1 2 3 2 3 2 1 1 2 1 2 2 2 3
split_gain=8.71565e+12 2.71603e+12 1.86151e+12 1.13995e+12 5.19178e+11 3.78355e+11 2.55305e+11 1.0637e+11 9.23033e+10 8.35342e+10 7.59075e+10 5.56e+10 4.40338e+10 4.1398e+10 4.00577e+10 2.53247e+10 2.01164e+10 1.9889e+10 1.83051e+10 1.51926e+10 1.42907e+10 1.32538e+10 1.25861e+10 1.15597e+10 1.13831e+10 1.12584e+10 1.04534e+10 1.03675e+10 9.81639e+09 9.27843e+09 9.2163e+09 9.1865e+09 9.15726e+09 8.84898e+09 8.39979e+09 8.36953e+09 8.97388e+09 8.35049e+09 8.10797e+09 7.97692e+09 7.93449e+09 7.8458e+09 7.6903e+09 7.65554e+09 7.34606e+09 8.25462e+09 7.04141e+09 6.83746e+09 6.81727e+09
threshold=-33136.961199911602 -79521.222667878304 -7973.1417522422971 35720.793788997202 -126876.27663919397 -50449.949008910262 -20642.749400053992 12903.439151215725 -153401.96644471382 75534.293395730361 -97273.063118366277 -62577.473898866781 -14873.906379731377 -40645.018964053204 -25408.399999999998 -1840.4999999999998 -79605.516840399927 -60780.821892834108 -44346.177741649321 52782.592793280732 -114274.61365799412 -33132.000875812322 -2753.0384615384614 -30939.032375802428 -18338.879310344822 -54965.883136920638 -10555.934112292252 3006.6082105293758 -97150.429500667276 -25409.030612244893 -17985.428364330979 -47152.643890532992 36259.924813679543 -66704.725700550232 -45659.91668417734 -56384.809040207365 -62548.780953035421 75675.314437166657 -11933.366718661984 3027.3049541321384 -1621.6538461538455 -17402.642434211903 -4730.4999999999991 -38145.731707186074 -69251.073310424923 -72054.77796205596 13074.984928922235 -105437.14081763969 -114691.43099176396
decision_type=2 2 2 2 2 2 2 2 2 2 2 2 2 2 2 2 2 2 2 2 2 2 2 2 2 2 2 2 2 2 2 2 2 2 2 2 2 2 2 2 2 2 2 2 2 2 2 2 2
left_child=1 4 6 7 8 11 14 15 -1 19 20 17 26 21 24 27 -12 44 35 32 47 25 -17 31 43 -7 29 42 -22 -8 -14 -15 -5 -19 -27 36 -13 -21 -16 -9 -32 -31 -4 -2 45 -3 -24 -6 -10
right_child=2 5 3 9 10 13 12 39 48 -11 16 18 30 23 38 22 -18 33 -20 37 28 -23 46 -25 -26 34 -28 -29 -30 41 40 -33 -34 -35 -36 -37 -38 -39 -40 -41 -42 -43 -44 -45 -46 -47 -48 -49 -50
leaf_value=-4789.873973681084 107.93771000674172 -1335.8759318408879 421.56304723523448 2164.1311242305869 -2856.6116072048612 -332.04764345982039 523.38971575398193 1579.8008771038697 -3344.8978760901164 3236.6335458572798 -1798.4514705671934 -925.06383987729339 631.71928117778953 -50.566511586086811 -66.625196238932702 979.37663896427603 -2345.3212850437244 -2189.7060013289306 -1503.9974763808141 2545.0957310922831 -2372.9138481770838 -1211.7562210192784 597.31669403357171 -805.88023059792715 -818.95994085496477 -830.39133259126504 -487.71323446579919 -174.12345653402394 -2850.3713886589408 39.194621591043159 229.81104771048115 -493.62871003192106 1571.7637087799783 -1624.8117428626545 -673.87166994856591 -929.29771356222159 -1239.5231542199804 1815.0737660725911 -651.20213478087135 1147.0127276423152 -338.18705006262229 121.61893085945424 520.8471940849895 -271.15696004788867 -1221.2961102997097 -1701.7926099960773 213.78077751762612 -3581.7354029605262 -4003.9401285807289
leaf_weight=263 137 434 2594 132 225 183 118 149 215 261 546 353 142 121 5200 215 243 97 215 213 375 139 10893 292 93 1392 81 58 151 6169 7394 3533 129 243 2231 1164 635 48 60 373 62 5427 7861 4769 565 239 121 38 48
leaf_count=263 137 434 2594 132 225 183 118 149 215 261 546 353 142 121 5200 215 243 97 215 213 375 139 10893 292 93 1392 81 58 151 6169 7394 3533 129 243 2231 1164 635 48 60 373 62 5427 7861 4769 565 239 121 38 48
internal_value=0 -1111.8 294.094 631.165 -2767.13 -817.54 32.1053 565.219 -4127.53 2506.27 -2313.66 -1217.36 138.815 -617.658 -169.612 548.285 -1966.88 -1447.25 -1064.09 2141.1 -2660.45 -732.196 600.499 -503.149 -270.959 -714.681 78.3444 492.515 -2509.98 82.2586 232.687 -478.957 1871.35 -1785.97 -734.008 -1020.14 -1127.17 2410.84 -73.2934 1270.55 225.088 77.7697 496.214 -260.571 -1354.23 -1465.82 593.103 -2961.38 -3465.18
internal_weight=0 13940 52699 23047 2104 11836 29652 22264 526 783 1578 3945 19393 7891 10259 21742 789 1578 2367 522 789 3945 11229 3946 4999 3806 11795 10513 526 11714 7598 3654 261 340 3623 2152 988 261 5260 522 7456 11596 10455 4906 1238 673 11014 263 263
internal_count=66639 13940 52699 23047 2104 11836 29652 22264 526 783 1578 3945 19393 7891 10259 21742 789 1578 2367 522 789 3945 11229 3946 4999 3806 11795 10513 526 11714 7598 3654 261 340 3623 2152 988 261 5260 522 7456 11596 10455 4906 1238 673 11014 263 263
is_linear=0
shrinkage=0.05


Tree=11
num_leaves=50
num_cat=0
split_feature=1 1 1 1 1 1 1 1 1 1 1 1 1 1 1 1 2 2 2 4 2 1 3 2 2 2 2 2 1 1 2 1 2 2 9 1 1 2 1 6 3 2 1 2 2 6 1 2 6
split_gain=7.87249e+12 2.273e+12 1.862e+12 1.0496e+12 3.99797e+11 3.39201e+11 2.89418e+11 1.26496e+11 7.72213e+10 5.59489e+10 5.15663e+10 4.74542e+10 4.73914e+10 3.23312e+10 3.21264e+10 2.67903e+10 1.8764e+10 1.78513e+10 1.63583e+10 1.43657e+10 1.31045e+10 1.20488e+10 1.17052e+10 1.12328e+10 1.05715e+10 1.03028e+10 9.78041e+09 8.99957e+09 8.8808e+09 8.75065e+09 8.67318e+09 1.03887e+10 8.477e+09 8.41259e+09 8.37809e+09 8.27181e+09 8.16328e+09 8.12785e+09 7.85829e+09 7.84111e+09 7.71709e+09 7.68382e+09 7.66223e+09 7.63093e+09 7.50908e+09 7.32709e+09 7.23895e+09 7.07648e+09 6.97238e+09
threshold=-36065.930935826451 -90566.645963411764 -10558.963928246456 22130.455132966719 -56384.809040207365 -153401.96644471382 -23450.552259759006 52782.592793280732 -114274.61365799412 -72135.29332286492 -46372.511636279705 -4323.9666666666662 -17051.345443910042 2957.4103811294049 75534.293395730361 -30120.265393491802 -69153.687659569929 -54965.883136920638 -44346.177741649321 53327.867858648104 6848.1264370662984 -126876.27663919397 -2043.9285714285713 -33586.647602716272 -13562.341479266865 -28149.499999999996 -19234.482327548649 -1881.6249999999998 -41600.48988578486 -64418.185977381887 -90343.211167017755 -105505.94777177766 -6305.8137254901958 -24828.62667341925 1.0000000180025095e-35 -1173.4999999999998 -79521.222667878304 -34010.124145406451 -13721.663961038959 -66704.725700550232 53128.149052509463 -42669.707141466301 -19670.774080332765 -72054.77796205596 -16289.280303030302 75700.152492388632 35720.793788997202 -60780.821892834108 -90407.41515508866
decision_type=2 2 2 2 2 2 2 2 2 2 2 2 2 2 2 2 2 2 2 2 2 2 2 2 2 2 2 2 2 2 2 2 2 2 2 2 2 2 2 2 2 2 2 2 2 2 2 2 2
left_child=1 5 6 11 9 -1 15 19 21 16 18 27 24 20 40 33 36 29 47 46 35 -7 -15 28 25 -8 37 44 -12 43 31 -10 38 41 -20 -13 -3 -17 -14 -19 -9 -2 -27 -11 -4 -21 -5 -6 -32
right_child=2 4 3 7 10 8 12 14 30 17 23 13 32 22 -16 26 -18 39 34 45 -22 -23 -24 -25 -26 42 -28 -29 -30 -31 48 -33 -34 -35 -36 -37 -38 -39 -40 -41 -42 -43 -44 -45 -46 -47 -48 -49 -50
leaf_value=-4550.3802236810834 66.703015814094897 -1676.2337137532181 809.27849230957042 1504.3538263670157 -486.20391438158254 -3291.9203228968636 483.08564873062261 2569.568792292077 -2431.1612957114362 -1058.4422548236269 -648.19168669501983 509.60698164091718 136.22269053133604 1132.4059703207915 3074.8018850275384 195.06525839760499 -2023.7609160539214 -1933.2036109834562 -965.96212251349152 749.36802991979266 -144.00394231232119 -2813.3131817371673 723.84952304464514 -872.55942163029033 -467.85802164416367 -30.371505909618861 -589.32677318864876 -87.411576590765094 -509.06706802834179 -1040.3762217474643 -3118.5313181322676 -2002.1008813960693 -326.8536579072304 -827.32048209742504 -1422.8989722842261 579.15151293398037 -1354.6903943549262 -181.24687002192593 225.46125025858615 -1390.5494321941167 2025.6139294980178 -363.99158769132487 56.140959459773377 -1399.3521779143866 371.2329132901134 1666.8684509277346 1918.5451879765999 -833.44799274453862 -2400.4135841079906
leaf_weight=263 107 437 100 213 158 263 119 127 235 264 2026 11009 6777 265 261 148 255 85 249 68 71 263 518 327 112 4863 143 105 2644 1014 43 353 87 95 168 6991 360 4708 3879 307 134 3218 5403 434 4516 32 209 2055 158
leaf_count=263 107 437 100 213 158 263 119 127 235 264 2026 11009 6777 265 261 148 255 85 249 68 71 263 518 327 112 4863 143 105 2644 1014 43 353 87 95 168 6991 360 4708 3879 307 134 3218 5403 434 4516 32 209 2055 158
internal_value=0 -1138.8 259.344 580.777 -879.425 -2911.19 -7.46715 2132.18 -2583.35 -1352.72 -683.58 512.075 90.8677 547.572 2682.55 -255.553 -1650.44 -1203.85 -862.786 1581.8 533.943 -3052.62 862.122 -589.261 15.311 20.5219 -181.779 370.311 -569.424 -1134.16 -2270.5 -2173.58 164.694 -363.387 -1150.05 536.617 -1530.99 -169.778 168.707 -1508.22 2290.3 -350.132 15.16 -1270.41 380.723 1042.97 1709.49 -808.656 -2554.04
internal_weight=0 12361 54278 24619 10783 1578 29659 1044 1315 3156 7627 23575 21240 18854 522 8419 1052 2104 2630 522 18071 526 783 4997 10497 10385 4999 4721 4670 1712 789 588 10743 3420 417 18000 797 4856 10656 392 261 3325 10266 698 4616 100 422 2213 201
internal_count=66639 12361 54278 24619 10783 1578 29659 1044 1315 3156 7627 23575 21240 18854 522 8419 1052 2104 2630 522 18071 526 783 4997 10497 10385 4999 4721 4670 1712 789 588 10743 3420 417 18000 797 4856 10656 392 261 3325 10266 698 4616 100 422 2213 201
is_linear=0
shrinkage=0.05


Tree=12
num_leaves=50
num_cat=0
split_feature=1 1 1 1 1 1 1 1 1 1 1 1 1 1 1 2 2 2 1 1 1 2 1 1 2 2 2 2 2 2 1 2 1 2 1 3 1 6 2 6 2 2 3 2 2 2 1 0 7
split_gain=7.10578e+12 2.13264e+12 1.59631e+12 9.31944e+11 3.98922e+11 3.06129e+11 2.41233e+11 8.90423e+10 6.96922e+10 6.79035e+10 5.86567e+10 4.87701e+10 4.69163e+10 2.59792e+10 2.11425e+10 1.87706e+10 1.48633e+10 1.30857e+10 1.25278e+10 1.22744e+10 1.12924e+10 1.10472e+10 1.0874e+10 1.07217e+10 1.06977e+10 9.8682e+09 9.39225e+09 9.38416e+09 9.16484e+09 8.61244e+09 8.25622e+09 8.19838e+09 8.0244e+09 8.50742e+09 7.75459e+09 7.73764e+09 7.69674e+09 7.54826e+09 7.47455e+09 7.33428e+09 7.27136e+09 7.21099e+09 7.188e+09 7.10702e+09 7.09318e+09 6.84259e+09 8.70639e+09 6.80231e+09 7.74475e+09
threshold=-34474.068112933121 -90566.645963411764 -8529.1229552988389 35720.793788997202 -55043.825576442352 -153401.96644471382 -22435.623809523804 6772.3906067935541 -114274.61365799412 75534.293395730361 -69251.073310424923 -44986.388904857711 -16052.962206206576 -27699.448051948046 -2928.2499999999995 -66559.064793132638 -53725.707630833116 -43232.2055385364 22130.455132966719 52782.592793280732 -79521.222667878304 -31348.172889367554 -126876.27663919397 -38657.67758732981 13074.984928922235 -12152.881590611374 -20459.431660681785 53123.708883338033 -28149.499999999996 22197.036357292007 -12913.413064742364 -25119.443805691288 -97273.063118366277 -90343.211167017755 -19236.162704796556 36259.924813679543 1.0000000180025095e-35 -47977.696732787743 -59152.704361873984 -57903.333162799565 -48772.160247197462 -1712.5941543988438 75675.314437166657 -18976.201149425284 -84505.322937850025 -75194.294420813574 -60863.693334257092 1.0000000180025095e-35 -71916.044717996294
decision_type=2 2 2 2 2 2 2 2 2 2 2 2 2 2 2 2 2 2 2 2 2 2 2 2 2 2 2 2 2 2 2 2 2 2 2 2 2 2 2 2 2 2 2 2 2 2 2 2 2
left_child=1 5 6 7 10 47 13 14 22 19 15 17 25 31 41 20 45 38 29 35 44 23 -7 40 36 28 -14 -20 -8 -9 -28 -2 33 -10 -30 -5 -16 -19 -6 -18 -13 -4 -21 -15 -3 -12 -47 48 -1
right_child=2 4 3 9 11 8 12 18 32 -11 16 21 26 43 24 -17 39 37 27 42 -22 -23 -24 -25 -26 -27 30 -29 34 -31 -32 -33 -34 -35 -36 -37 -38 -39 -40 -41 -42 -43 -44 -45 -46 46 -48 -49 -50
leaf_value=-4533.1704940719228 -279.95079752728657 -1444.735097798814 417.08287827830486 1959.9973351680871 -418.46641596204284 -3127.3242796459126 489.43102749850914 976.69753730394189 -2175.9303662335433 2921.0617636494253 -661.59934470078042 -249.62327696631939 612.54289679940291 -111.38478504492475 503.70879372627996 -1875.8389645081616 -1699.6264318847659 -1388.5618803267046 1405.5163992420901 2300.3437533239808 -1271.705336238047 -842.4992286769766 -2672.6475285171105 -417.25754942840189 -170.26994862556458 -473.03183609475485 142.87271083249001 326.37672119140626 -12.874230550407123 412.91422228097917 236.66742935626777 -606.41307383622268 -1931.4743721037312 -2700.8053607047877 71.264891583619686 1415.4787670000578 589.12202752927294 -912.23162995727182 -759.41985366740596 -1229.8311264829283 -586.14355921383981 17.326231284763505 1623.0393875122072 -478.45739805557054 -1846.7552814421106 -1174.567185447891 -941.13291829040304 -3713.4475260416666 -3599.4835781250003
leaf_weight=199 4009 274 5921 132 173 263 113 442 432 261 116 170 127 4335 12293 291 120 110 239 213 567 261 263 1950 56 94 5961 22 4629 80 3869 202 263 94 6705 129 3358 341 2269 270 2879 115 48 136 183 809 789 39 25
leaf_count=199 4009 274 5921 132 173 263 113 442 432 261 116 170 127 4335 12293 291 120 110 239 213 567 261 263 1950 56 94 5961 22 4629 80 3869 202 263 94 6705 129 3358 341 2269 270 2879 115 48 136 183 809 789 39 25
internal_value=0 -1041.31 256.001 566.811 -806.178 -2765.63 15.9529 507.867 -2454.18 2262.57 -1259.51 -616.07 105.787 -206.489 489.002 -1521.48 -1095.79 -780.965 1031.71 1933.32 -1420.77 -525.378 -2899.99 -508.821 519.566 37.1785 185.309 1314.55 41.3682 890.294 179.789 -295.611 -2156.98 -2269.73 36.901 1690.87 522.035 -1028.41 -735.265 -1374.38 -567.381 409.467 2175.78 -122.55 -1605.72 -1032.39 -1059.31 -4322.86 -4428.96
internal_weight=0 13150 53489 23309 11572 1578 30180 22526 1315 783 3419 8153 21498 8682 21743 1315 2104 2893 783 522 1024 5260 526 4999 15707 11541 9957 261 11447 522 9830 4211 789 526 11334 261 15651 451 2442 390 3049 6036 261 4471 457 1714 1598 263 224
internal_count=66639 13150 53489 23309 11572 1578 30180 22526 1315 783 3419 8153 21498 8682 21743 1315 2104 2893 783 522 1024 5260 526 4999 15707 11541 9957 261 11447 522 9830 4211 789 526 11334 261 15651 451 2442 390 3049 6036 261 4471 457 1714 1598 263 224
is_linear=0
shrinkage=0.05


Tree=13
num_leaves=50
num_cat=0
split_feature=1 1 1 1 1 1 1 1 1 1 1 1 1 1 1 1 2 2 2 4 2 2 2 1 2 6 9 2 1 2 1 2 1 2 2 2 1 2 6 2 2 2 4 2 6 6 1 2 2
split_gain=6.41523e+12 1.8252e+12 1.54336e+12 8.57812e+11 3.14355e+11 2.76281e+11 2.45424e+11 1.03032e+11 6.28972e+10 4.59918e+10 4.31703e+10 3.91389e+10 3.83253e+10 2.75737e+10 2.61671e+10 2.30752e+10 1.63325e+10 1.51569e+10 1.36753e+10 1.21441e+10 1.0834e+10 1.05884e+10 1.03046e+10 9.81383e+09 9.57448e+09 8.75273e+09 8.51262e+09 8.45731e+09 8.37596e+09 8.16136e+09 8.04927e+09 7.9223e+09 8.1592e+09 7.91676e+09 7.55499e+09 7.44218e+09 9.12897e+09 7.43662e+09 7.35666e+09 7.34702e+09 7.28219e+09 6.7751e+09 6.64529e+09 6.6414e+09 6.57419e+09 6.31622e+09 6.26708e+09 6.22261e+09 6.22117e+09
threshold=-36605.977504447284 -90566.645963411764 -10884.804033050264 22130.455132966719 -56384.809040207365 -153401.96644471382 -23741.573022804459 52782.592793280732 -114274.61365799412 -72135.29332286492 -5179.3670276798284 -46372.511636279705 -17286.723220033546 2957.4103811294049 75534.293395730361 -30905.79246910031 -75194.294420813574 -57790.593467931139 -44346.177741649321 53327.867858648104 6848.1264370662984 -1755.7878787878788 -35512.065773543531 -126876.27663919397 -13562.341479266865 -79529.067624030533 1.0000000180025095e-35 -29748.970604451435 -1617.9815287166255 -1577.6999999999998 -62577.473898866781 -51345.902426466397 -41128.772921510419 -35512.065773543531 -5984.8571428571422 -90343.211167017755 -105505.94777177766 -43232.2055385364 -47977.696732787743 -21373.499999999996 -17750.211866992806 35681.600838992286 36697.863547710243 -28149.499999999996 75700.152492388632 -84576.181715557177 -14299.435737328977 -16047.336363636361 -114479.14574689411
decision_type=2 2 2 2 2 2 2 2 2 2 2 2 2 2 2 2 2 2 2 2 2 2 2 2 2 2 2 2 2 2 2 2 2 2 2 2 2 2 2 2 2 2 2 2 2 2 2 2 2
left_child=1 5 6 10 9 -1 15 19 23 16 29 18 24 20 42 37 -3 30 -6 -5 28 -15 31 -7 27 -18 -19 -8 -12 47 -11 -13 -33 -17 39 36 -10 -2 -20 -14 -35 -23 -9 -39 -21 -37 -41 -4 -25
right_child=2 4 3 7 11 8 12 14 35 17 13 22 34 21 -16 33 25 26 38 44 -22 41 -24 48 -26 -27 -28 -29 -30 -31 -32 32 -34 40 -36 45 -38 43 -40 46 -42 -43 -44 -45 -46 -47 -48 -49 -50
leaf_value=-4106.7182591195342 65.850748391832624 -1331.8857247022715 708.32378649902353 1544.9735103010566 -730.01049981763128 -2970.9580835610741 470.88899908828739 2387.1180131835936 -2200.8067561502662 -1104.5580813816616 447.78658024044518 -149.78555819723343 519.99568420997036 1198.6150750107652 2775.0086386494254 183.61609790429875 -2153.5458516438803 -1113.057300060779 -1368.7243564293033 654.04852269116577 -134.17249421543545 733.76157136874599 -760.08377124126764 -2366.5701964285718 -459.93438436013685 -1609.1963305664065 -1498.8318154501749 8.7838074257951728 514.10701024589741 -188.08018898669584 -873.28038609631096 -594.69408727411576 -453.78481520283378 -178.11836750002834 -335.37535953986935 -2768.4385209517045 -1798.6009169451577 -344.53774880159267 -907.10137397378185 108.90572500713634 -573.88591741674088 -61.153759765625004 1868.1574704851425 -671.63106881816213 1523.132635498047 -2139.7451593268411 185.91239257837697 308.68324078982181 -2881.9453813032669
leaf_weight=263 105 636 100 422 2213 263 100 100 235 868 9705 144 130 127 261 148 96 286 122 68 72 628 474 175 108 320 286 10028 9345 81 664 2141 1975 4995 82 55 353 2888 295 6175 119 28 161 164 32 146 4618 3751 88
leaf_count=263 105 636 100 422 2213 263 100 100 235 868 9705 144 130 127 261 148 96 286 122 68 72 628 474 175 108 320 286 10028 9345 81 664 2141 1975 4995 82 55 353 2888 295 6175 119 28 161 164 32 146 4618 3751 88
internal_value=0 -1041.64 231.051 521.449 -803.782 -2627.35 -12.557 1924.29 -2331.47 -1221.29 460.008 -624.851 77.9923 489.915 2421 -241.012 -1491.22 -1086.32 -779.503 1427.58 478.006 780.733 -538.934 -2754.99 8.35287 -1734.82 -1305.94 13.3465 480.32 308.614 -1004.32 -514.327 -527.081 -176.894 142.766 -2049.13 -1959.35 -347.88 -1042.16 146.355 -187.328 699.832 2066.99 -362.114 932.155 -2311.78 141.855 319.061 -2539.02
internal_weight=0 12098 54541 24881 10520 1578 29660 1044 1315 3156 23837 7364 21241 19905 522 8419 1052 2104 2630 522 19122 783 4734 526 10236 416 572 10128 19050 3932 1532 4260 4116 5262 11005 789 588 3157 417 10923 5114 656 261 3052 100 201 10793 3851 263
internal_count=66639 12098 54541 24881 10520 1578 29660 1044 1315 3156 23837 7364 21241 19905 522 8419 1052 2104 2630 522 19122 783 4734 526 10236 416 572 10128 19050 3932 1532 4260 4116 5262 11005 789 588 3157 417 10923 5114 656 261 3052 100 201 10793 3851 263
is_linear=0
shrinkage=0.05


Tree=14
num_leaves=50
num_cat=0
split_feature=1 1 1 1 1 1 1 1 1 1 1 1 1 1 1 2 2 1 2 2 1 2 1 2 2 2 6 2 2 2 2 2 2 2 1 2 1 3 2 3 3 2 3 2 0 7 1 2 2
split_gain=5.79151e+12 1.8309e+12 1.21721e+12 7.56997e+11 3.425e+11 2.63058e+11 1.64084e+11 7.15922e+10 6.12359e+10 5.47233e+10 5.08457e+10 3.6089e+10 3.05845e+10 2.93698e+10 2.44296e+10 1.6606e+10 1.57787e+10 1.54595e+10 1.26827e+10 1.08256e+10 9.5707e+09 9.56532e+09 9.05891e+09 8.98988e+09 8.78944e+09 8.38885e+09 8.25287e+09 7.9048e+09 7.58773e+09 7.55065e+09 7.403e+09 7.28038e+09 7.15068e+09 7.0846e+09 6.82281e+09 6.7532e+09 6.66491e+09 6.63917e+09 6.40485e+09 6.38635e+09 6.24386e+09 6.21581e+09 6.15259e+09 6.14076e+09 6.13909e+09 7.05082e+09 6.00346e+09 5.83825e+09 5.81696e+09
threshold=-32679.260755425999 -79521.222667878304 -7441.245918231175 35720.793788997202 -126876.27663919397 -50449.949008910262 -20642.749400053992 12903.439151215725 -153401.96644471382 75534.293395730361 -97273.063118366277 -60863.693334257092 -14873.906379731377 -40164.978729519971 -25804.078947368416 -60780.821892834108 -79605.516840399927 -1840.4999999999998 -44346.177741649321 -36073.032049439491 52782.592793280732 -4144.1111111111113 -114274.61365799412 -54965.883136920638 -42669.707141466301 -23740.729468599031 -66704.725700550232 -17635.169309762117 -97150.429500667276 -9001.7177955460083 -21178.537147656705 35681.600838992286 630.00000000000011 -23450.552259759006 -69251.073310424923 -69153.687659569929 22130.455132966719 36259.924813679543 -15461.623877414868 -84491.602634335344 75675.314437166657 -574.9166666666664 -114691.43099176396 -36073.032049439491 1.0000000180025095e-35 -79183.335301993851 -44347.36550518094 13074.984928922235 -105437.14081763969
decision_type=2 2 2 2 2 2 2 2 2 2 2 2 2 2 2 2 2 2 2 2 2 2 2 2 2 2 2 2 2 2 2 2 2 2 2 2 2 2 2 2 2 2 2 2 2 2 2 2 2
left_child=1 4 6 7 8 11 14 17 44 20 22 15 29 19 25 34 -12 38 35 23 37 -19 48 -7 -15 43 -17 -14 -24 33 -26 36 -29 -8 39 -13 -9 -5 -4 -3 -22 -40 -10 -2 45 -1 -25 -23 -6
right_child=2 5 3 9 10 13 12 31 42 -11 16 18 27 24 -16 26 -18 21 -20 -21 40 47 28 46 30 -27 -28 32 -30 -31 -32 -33 -34 -35 -36 -37 -38 -39 41 -41 -42 -43 -44 -45 -46 -47 -48 -49 -50
leaf_value=-4112.493180170748 76.842164408391525 -939.21572283386558 915.39372918801246 1784.7487452651517 -2315.4279991319445 -230.44250719917014 388.77413611327512 949.36170173367032 -2708.1427979651162 2636.2582476502635 -1455.6575920580071 -384.74715339270506 544.07383002256745 -130.26202358980481 -63.171290175256559 -1774.3131093427169 -1939.991767939815 865.08750555758002 -1228.2749259159482 -913.98935336670934 2079.7365584539139 487.65267623196718 -1932.1610894531252 -649.61254556553342 -410.38001046815799 -507.93989132563274 -1290.1741851901124 188.72652814080547 -2351.9343892280631 -468.91725274288297 -975.02305721991661 605.90025476526341 -373.38023316232784 62.685240840972327 -964.55216781026093 -833.26062449367419 1340.9568110200548 1280.3599710863691 405.65609296617191 -1281.9443346260009 1448.4794946034751 32.748619876287684 -3334.2329793294275 -216.97828443749086 -3322.4393229166667 -3288.8246940104168 -523.57214675704643 138.42641168399291 -2984.2533717105266
leaf_weight=194 186 189 61 132 225 187 169 247 215 261 546 88 156 283 5523 121 243 167 203 241 213 10941 375 1860 3604 240 323 7647 151 66 59 81 57 11560 724 1813 194 129 10077 484 48 113 48 4047 39 30 1920 121 38
leaf_count=194 186 189 61 132 225 187 169 247 215 261 546 88 156 283 5523 121 243 167 203 241 213 10941 375 1860 3604 240 323 7647 151 66 59 81 57 11560 724 1813 194 129 10077 484 48 113 48 4047 39 30 1920 121 38
internal_value=0 -895.625 242.592 517.402 -2256.96 -658.891 31.4175 463.034 -3361.9 2045.12 -1888.65 -994.075 115.298 -496.726 -133.515 -1155.75 -1604.83 448.974 -852.614 -588.617 1749.55 489.503 -2172.47 -568.851 -398.733 -220.372 -1422.11 191.703 -2052.67 64.3828 -419.475 1041.6 184.568 67.3838 -1071.09 -812.498 1121.63 1535.45 404.579 -1185.7 1963.64 401.521 -2822.41 -204.068 -3901.38 -4002.18 -585.592 483.833 -2412.06
internal_weight=0 14203 52436 22785 2104 12099 29651 22002 526 783 1578 3945 19655 8154 9996 1841 789 21480 2104 4208 522 11229 789 3967 3946 4473 444 7860 526 11795 3663 522 7704 11729 1397 1901 441 261 10251 673 261 10190 263 4233 263 224 3780 11062 263
internal_count=66639 14203 52436 22785 2104 12099 29651 22002 526 783 1578 3945 19655 8154 9996 1841 789 21480 2104 4208 522 11229 789 3967 3946 4473 444 7860 526 11795 3663 522 7704 11729 1397 1901 441 261 10251 673 261 10190 263 4233 263 224 3780 11062 263
is_linear=0
shrinkage=0.05


Tree=15
num_leaves=50
num_cat=0
split_feature=1 1 1 1 1 1 1 1 1 1 1 1 1 1 1 2 2 2 2 2 6 3 1 2 1 1 2 1 2 2 1 2 2 2 2 2 2 2 1 1 1 2 6 9 3 2 6 2 2
split_gain=5.23027e+12 1.48853e+12 1.25878e+12 7.00666e+11 2.563e+11 2.24575e+11 1.9955e+11 7.023e+10 5.07941e+10 4.93878e+10 3.74518e+10 3.47917e+10 3.2223e+10 3.13753e+10 1.58475e+10 1.49697e+10 1.34264e+10 1.20842e+10 9.48718e+09 9.46627e+09 9.24172e+09 9.2219e+09 9.04626e+09 8.90772e+09 8.63756e+09 8.31973e+09 8.06023e+09 7.99342e+09 7.83658e+09 7.56428e+09 7.22241e+09 6.94818e+09 6.82405e+09 6.80249e+09 6.68204e+09 6.47916e+09 6.46395e+09 6.35996e+09 7.77725e+09 6.32907e+09 6.24803e+09 6.19248e+09 6.1085e+09 5.96374e+09 5.8422e+09 5.78521e+09 5.70473e+09 5.643e+09 5.60019e+09
threshold=-36605.977504447284 -90566.645963411764 -10884.804033050264 35720.793788997202 -56384.809040207365 -153401.96644471382 -24279.833333333332 6772.3906067935541 -114274.61365799412 75534.293395730361 -75263.850017880948 -17874.201190476186 -47938.223689982406 -5179.3670276798284 -30905.79246910031 -75194.294420813574 -53725.707630833116 -44980.126677418688 6848.1264370662984 -33586.647602716272 -57903.333162799565 -79521.222667878304 -107.92307692307712 -11701.371836787213 52782.592793280732 22130.455132966719 22197.036357292007 -126876.27663919397 -30153.382726818349 6848.1264370662984 -42112.564299749101 -21373.499999999996 -1712.5941543988438 -5984.8571428571422 -44346.177741649321 -20643.460938515531 -30153.382726818349 -90343.211167017755 -105505.94777177766 -14593.57497666119 -64418.185977381887 53123.708883338033 -53896.108614890458 1.0000000180025095e-35 53128.149052509463 -34468.667620334731 -90407.41515508866 -62548.780953035421 -44980.126677418688
decision_type=2 2 2 2 2 2 2 2 2 2 2 2 2 2 2 2 2 2 2 2 2 2 2 2 2 2 2 2 2 2 2 2 2 2 2 2 2 2 2 2 2 2 2 2 2 2 2 2 2
left_child=1 5 6 7 10 -1 14 13 27 24 15 23 17 32 36 -3 20 47 22 30 21 -12 -15 28 41 29 -27 -7 -8 -9 34 -13 -4 39 -14 45 -2 38 -10 -33 -23 -5 -19 -18 -26 -16 -39 -6 -32
right_child=2 4 3 9 12 8 11 25 37 -11 16 31 19 18 35 -17 43 42 -20 -21 -22 40 -24 -25 44 26 -28 -29 -30 -31 48 33 -34 -35 -36 -37 -38 46 -40 -41 -42 -43 -44 -45 -46 -47 -48 -49 -50
leaf_value=-3706.3132611989067 -286.98315616147153 -1247.0443319081355 288.36578688542215 1584.5237094323613 -314.56795889282228 -2681.2896328422053 446.40083895024566 1047.469790469899 -1991.9255246426198 2504.4453458004073 -784.56260150244486 462.6209559878813 -471.16912492533203 420.11077007659196 122.43369965741863 -1709.0469208575928 -1009.0488425699871 -1403.211100471794 12.697750639377681 -773.68791083511042 -855.20537996572602 -1314.4944544886685 508.36630521073562 -500.49500484042284 2108.4512941375492 1486.6223756167765 909.12764933023107 -2291.4612304687503 -5.3604084585112899 641.3132924686779 -192.28441030388205 90.05691269315443 -167.18894028436571 -317.57293705566462 -643.30181327145533 -477.69193058478896 -506.36110761952023 -2605.4594658430233 -1620.6891268203346 163.27825200184122 -1018.9041989657546 987.34061090642763 -890.07166867519959 -1446.5459030563768 1635.1645455887069 -169.11878211904713 -1955.8942562054986 -701.10743429936986 -448.33060485321653
leaf_weight=263 2775 526 3848 206 100 263 97 170 235 261 218 148 1281 15687 177 263 120 77 133 294 1088 333 3563 90 127 95 166 263 9265 352 234 6947 84 89 1007 164 382 43 353 5131 386 55 235 222 134 4395 158 1692 2444
leaf_count=263 2775 526 3848 206 100 263 97 170 235 261 218 148 1281 15687 177 263 120 77 133 294 1088 333 3563 90 127 95 166 263 9265 352 234 6947 84 89 1007 164 382 43 353 5131 386 55 235 222 134 4395 158 1692 2444
internal_value=0 -940.53 208.623 470.885 -725.728 -2372.54 -11.3808 423.057 -2105.78 1942.86 -1102.71 66.7158 -564.163 407.414 -226.752 -1401.05 -1003.27 -729.536 433.538 -498.014 -954.332 -1069.43 436.446 -5.43883 1662.07 888.833 1119.33 -2486.38 -0.679695 773.586 -481.693 122.096 278.634 117.954 -546.929 -168.908 -313.528 -1852.06 -1769.06 121.163 -1155.8 1458.68 -1016.71 -1293.04 1865.46 -157.832 -2094.86 -679.537 -425.958
internal_weight=0 12098 54541 24881 10520 1578 29660 24098 1315 783 3156 21767 7364 23315 7893 789 2367 2104 19383 5260 2025 937 19250 9452 522 783 261 526 9362 522 4966 12315 3932 12167 2288 4736 3157 789 588 12078 719 261 312 342 261 4572 201 1792 2678
internal_count=66639 12098 54541 24881 10520 1578 29660 24098 1315 783 3156 21767 7364 23315 7893 789 2367 2104 19383 5260 2025 937 19250 9452 522 783 261 526 9362 522 4966 12315 3932 12167 2288 4736 3157 789 588 12078 719 261 312 342 261 4572 201 1792 2678
is_linear=0
shrinkage=0.05


Tree=16
num_leaves=50
num_cat=0
split_feature=1 1 1 1 1 1 1 1 1 1 1 1 1 1 1 2 2 2 2 2 2 2 1 1 1 3 1 1 2 2 3 6 2 2 2 2 1 2 6 1 2 6 2 3 2 2 3 0 7
split_gain=4.72138e+12 1.32392e+12 1.15537e+12 6.32351e+11 2.24628e+11 2.02679e+11 1.90172e+11 6.33826e+10 4.58417e+10 4.45725e+10 3.86794e+10 3.31576e+10 2.84001e+10 2.47501e+10 1.47808e+10 1.38663e+10 1.35102e+10 1.1523e+10 9.40712e+09 8.78305e+09 8.16793e+09 8.00955e+09 7.7954e+09 7.52144e+09 7.50856e+09 7.35807e+09 7.27503e+09 7.21406e+09 7.00299e+09 6.88623e+09 6.64037e+09 8.12492e+09 6.62055e+09 6.52291e+09 6.4722e+09 6.30048e+09 6.276e+09 6.1288e+09 6.08018e+09 5.92665e+09 6.58118e+09 5.92558e+09 5.91303e+09 5.81361e+09 5.7674e+09 5.72135e+09 5.55271e+09 5.54053e+09 6.37121e+09
threshold=-37119.387167855639 -90566.645963411764 -10884.804033050264 35720.793788997202 -59185.983140393095 -153401.96644471382 -24537.191660448236 6772.3906067935541 -114274.61365799412 75534.293395730361 -48800.820358726909 -18094.480214820436 -4730.4999999999991 -75263.850017880948 -31764.827472773144 -57790.593467931139 -75194.294420813574 -44346.177741649321 -36073.032049439491 6848.1264370662984 -12152.881590611374 -13562.341479266865 52782.592793280732 -42112.564299749101 22130.455132966719 13322.597694467173 -489.8055555555556 -126876.27663919397 35681.600838992286 -21373.499999999996 -84491.602634335344 -84576.181715557177 -5984.8571428571422 -30939.032375802428 -30153.382726818349 -35512.065773543531 -14449.115079365078 -1881.6249999999998 -66704.725700550232 -97273.063118366277 -97150.429500667276 -57903.333162799565 -13388.546938775509 75675.314437166657 -62548.780953035421 -44980.126677418688 -114691.43099176396 1.0000000180025095e-35 -71916.044717996294
decision_type=2 2 2 2 2 2 2 2 2 2 2 2 2 2 2 2 2 2 2 2 2 2 2 2 2 2 2 2 2 2 2 2 2 2 2 2 2 2 2 2 2 2 2 2 2 2 2 2 2
left_child=1 5 6 7 13 47 14 12 27 22 17 21 37 16 33 30 -3 44 23 20 -14 34 43 45 28 -26 -22 46 -9 -13 -15 -32 36 -2 -8 -16 -31 -4 -17 40 -10 -20 -37 -5 -6 -12 -7 48 -1
right_child=2 4 3 9 10 8 11 24 39 -11 18 29 19 15 35 38 -18 -19 41 -21 26 -23 -24 -25 25 -27 -28 -29 -30 32 31 -33 -34 -35 -36 42 -38 -39 -40 -41 -42 -43 -44 -45 -46 -47 -48 -49 -50
leaf_value=-3711.270516645729 -285.62420237708074 -1184.6921120763279 282.3694717413901 1453.726145827424 -444.87458092825756 -2438.6711309956395 402.4267565647761 775.9812902093654 -1744.1240011718751 2379.2230758725455 -452.80353216152747 437.5111972549804 905.75856007295499 -672.00272300155075 125.97523556090239 -1634.5995866255328 -1623.5945769219345 -1034.84813488231 -1145.9250945560516 7.4462917009989429 396.74137668646182 -458.12114692192074 1772.1880922047117 -397.56834982588191 1438.8059834096625 875.63781324693525 469.42751603633087 -2176.8881334660173 -81.646607543945322 84.509465398873402 -1302.6075237509647 -923.30943329024035 -306.389937013321 -510.94408070937448 -10.302526795843379 -176.38866504291616 157.00128934787037 -115.47921039263409 -1157.308735988451 -1565.6539229592445 -2135.0646316225166 -626.77852541399125 -656.5217725078877 566.59153083801266 -717.1285793085068 -604.18948474684976 -3033.4567789713547 -2971.0016851963142 -2864.416734375
leaf_weight=199 2526 526 4358 241 217 215 96 497 375 261 1339 162 85 216 171 88 263 272 63 132 14085 99 261 2258 87 174 4556 263 25 7709 162 1099 95 368 8996 4763 4873 99 276 263 151 431 65 20 1878 1169 48 39 25
leaf_count=199 2526 526 4358 241 217 215 96 497 375 261 1339 162 85 216 171 88 263 272 63 132 14085 99 261 2258 87 174 4556 263 25 7709 162 1099 95 368 8996 4763 4873 99 276 263 151 431 65 20 1878 1169 48 39 25
internal_value=0 -905.654 195.577 447.34 -698.229 -2253.91 -13.7642 401.904 -2000.49 1845.72 -560.827 61.6849 387.044 -1096.69 -224.349 -996.281 -1330.99 -728.679 -485.294 413.871 416.736 -10.8152 1578.97 -463.766 844.392 1063.36 414.506 -2362.06 734.907 113.585 -928.16 -972.038 109.446 -314.276 -5.94463 -172.289 112.585 273.532 -1272.7 -1759.45 -1856.35 -692.985 -182.853 1385.75 -688.929 -523.366 -2547.23 -3521 -3616.76
internal_weight=0 11835 54804 24881 10257 1578 29923 24098 1315 783 7627 22030 23315 2630 7893 1841 789 2367 5260 18858 18726 9191 522 4766 783 261 18641 526 522 12839 1477 1261 12677 2894 9092 4999 12582 4457 364 789 526 494 4828 261 2095 2508 263 263 224
internal_count=66639 11835 54804 24881 10257 1578 29923 24098 1315 783 7627 22030 23315 2630 7893 1841 789 2367 5260 18858 18726 9191 522 4766 783 261 18641 526 522 12839 1477 1261 12677 2894 9092 4999 12582 4457 364 789 526 494 4828 261 2095 2508 263 263 224
is_linear=0
shrinkage=0.05


Tree=17
num_leaves=50
num_cat=0
split_feature=1 1 1 1 1 1 1 1 1 1 1 1 1 1 1 2 1 2 2 2 2 2 3 1 6 2 6 2 6 2 2 2 2 2 2 2 6 6 2 2 9 2 1 2 1 1 2 3 0
split_gain=4.26283e+12 1.30109e+12 9.42567e+11 5.56168e+11 2.13395e+11 2.08971e+11 1.44066e+11 5.37046e+10 4.5014e+10 4.02267e+10 3.10506e+10 2.62571e+10 2.37629e+10 2.22321e+10 2.21615e+10 1.40387e+10 1.19864e+10 9.63463e+09 8.66942e+09 8.60665e+09 7.81723e+09 7.58771e+09 7.5283e+09 7.61134e+09 7.26097e+09 6.73891e+09 7.12737e+09 6.68574e+09 6.67102e+09 6.65809e+09 6.4323e+09 6.42394e+09 6.37616e+09 6.33273e+09 6.18227e+09 5.94549e+09 5.91391e+09 5.77313e+09 5.59259e+09 5.57749e+09 5.34488e+09 5.20468e+09 5.28471e+09 5.11384e+09 5.11106e+09 5.08476e+09 5.06757e+09 5.01132e+09 5.00033e+09
threshold=-34009.841941202503 -84571.245617340333 -7441.245918231175 35720.793788997202 -126876.27663919397 -52587.014573651126 -20996.681535883989 12903.439151215725 -153401.96644471382 75534.293395730361 -66571.461139436185 -105505.94777177766 -15351.352053915274 -27331.523287753906 -42694.164903740028 -64438.845802215117 -2151.4999999999995 -49614.143498774814 -47152.643890532992 -43232.2055385364 -90343.211167017755 -5693.4999999999991 75675.314437166657 52782.592793280732 -56477.544786766834 -72054.77796205596 -56477.544786766834 -17985.428364330979 -90407.41515508866 -32217.646769764175 -57790.593467931139 -105437.14081763969 -25119.443805691288 -18338.879310344822 35681.600838992286 630.00000000000011 -43773.890524659284 -55124.540343542722 -14862.878693194498 -11701.371836787213 1.0000000180025095e-35 13074.984928922235 908.32352941176498 -32217.646769764175 -47938.223689982406 -12151.788761029073 -25801.099999999995 -114691.43099176396 1.0000000180025095e-35
decision_type=2 2 2 2 2 2 2 2 2 2 2 2 2 2 2 2 2 2 2 2 2 2 2 2 2 2 2 2 2 2 2 2 2 2 2 2 2 2 2 2 2 2 2 2 2 2 2 2 2
left_child=1 4 6 7 8 10 13 16 48 22 15 31 39 32 19 -3 38 25 -16 30 -13 -18 23 -5 -21 -12 -27 -14 -22 -20 -7 -6 -2 43 -9 45 -31 -19 -4 46 -17 42 -23 -15 -32 -29 -8 -10 -1
right_child=2 5 3 9 11 14 12 34 47 -11 17 20 27 33 18 40 21 37 29 24 28 41 -24 -25 -26 26 -28 35 -30 36 44 -33 -34 -35 -36 -37 -38 -39 -40 -41 -42 -43 -44 -45 -46 -47 -48 -49 -50
leaf_value=-3435.917958940779 -207.2980609989807 -1014.7348915861514 804.22275123596194 1381.0398483592942 -1869.4386522715902 -193.34122896748204 385.74006156240858 972.19914652852515 -2316.7375426962208 2260.2619224811424 -447.20703005912975 -1374.5766943785823 467.85311956517836 265.33962359510622 -53.091525682310262 -1051.5560380144818 767.51450373163289 -1361.817287481399 -378.37956321943551 -1068.5843954190341 -2175.4608961202334 401.84940601192409 1009.3861509771909 1791.2723890277703 -632.82247431924907 -909.76697369725684 -710.97935286324855 124.84044354321713 -1588.9588299919578 -973.84235534667971 -608.07483403903552 -2285.8380582682289 -478.61305663929238 -360.45732903969855 496.95423945674196 -348.96813851049393 -488.92134216308597 -909.85018802218974 335.03631027207967 -355.45744157678945 -1521.4482367973824 87.318025942546569 498.22624744216358 -69.975507236075728 -461.68067217800836 203.77323831498836 47.717360664721404 -2881.7838785807294 -2822.4516025641028
leaf_weight=224 3982 1002 64 241 406 155 112 441 215 261 156 458 170 116 192 82 151 105 3945 110 59 11167 68 213 730 743 1147 5401 272 84 1058 120 229 185 81 59 250 216 8345 85 231 123 1630 5748 1366 3279 11075 48 39
leaf_count=224 3982 1002 64 241 406 155 112 441 215 261 156 458 170 116 192 82 151 105 3945 110 59 11167 68 213 730 743 1147 5401 272 84 1058 120 229 185 81 59 250 216 8345 85 231 123 1630 5748 1366 3279 11075 48 39
internal_value=0 -796.625 200.75 443.953 -2031.26 -600.206 18.7133 397.352 -2882.41 1753.43 -911.238 -1690.8 96.2708 -133.839 -455.058 -1106.04 385.174 -803.013 -381.779 -550.884 -1508.37 415.132 1500.02 1573.51 -689.887 -763.057 -789.127 157.3 -1693.5 -396.527 -505.609 -1964.43 -222.053 -72.4292 898.454 151.258 -610.878 -1057.69 338.607 48.0357 -1398.35 411.014 414.125 -63.3424 -525.577 154.658 51.1015 -2419.86 -3344.95
internal_weight=0 13413 53226 22785 1841 11572 30441 22002 526 783 3682 1315 20181 10260 7890 1315 21480 2367 4471 3419 789 13071 522 454 840 2046 1890 8909 331 4279 2579 526 4211 6049 522 8739 334 321 8409 11272 313 12920 12797 5864 2424 8680 11187 263 263
internal_count=66639 13413 53226 22785 1841 11572 30441 22002 526 783 3682 1315 20181 10260 7890 1315 21480 2367 4471 3419 789 13071 522 454 840 2046 1890 8909 331 4279 2579 526 4211 6049 522 8739 334 321 8409 11272 313 12920 12797 5864 2424 8680 11187 263 263
is_linear=0
shrinkage=0.05


Tree=18
num_leaves=50
num_cat=0
split_feature=1 1 1 1 1 1 1 1 1 1 1 1 1 1 1 1 2 2 2 3 2 2 2 6 2 2 1 7 2 6 6 2 2 1 3 6 2 2 2 2 1 2 6 6 2 2 4 6 7
split_gain=3.85042e+12 1.08007e+12 9.40894e+11 5.1359e+11 1.83668e+11 1.64654e+11 1.58153e+11 6.12525e+10 3.77225e+10 3.09175e+10 2.48179e+10 2.18026e+10 2.01575e+10 1.91804e+10 1.72247e+10 1.55642e+10 1.20252e+10 1.19058e+10 1.01974e+10 8.87101e+09 8.82e+09 8.43377e+09 8.18976e+09 7.08955e+09 6.78324e+09 6.61146e+09 7.01793e+09 6.58018e+09 6.37195e+09 6.01498e+09 5.98444e+09 5.98274e+09 5.7521e+09 5.63504e+09 5.5145e+09 6.75769e+09 5.32672e+09 5.31654e+09 5.29859e+09 5.22598e+09 5.73884e+09 5.15715e+09 5.14716e+09 5.14684e+09 5.09423e+09 5.09007e+09 5.05524e+09 4.95885e+09 4.86269e+09
threshold=-37119.387167855639 -90566.645963411764 -10558.963928246456 22130.455132966719 -59185.983140393095 -153401.96644471382 -22948.819298245613 52782.592793280732 -114274.61365799412 -48800.820358726909 -3774.9849296926036 -16794.243164781834 -75263.850017880948 -28536.857173265216 2957.4103811294049 75534.293395730361 -59152.704361873984 -79605.516840399927 -47914.489003339615 36259.924813679543 3006.6082105293758 -1755.7878787878788 -36608.912764875153 -55124.540343542722 -43764.607811344133 -54965.883136920638 -41128.772921510419 23682.597056485396 -25119.443805691288 -66704.725700550232 -79529.067624030533 -14728.31818181818 -13562.341479266865 -126876.27663919397 -79521.222667878304 -84576.181715557177 -28149.499999999996 -31348.172889367554 -1964.4999999999998 -90343.211167017755 -105505.94777177766 -8516.0025855512631 -43240.891485473658 -47977.696732787743 35681.600838992286 -114479.14574689411 36697.863547710243 53399.573047533784 -71916.044717996294
decision_type=2 2 2 2 2 2 2 2 2 2 2 2 2 2 2 2 2 2 2 2 2 2 2 2 2 2 2 2 2 2 2 2 2 2 2 2 2 2 2 2 2 2 2 2 2 2 2 2 2
left_child=1 5 6 10 12 48 13 19 33 18 31 32 17 24 20 46 34 -3 -6 -5 -12 -16 25 -20 -2 -11 -27 -21 -26 -18 -19 -4 36 -7 -14 -36 -8 -15 -33 40 -10 -13 -30 -24 -23 -35 -9 -17 -1
right_child=2 4 3 7 9 8 11 15 39 22 14 41 16 37 21 47 29 30 23 27 -22 44 43 -25 28 26 -28 -29 42 -31 -32 38 -34 45 35 -37 -38 -39 -40 -41 -42 -43 -44 -45 -46 -47 -48 -49 -50
leaf_value=-3248.9104681731278 119.69105455545876 -1035.4284698301476 605.64562733968103 1279.389083457379 -603.10895255400771 -2298.8707952115019 366.24323478351266 1880.4163683776858 -1704.7874594830455 -71.631816528461599 378.93837022144413 123.03385132717527 -647.55791485427335 162.49245898856799 988.6169975220688 1971.2822204589845 -1446.0650980081646 -1802.6043414834105 -1212.4776802201704 550.2679128707083 -44.272921900595392 572.88637658228538 -907.44212687516415 -757.06287153358562 -245.08358196359518 -474.2162883659912 -345.16185587177614 1109.3505811271023 -991.60655975341797 -1020.7382493863294 -1309.0390180933196 264.68556034107718 -338.51787369314548 -1815.5809372209822 -1230.0477353988156 -837.60855013970706 16.445692414415397 -115.62654765345162 -67.29764706681415 -1808.6700377506997 -1385.8912250464766 -185.81451053758065 -386.98658359411996 -539.88008178455027 -116.4040810585022 -2281.7563299005683 1427.7814839807359 2417.1782447000151 -2528.5910381610579
leaf_weight=237 123 454 126 309 1874 263 110 100 235 135 17158 10082 324 179 127 158 111 81 110 95 124 628 119 383 4697 2862 1667 118 48 331 254 5261 113 175 124 951 10272 4292 123 201 353 137 132 477 28 88 161 103 26
leaf_count=237 123 454 126 309 1874 263 110 100 235 135 17158 10082 324 179 127 158 111 81 110 95 124 628 119 383 4697 2862 1667 118 48 331 254 5261 113 175 124 951 10272 4292 123 201 353 137 132 477 28 88 161 103 26
internal_value=0 -817.866 176.619 406.02 -630.515 -2035.64 -10.4808 1491.24 -1807.23 -506.27 357.962 66.9081 -990.825 -179.738 386.294 1874.23 -900.205 -1202.27 -656.339 1108.26 375.902 615.668 -438.74 -858.677 -247.023 -416.437 -426.715 859.994 -256.272 -1127.55 -1428.38 265.072 16.2901 -2135.22 -828.378 -882.876 20.1519 -104.492 257.101 -1588.58 -1513.34 118.893 -548.219 -613.269 543.465 -1971.56 1601.2 2147.25 -3177.7
internal_weight=0 11835 54804 24619 10257 1578 30185 1044 1315 7627 23575 20714 2630 9471 18065 522 1841 789 2367 522 17282 783 5260 493 5000 4664 4529 213 4877 442 335 5510 10495 526 1399 1075 10382 4471 5384 789 588 10219 180 596 656 263 261 261 263
internal_count=66639 11835 54804 24619 10257 1578 30185 1044 1315 7627 23575 20714 2630 9471 18065 522 1841 789 2367 522 17282 783 5260 493 5000 4664 4529 213 4877 442 335 5510 10495 526 1399 1075 10382 4471 5384 789 588 10219 180 596 656 263 261 261 263
is_linear=0
shrinkage=0.05


Tree=19
num_leaves=50
num_cat=0
split_feature=1 1 1 1 1 1 1 1 1 1 1 1 1 1 1 2 2 2 2 1 2 2 3 2 6 6 2 1 2 3 6 3 1 2 6 2 2 2 1 3 6 6 2 2 2 0 7 3 6
split_gain=3.47672e+12 1.10264e+12 7.30931e+11 4.55031e+11 2.03158e+11 1.57798e+11 1.00082e+11 4.38956e+10 3.66642e+10 3.23521e+10 3.11298e+10 2.00193e+10 1.99562e+10 1.67817e+10 1.59047e+10 1.16008e+10 1.11902e+10 9.85327e+09 9.26783e+09 9.22526e+09 8.83981e+09 7.00315e+09 6.63337e+09 6.62123e+09 6.45236e+09 6.36109e+09 6.31907e+09 6.56504e+09 6.30755e+09 6.08447e+09 6.9033e+09 6.68481e+09 5.95441e+09 5.86895e+09 5.821e+09 5.6821e+09 5.40987e+09 5.39782e+09 5.35353e+09 5.72588e+09 5.76574e+09 5.28211e+09 4.80157e+09 4.6953e+09 4.6259e+09 4.56087e+09 5.34563e+09 4.52272e+09 4.47536e+09
threshold=-32679.260755425999 -79521.222667878304 -7441.245918231175 35720.793788997202 -126876.27663919397 -51422.990670879408 -20290.613761326225 6772.3906067935541 -153401.96644471382 75534.293395730361 -97273.063118366277 -40164.978729519971 -64418.185977381887 -13721.663961038959 -25408.399999999998 -66559.064793132638 -79605.516840399927 13074.984928922235 -39681.636433752785 -1665.4999999999998 -49614.143498774814 -42669.707141466301 75675.314437166657 -69153.687659569929 -53896.108614890458 -75135.74595551299 -54965.883136920638 -44986.388904857711 -23740.729468599031 -1836.4161259172758 2957.4103811294049 53128.149052509463 52782.592793280732 -23450.552259759006 -47977.696732787743 -10208.812759976599 -16421.173109243693 -18708.72383985441 -114274.61365799412 -114691.43099176396 -84576.181715557177 -55124.540343542722 -15461.623877414868 -2930.6874999999995 -105437.14081763969 1.0000000180025095e-35 -79183.335301993851 -114691.43099176396 53399.573047533784
decision_type=2 2 2 2 2 2 2 2 2 2 2 2 2 2 2 2 2 2 2 2 2 2 2 2 2 2 2 2 2 2 2 2 2 2 2 2 2 2 2 2 2 2 2 2 2 2 2 2 2
left_child=1 4 6 7 8 12 14 17 45 22 38 18 15 33 28 -3 -12 19 26 42 23 -13 32 -14 -22 -17 -7 -28 -2 -9 -31 -32 -5 -8 -20 -35 -15 -23 44 -40 -41 -25 -4 -38 -6 46 -1 -10 -11
right_child=2 5 3 9 10 11 13 29 47 48 16 21 20 36 -16 25 -18 -19 34 -21 24 37 -24 41 -26 -27 27 -29 -30 30 31 -33 -34 35 -36 -37 43 -39 39 40 -42 -43 -44 -45 -46 -47 -48 -49 -50
leaf_value=-3201.7479020266192 -152.91409064464921 -826.24657062956931 755.10779665054815 1256.8513306297209 -1786.8084186197918 -184.34045542473575 364.6185059776742 955.15541629251447 -2085.9572301962212 1872.7180210548113 -1119.0207490466889 -69.063059593847697 -363.66124971698787 461.11850592594021 -43.925513037494774 -1480.7006943922779 -1526.8957013165509 -242.83766812606598 -940.3120036448081 382.50244581856788 -1215.7616951363987 -319.93620315064226 897.55474813124715 -787.18018637601699 -776.59987809030645 -1039.259414874155 -518.78738678968557 -383.18133948551122 -395.94947583037367 487.51094797804956 977.64892892739215 361.74492004126836 1619.694479090731 60.974253170990579 -563.69751409466346 -311.85142017845249 161.25860695069173 -833.01303147536055 -1315.9497872359666 -1987.4608352530715 -1568.1678643219664 -612.42426271810166 313.88084861556564 -231.88817185983063 -2383.2434313322369 -2519.806951121795 -2484.5618229166666 -2622.7512288411458 2296.3192751393735
leaf_weight=194 4452 832 62 241 225 239 158 212 215 158 546 283 179 149 5786 104 243 71 127 9861 122 3611 68 722 266 379 1757 1814 284 320 194 57 213 13104 534 103 5538 52 135 117 274 1078 11225 77 38 39 30 48 103
leaf_count=194 4452 832 62 241 225 239 158 212 215 158 546 283 179 149 5786 104 243 71 127 9861 122 3611 68 722 266 379 1757 1814 284 320 194 57 213 13104 534 103 5538 52 135 117 274 1078 11225 77 38 39 30 48 103
internal_value=0 -693.93 187.96 400.916 -1750.38 -510.214 24.3169 358.764 -2601.37 1585.36 -1466.72 -390.786 -783.227 92.4459 -99.5416 -939.399 -1244.64 345.197 -463.228 347.172 -696.464 -308.705 1358.1 -653.68 -914.687 -1134.31 -433.244 -449.902 -167.488 726.411 641.483 837.782 1427.08 61.6907 -636.058 58.0666 163.758 -327.22 -1688.8 -1596.7 -1693.63 -682.521 316.305 155.867 -1872.99 -3018.82 -3105.7 -2183.93 2039.89
internal_weight=0 14203 52436 22785 2104 12099 29651 22002 526 783 1578 8417 3682 19129 10522 1315 789 21219 4471 21148 2367 3946 522 1979 388 483 3810 3571 4736 783 571 251 454 13365 661 13207 5764 3663 789 526 391 1800 11287 5615 263 263 224 263 261
internal_count=66639 14203 52436 22785 2104 12099 29651 22002 526 783 1578 8417 3682 19129 10522 1315 789 21219 4471 21148 2367 3946 522 1979 388 483 3810 3571 4736 783 571 251 454 13365 661 13207 5764 3663 789 526 391 1800 11287 5615 263 263 224 263 261
is_linear=0
shrinkage=0.05


Tree=20
num_leaves=50
num_cat=0
split_feature=1 1 1 1 1 1 1 1 1 1 1 1 1 1 1 1 2 2 2 3 2 6 2 3 6 9 6 3 6 2 1 2 2 2 3 6 2 2 2 2 4 2 2 6 2 1 2 1 0
split_gain=3.13966e+12 9.20357e+11 7.2885e+11 4.174e+11 1.56185e+11 1.38633e+11 1.13648e+11 4.17161e+10 3.30894e+10 2.91977e+10 2.02443e+10 1.95299e+10 1.94468e+10 1.55778e+10 1.50297e+10 1.32272e+10 1.12862e+10 8.68463e+09 7.95895e+09 7.24539e+09 6.99532e+09 6.57218e+09 6.29815e+09 5.98661e+09 5.97885e+09 5.95717e+09 5.68068e+09 5.64722e+09 6.12047e+09 5.48215e+09 5.37385e+09 5.3175e+09 5.26065e+09 4.91689e+09 4.85111e+09 5.49963e+09 4.81994e+09 4.77256e+09 4.69596e+09 4.66979e+09 4.63343e+09 4.48563e+09 4.38262e+09 4.38138e+09 4.37834e+09 4.66496e+09 4.14636e+09 4.40091e+09 4.11618e+09
threshold=-35523.065223226724 -84571.245617340333 -9844.5311971922492 35720.793788997202 -126876.27663919397 -53768.553778774753 -22678.734993614296 12903.439151215725 -153401.96644471382 75534.293395730361 -66571.461139436185 -105505.94777177766 -16551.085532302091 -3230.4999999999995 -44986.388904857711 -27699.448051948046 -62548.780953035421 -57790.593467931139 -47152.643890532992 -40144.25307248372 -5693.4999999999991 -59198.519527401419 -90343.211167017755 75675.314437166657 -57903.333162799565 1.0000000180025095e-35 -90407.41515508866 13322.597694467173 22758.078029096552 -17523.470401802024 52782.592793280732 -105437.14081763969 -14862.878693194498 -26178.782448390277 -84491.602634335344 -84576.181715557177 -37657.749915366199 -52504.7813990461 -7432.2655843901166 -1964.4999999999998 75534.293395730361 -20643.460938515531 -13860.507573730127 -97211.074638789083 22197.036357292007 782.50000000000011 -72054.77796205596 -60863.693334257092 1.0000000180025095e-35
decision_type=2 2 2 2 2 2 2 2 2 2 2 2 2 2 2 2 2 2 2 2 2 2 2 2 2 2 2 2 2 2 2 2 2 2 2 2 2 2 2 2 2 2 2 2 2 2 2 2 2
left_child=1 4 6 7 8 10 15 13 48 23 16 31 33 32 18 29 34 46 -7 37 -15 -21 -13 30 -19 -20 -24 -9 -29 36 -5 -6 -4 -8 -3 -36 -2 -16 -14 -34 -30 -17 -35 -33 45 -22 -12 -48 -1
right_child=2 5 3 9 11 14 12 27 -10 -11 17 22 38 20 19 41 -18 24 25 21 44 -23 26 -25 -26 -27 -28 28 40 -31 -32 43 39 42 35 -37 -38 -39 -40 -41 -42 -43 -44 -45 -46 -47 47 -49 -50
leaf_value=-2950.4112995692667 -8.822810124433957 -723.43992174036373 602.56582632964512 1194.0087542078802 -1601.431655778556 -438.67309115317897 305.98903339857696 952.65670947392778 -2074.7308590036837 1937.8920522134424 -371.86862908469311 -1174.4416973530467 118.08981808323941 652.88572453473068 56.778044040732915 -71.232830209508506 -1251.3681774321058 -1011.5192846766572 -558.77423498957774 -843.2989542643229 335.36711917306621 -406.94688962294481 -1905.4554389565678 852.67701117571676 -730.82916166357802 -868.97514805019841 -1364.2355420280905 420.7353081981588 1069.0185059264466 -632.4165777670371 1538.7097452656205 -2470.832800662879 253.81099352647485 17.333219071805669 -1335.3759886224586 -902.78570210576061 -212.26994066691159 -313.92834275275919 -175.5703678200359 -50.348605237265893 352.49164721171064 -298.80286415465679 -281.67196925380267 -1794.2055832435344 -128.22205966248805 417.53212219666466 -760.07545904862263 -557.94500257791697 -2393.8167067307691
leaf_weight=224 312 340 106 241 406 1623 146 240 263 261 153 458 10081 185 90 3979 252 281 816 90 14562 2095 59 68 584 191 272 161 91 74 213 33 5799 10486 83 640 4351 2459 138 129 30 229 124 87 49 1960 494 592 39
leaf_count=224 312 340 106 241 406 1623 146 240 263 261 153 458 10081 185 90 3979 252 281 816 90 14562 2095 59 68 584 191 272 161 91 74 213 33 5799 10486 83 640 4351 2459 138 129 30 229 124 87 49 1960 494 592 39
internal_value=0 -709.914 165.916 370.584 -1743.13 -533.51 1.0942 332.444 -2471.3 1506.1 -796.622 -1451.87 64.7312 322.321 -411.351 -148.127 -950.52 -700.436 -507.186 -358.11 347.128 -424.92 -1294.54 1290.2 -822.013 -617.611 -1460.71 774.39 622.673 -205.433 1355.73 -1687.86 253.435 17.8043 -879.199 -952.447 -198.657 -300.839 114.124 247.192 891.367 -83.6172 13.8387 -1980.28 343.715 345.114 -615.558 -649.89 -2867.87
internal_weight=0 12624 54015 24095 1841 10783 29920 23312 526 783 3419 1315 20975 22790 7364 8945 1315 2104 2630 4734 16756 2185 789 522 865 1007 331 522 282 4737 454 526 6034 10756 1063 723 4663 2549 10219 5928 121 4208 10610 120 16571 16522 1239 1086 263
internal_count=66639 12624 54015 24095 1841 10783 29920 23312 526 783 3419 1315 20975 22790 7364 8945 1315 2104 2630 4734 16756 2185 789 522 865 1007 331 522 282 4737 454 526 6034 10756 1063 723 4663 2549 10219 5928 121 4208 10610 120 16571 16522 1239 1086 263
is_linear=0
shrinkage=0.05


Tree=21
num_leaves=50
num_cat=0
split_feature=1 1 1 1 1 1 1 1 1 1 1 1 1 1 1 2 1 2 2 3 2 2 2 6 7 2 2 2 2 2 1 7 3 6 6 2 6 2 1 2 2 2 3 6 2 2 6 2 2
split_gain=2.8359e+12 7.96341e+11 6.93716e+11 3.84365e+11 1.35741e+11 1.2048e+11 1.10027e+11 4.44303e+10 2.77718e+10 2.36715e+10 1.95758e+10 1.88936e+10 1.80506e+10 1.33317e+10 1.12784e+10 9.70138e+09 9.16138e+09 9.03022e+09 8.85233e+09 7.89437e+09 7.32995e+09 7.22079e+09 6.72892e+09 6.21276e+09 5.8946e+09 5.46591e+09 5.40429e+09 5.12121e+09 5.12102e+09 4.71822e+09 5.01723e+09 4.70451e+09 1.62889e+10 4.59965e+09 4.59194e+09 4.59087e+09 4.92732e+09 4.58673e+09 4.66017e+09 4.48802e+09 4.45029e+09 4.43331e+09 4.35749e+09 7.32199e+09 4.35591e+09 4.30244e+09 5.04462e+09 4.20192e+09 4.19832e+09
